{"learner":{"attributes":{"best_iteration":"415","best_score":"0.14061306453653294"},"feature_names":["sqrt(t/R)","E*sqrt(t)/Kic","ell/R","v"],"feature_types":[],"gradient_booster":{"model":{"gbtree_model_param":{"num_parallel_tree":"1","num_trees":"448"},"iteration_indptr":[0,1,2,3,4,5,6,7,8,9,10,11,12,13,14,15,16,17,18,19,20,21,22,23,24,25,26,27,28,29,30,31,32,33,34,35,36,37,38,39,40,41,42,43,44,45,46,47,48,49,50,51,52,53,54,55,56,57,58,59,60,61,62,63,64,65,66,67,68,69,70,71,72,73,74,75,76,77,78,79,80,81,82,83,84,85,86,87,88,89,90,91,92,93,94,95,96,97,98,99,100,101,102,103,104,105,106,107,108,109,110,111,112,113,114,115,116,117,118,119,120,121,122,123,124,125,126,127,128,129,130,131,132,133,134,135,136,137,138,139,140,141,142,143,144,145,146,147,148,149,150,151,152,153,154,155,156,157,158,159,160,161,162,163,164,165,166,167,168,169,170,171,172,173,174,175,176,177,178,179,180,181,182,183,184,185,186,187,188,189,190,191,192,193,194,195,196,197,198,199,200,201,202,203,204,205,206,207,208,209,210,211,212,213,214,215,216,217,218,219,220,221,222,223,224,225,226,227,228,229,230,231,232,233,234,235,236,237,238,239,240,241,242,243,244,245,246,247,248,249,250,251,252,253,254,255,256,257,258,259,260,261,262,263,264,265,266,267,268,269,270,271,272,273,274,275,276,277,278,279,280,281,282,283,284,285,286,287,288,289,290,291,292,293,294,295,296,297,298,299,300,301,302,303,304,305,306,307,308,309,310,311,312,313,314,315,316,317,318,319,320,321,322,323,324,325,326,327,328,329,330,331,332,333,334,335,336,337,338,339,340,341,342,343,344,345,346,347,348,349,350,351,352,353,354,355,356,357,358,359,360,361,362,363,364,365,366,367,368,369,370,371,372,373,374,375,376,377,378,379,380,381,382,383,384,385,386,387,388,389,390,391,392,393,394,395,396,397,398,399,400,401,402,403,404,405,406,407,408,409,410,411,412,413,414,415,416,417,418,419,420,421,422,423,424,425,426,427,428,429,430,431,432,433,434,435,436,437,438,439,440,441,442,443,444,445,446,447,448],"tree_info":[0,0,0,0,0,0,0,0,0,0,0,0,0,0,0,0,0,0,0,0,0,0,0,0,0,0,0,0,0,0,0,0,0,0,0,0,0,0,0,0,0,0,0,0,0,0,0,0,0,0,0,0,0,0,0,0,0,0,0,0,0,0,0,0,0,0,0,0,0,0,0,0,0,0,0,0,0,0,0,0,0,0,0,0,0,0,0,0,0,0,0,0,0,0,0,0,0,0,0,0,0,0,0,0,0,0,0,0,0,0,0,0,0,0,0,0,0,0,0,0,0,0,0,0,0,0,0,0,0,0,0,0,0,0,0,0,0,0,0,0,0,0,0,0,0,0,0,0,0,0,0,0,0,0,0,0,0,0,0,0,0,0,0,0,0,0,0,0,0,0,0,0,0,0,0,0,0,0,0,0,0,0,0,0,0,0,0,0,0,0,0,0,0,0,0,0,0,0,0,0,0,0,0,0,0,0,0,0,0,0,0,0,0,0,0,0,0,0,0,0,0,0,0,0,0,0,0,0,0,0,0,0,0,0,0,0,0,0,0,0,0,0,0,0,0,0,0,0,0,0,0,0,0,0,0,0,0,0,0,0,0,0,0,0,0,0,0,0,0,0,0,0,0,0,0,0,0,0,0,0,0,0,0,0,0,0,0,0,0,0,0,0,0,0,0,0,0,0,0,0,0,0,0,0,0,0,0,0,0,0,0,0,0,0,0,0,0,0,0,0,0,0,0,0,0,0,0,0,0,0,0,0,0,0,0,0,0,0,0,0,0,0,0,0,0,0,0,0,0,0,0,0,0,0,0,0,0,0,0,0,0,0,0,0,0,0,0,0,0,0,0,0,0,0,0,0,0,0,0,0,0,0,0,0,0,0,0,0,0,0,0,0,0,0,0,0,0,0,0,0,0,0,0,0,0,0,0,0,0,0,0,0,0,0,0,0,0,0,0,0,0,0,0,0,0,0,0,0,0,0,0,0,0,0,0,0,0,0,0,0,0,0,0,0,0,0,0,0],"trees":[{"base_weights":[1.4545245E-3,-2.1191923E-1,2.7088404E-1,-2.6530324E-2,-7.6592215E-3,6.812825E-3,2.2835031E-2],"categories":[],"categories_nodes":[],"categories_segments":[],"categories_sizes":[],"default_left":[0,0,0,0,0,0,0],"id":0,"left_children":[1,3,5,-1,-1,-1,-1],"loss_changes":[4.0118073E1,6.2904243E0,3.0709743E0,0E0,0E0,0E0,0E0],"parents":[2147483647,0,0,1,1,2,2],"right_children":[2,4,6,-1,-1,-1,-1],"split_conditions":[-1.1305706E-2,-4.443068E-1,2.0074782E-1,-2.6530324E-2,-7.6592215E-3,6.812825E-3,2.2835031E-2],"split_indices":[0,0,0,0,0,0,0],"split_type":[0,0,0,0,0,0,0],"sum_hessian":[6.789647E2,3.79E2,2.999647E2,1.21E2,2.58E2,9.5E1,2.049647E2],"tree_param":{"num_deleted":"0","num_feature":"4","num_nodes":"7","size_leaf_vector":"1"}},{"base_weights":[-1.4189318E-3,-2.0542967E-1,2.542226E-1,-2.551831E-2,-7.410816E-3,9.064542E-3,2.3075415E-2],"categories":[],"categories_nodes":[],"categories_segments":[],"categories_sizes":[],"default_left":[0,0,0,0,0,0,0],"id":1,"left_children":[1,3,5,-1,-1,-1,-1],"loss_changes":[3.665994E1,5.8798046E0,2.6487236E0,0E0,0E0,0E0,0E0],"parents":[2147483647,0,0,1,1,2,2],"right_children":[2,4,6,-1,-1,-1,-1],"split_conditions":[-1.1305706E-2,-4.443068E-1,3.4053162E-1,-2.551831E-2,-7.410816E-3,9.064542E-3,2.3075415E-2],"split_indices":[0,0,0,0,0,0,0],"split_type":[0,0,0,0,0,0,0],"sum_hessian":[6.849647E2,3.83E2,3.019647E2,1.24E2,2.59E2,1.41E2,1.609647E2],"tree_param":{"num_deleted":"0","num_feature":"4","num_nodes":"7","size_leaf_vector":"1"}},{"base_weights":[-1.990807E-3,-1.8714644E-1,2.364564E-1,-2.1507286E-2,-4.8707994E-3,5.2519646E-3,2.021274E-2],"categories":[],"categories_nodes":[],"categories_segments":[],"categories_sizes":[],"default_left":[0,0,0,0,0,0,0],"id":2,"left_children":[1,3,5,-1,-1,-1,-1],"loss_changes":[3.0809704E1,5.597187E0,2.689087E0,0E0,0E0,0E0,0E0],"parents":[2147483647,0,0,1,1,2,2],"right_children":[2,4,6,-1,-1,-1,-1],"split_conditions":[-1.1305706E-2,-3.525784E-1,2.0074782E-1,-2.1507286E-2,-4.8707994E-3,5.2519646E-3,2.021274E-2],"split_indices":[0,0,0,0,0,0,0],"split_type":[0,0,0,0,0,0,0],"sum_hessian":[6.799647E2,3.85E2,2.949647E2,1.69E2,2.16E2,9.3E1,2.019647E2],"tree_param":{"num_deleted":"0","num_feature":"4","num_nodes":"7","size_leaf_vector":"1"}},{"base_weights":[-0E0,-1.9222611E-1,2.0116381E-1,-2.2207094E-2,-7.0167407E-3,3.6603224E-3,1.8972643E-2],"categories":[],"categories_nodes":[],"categories_segments":[],"categories_sizes":[],"default_left":[0,0,0,0,0,0,0],"id":3,"left_children":[1,3,5,-1,-1,-1,-1],"loss_changes":[2.731415E1,3.8547935E0,3.7964668E0,0E0,0E0,0E0,0E0],"parents":[2147483647,0,0,1,1,2,2],"right_children":[2,4,6,-1,-1,-1,-1],"split_conditions":[-7.525604E-2,-4.443068E-1,2.0074782E-1,-2.2207094E-2,-7.0167407E-3,3.6603224E-3,1.8972643E-2],"split_indices":[0,0,0,0,0,0,0],"split_type":[0,0,0,0,0,0,0],"sum_hessian":[6.879647E2,3.52E2,3.359647E2,1.25E2,2.27E2,1.27E2,2.089647E2],"tree_param":{"num_deleted":"0","num_feature":"4","num_nodes":"7","size_leaf_vector":"1"}},{"base_weights":[-0E0,-1.6409485E-1,2.1332711E-1,-1.8018402E-2,-3.7088434E-3,5.2117347E-3,1.7921899E-2],"categories":[],"categories_nodes":[],"categories_segments":[],"categories_sizes":[],"default_left":[0,0,0,0,0,0,0],"id":4,"left_children":[1,3,5,-1,-1,-1,-1],"loss_changes":[2.4266129E1,4.145032E0,1.819191E0,0E0,0E0,0E0,0E0],"parents":[2147483647,0,0,1,1,2,2],"right_children":[2,4,6,-1,-1,-1,-1],"split_conditions":[-1.1305706E-2,-3.2647055E-1,2.0074782E-1,-1.8018402E-2,-3.7088434E-3,5.2117347E-3,1.7921899E-2],"split_indices":[0,0,0,0,0,0,0],"split_type":[0,0,0,0,0,0,0],"sum_hessian":[6.749647E2,3.83E2,2.919647E2,1.87E2,1.96E2,9.1E1,2.009647E2],"tree_param":{"num_deleted":"0","num_feature":"4","num_nodes":"7","size_leaf_vector":"1"}},{"base_weights":[-0E0,-1.7084002E-1,1.7256865E-1,-2.0928206E-2,-6.6101914E-3,3.6375234E-3,1.605796E-2],"categories":[],"categories_nodes":[],"categories_segments":[],"categories_sizes":[],"default_left":[0,0,0,0,0,0,0],"id":5,"left_children":[1,3,5,-1,-1,-1,-1],"loss_changes":[2.052903E1,3.0982084E0,2.4476595E0,0E0,0E0,0E0,0E0],"parents":[2147483647,0,0,1,1,2,2],"right_children":[2,4,6,-1,-1,-1,-1],"split_conditions":[-7.525604E-2,-4.890006E-1,2.0074782E-1,-2.0928206E-2,-6.6101914E-3,3.6375234E-3,1.605796E-2],"split_indices":[0,0,0,0,0,0,0],"split_type":[0,0,0,0,0,0,0],"sum_hessian":[6.779647E2,3.42E2,3.359647E2,1.04E2,2.38E2,1.29E2,2.069647E2],"tree_param":{"num_deleted":"0","num_feature":"4","num_nodes":"7","size_leaf_vector":"1"}},{"base_weights":[-0E0,-1.4095207E-1,1.8019432E-1,-1.4923429E-2,-1.8138177E-3,7.2274054E-3,1.7880086E-2],"categories":[],"categories_nodes":[],"categories_segments":[],"categories_sizes":[],"default_left":[0,0,0,0,0,0,0],"id":6,"left_children":[1,3,5,-1,-1,-1,-1],"loss_changes":[1.7882774E1,3.4530191E0,1.4905396E0,0E0,0E0,0E0,0E0],"parents":[2147483647,0,0,1,1,2,2],"right_children":[2,4,6,-1,-1,-1,-1],"split_conditions":[-1.1305706E-2,-2.9038155E-1,4.3269736E-1,-1.4923429E-2,-1.8138177E-3,7.2274054E-3,1.7880086E-2],"split_indices":[0,0,0,0,0,0,0],"split_type":[0,0,0,0,0,0,0],"sum_hessian":[6.849647E2,3.84E2,3.009647E2,2.17E2,1.67E2,1.77E2,1.2396471E2],"tree_param":{"num_deleted":"0","num_feature":"4","num_nodes":"7","size_leaf_vector":"1"}},{"base_weights":[-0E0,-1.501551E-1,1.5576279E-1,-1.836981E-2,-5.9069907E-3,5.68285E-3,1.7115064E-2],"categories":[],"categories_nodes":[],"categories_segments":[],"categories_sizes":[],"default_left":[0,0,0,0,0,0,0],"id":7,"left_children":[1,3,5,-1,-1,-1,-1],"loss_changes":[1.6476408E1,2.3440866E0,2.0819464E0,0E0,0E0,0E0,0E0],"parents":[2147483647,0,0,1,1,2,2],"right_children":[2,4,6,-1,-1,-1,-1],"split_conditions":[-7.525604E-2,-4.890006E-1,-5.810264E-1,-1.836981E-2,-5.9069907E-3,5.68285E-3,1.7115064E-2],"split_indices":[0,0,1,0,0,0,0],"split_type":[0,0,0,0,0,0,0],"sum_hessian":[6.859647E2,3.48E2,3.379647E2,1.04E2,2.44E2,2.09E2,1.289647E2],"tree_param":{"num_deleted":"0","num_feature":"4","num_nodes":"7","size_leaf_vector":"1"}},{"base_weights":[-0E0,-1.2840469E-1,1.6225608E-1,-1.4349215E-2,-2.7691424E-3,6.9126156E-3,1.7827008E-2],"categories":[],"categories_nodes":[],"categories_segments":[],"categories_sizes":[],"default_left":[0,0,0,0,0,0,0],"id":8,"left_children":[1,3,5,-1,-1,-1,-1],"loss_changes":[1.4529964E1,2.6810937E0,1.4572535E0,0E0,0E0,0E0,0E0],"parents":[2147483647,0,0,1,1,2,2],"right_children":[2,4,6,-1,-1,-1,-1],"split_conditions":[-1.1305706E-2,-3.2647055E-1,5.240633E-1,-1.4349215E-2,-2.7691424E-3,6.9126156E-3,1.7827008E-2],"split_indices":[0,0,0,0,0,0,0],"split_type":[0,0,0,0,0,0,0],"sum_hessian":[6.789647E2,3.8E2,2.989647E2,1.83E2,1.97E2,2.04E2,9.496471E1],"tree_param":{"num_deleted":"0","num_feature":"4","num_nodes":"7","size_leaf_vector":"1"}},{"base_weights":[-0E0,-1.2395326E-1,1.5376104E-1,-1.6581733E-2,-4.74371E-3,4.3997536E-3,1.4872377E-2],"categories":[],"categories_nodes":[],"categories_segments":[],"categories_sizes":[],"default_left":[0,0,0,0,0,0,0],"id":9,"left_children":[1,3,5,-1,-1,-1,-1],"loss_changes":[1.3283224E1,2.2041245E0,1.5873823E0,0E0,0E0,0E0,0E0],"parents":[2147483647,0,0,1,1,2,2],"right_children":[2,4,6,-1,-1,-1,-1],"split_conditions":[-1.1305706E-2,-4.890006E-1,3.4053162E-1,-1.6581733E-2,-4.74371E-3,4.3997536E-3,1.4872377E-2],"split_indices":[0,0,0,0,0,0,0],"split_type":[0,0,0,0,0,0,0],"sum_hessian":[6.779647E2,3.75E2,3.029647E2,1.01E2,2.74E2,1.42E2,1.609647E2],"tree_param":{"num_deleted":"0","num_feature":"4","num_nodes":"7","size_leaf_vector":"1"}},{"base_weights":[-0E0,-1.1182587E-1,1.4007795E-1,-1.2658594E-2,-2.086536E-3,4.2795953E-3,1.3421861E-2],"categories":[],"categories_nodes":[],"categories_segments":[],"categories_sizes":[],"default_left":[0,0,0,0,0,0,0],"id":10,"left_children":[1,3,5,-1,-1,-1,-1],"loss_changes":[1.0972475E1,2.243404E0,1.171968E0,0E0,0E0,0E0,0E0],"parents":[2147483647,0,0,1,1,2,2],"right_children":[2,4,6,-1,-1,-1,-1],"split_conditions":[-1.1305706E-2,-3.2647055E-1,3.4053162E-1,-1.2658594E-2,-2.086536E-3,4.2795953E-3,1.3421861E-2],"split_indices":[0,0,0,0,0,0,0],"split_type":[0,0,0,0,0,0,0],"sum_hessian":[6.819647E2,3.8E2,3.019647E2,1.86E2,1.94E2,1.44E2,1.579647E2],"tree_param":{"num_deleted":"0","num_feature":"4","num_nodes":"7","size_leaf_vector":"1"}},{"base_weights":[3.1524631E-3,-1.0018326E-1,1.4002746E-1,-1.3651929E-2,-2.8642267E-3,4.9685026E-3,1.4732428E-2],"categories":[],"categories_nodes":[],"categories_segments":[],"categories_sizes":[],"default_left":[0,0,0,0,0,0,0],"id":11,"left_children":[1,3,5,-1,-1,-1,-1],"loss_changes":[9.923968E0,2.1544986E0,1.2954755E0,0E0,0E0,0E0,0E0],"parents":[2147483647,0,0,1,1,2,2],"right_children":[2,4,6,-1,-1,-1,-1],"split_conditions":[-1.1305706E-2,-4.4034675E-1,4.3269736E-1,-1.3651929E-2,-2.8642267E-3,4.9685026E-3,1.4732428E-2],"split_indices":[0,0,0,0,0,0,0],"split_type":[0,0,0,0,0,0,0],"sum_hessian":[6.819647E2,3.88E2,2.939647E2,1.28E2,2.6E2,1.73E2,1.2096471E2],"tree_param":{"num_deleted":"0","num_feature":"4","num_nodes":"7","size_leaf_vector":"1"}},{"base_weights":[-4.6414757E-4,-1.5323202E-1,8.6977445E-2,-1.6227767E-2,-7.249388E-3,1.7667318E-3,1.2668009E-2],"categories":[],"categories_nodes":[],"categories_segments":[],"categories_sizes":[],"default_left":[0,0,0,0,0,0,0],"id":12,"left_children":[1,3,5,-1,-1,-1,-1],"loss_changes":[9.360352E0,6.185503E-1,2.5728238E0,0E0,0E0,0E0,0E0],"parents":[2147483647,0,0,1,1,2,2],"right_children":[2,4,6,-1,-1,-1,-1],"split_conditions":[-2.3628756E-1,-5.647349E-1,-5.810264E-1,-1.6227767E-2,-7.249388E-3,1.7667318E-3,1.2668009E-2],"split_indices":[0,0,1,0,0,0,0],"split_type":[0,0,0,0,0,0,0],"sum_hessian":[6.799647E2,2.47E2,4.329647E2,6.7E1,1.8E2,2.81E2,1.519647E2],"tree_param":{"num_deleted":"0","num_feature":"4","num_nodes":"7","size_leaf_vector":"1"}},{"base_weights":[-1.1521011E-3,-8.243236E-2,1.3415526E-1,-1.337581E-2,-2.5360067E-3,5.2827657E-3,1.3347575E-2],"categories":[],"categories_nodes":[],"categories_segments":[],"categories_sizes":[],"default_left":[0,0,0,0,0,0,0],"id":13,"left_children":[1,3,5,-1,-1,-1,-1],"loss_changes":[7.634176E0,2.0945404E0,6.504922E-1,0E0,0E0,0E0,0E0],"parents":[2147483647,0,0,1,1,2,2],"right_children":[2,4,6,-1,-1,-1,-1],"split_conditions":[9.097528E-2,-4.890006E-1,-5.810264E-1,-1.337581E-2,-2.5360067E-3,5.2827657E-3,1.3347575E-2],"split_indices":[0,0,1,0,0,0,0],"split_type":[0,0,0,0,0,0,0],"sum_hessian":[6.779647E2,4.28E2,2.499647E2,1.07E2,3.21E2,1.49E2,1.0096471E2],"tree_param":{"num_deleted":"0","num_feature":"4","num_nodes":"7","size_leaf_vector":"1"}},{"base_weights":[2.6391451E-3,-7.600081E-2,1.3841027E-1,-9.252775E-3,-4.786781E-4,5.7779104E-3,1.415858E-2],"categories":[],"categories_nodes":[],"categories_segments":[],"categories_sizes":[],"default_left":[0,0,0,0,0,0,0],"id":14,"left_children":[1,3,5,-1,-1,-1,-1],"loss_changes":[7.4528465E0,1.7801805E0,6.6504E-1,0E0,0E0,0E0,0E0],"parents":[2147483647,0,0,1,1,2,2],"right_children":[2,4,6,-1,-1,-1,-1],"split_conditions":[9.097528E-2,-2.7301022E-1,5.3420025E-1,-9.252775E-3,-4.786781E-4,5.7779104E-3,1.415858E-2],"split_indices":[0,0,0,0,0,0,0],"split_type":[0,0,0,0,0,0,0],"sum_hessian":[6.769647E2,4.29E2,2.479647E2,2.18E2,2.11E2,1.59E2,8.896471E1],"tree_param":{"num_deleted":"0","num_feature":"4","num_nodes":"7","size_leaf_vector":"1"}},{"base_weights":[-1.2289564E-3,-1.2711617E-1,7.2528444E-2,-1.5535835E-2,-6.0330206E-3,6.8923243E-4,9.217305E-3],"categories":[],"categories_nodes":[],"categories_segments":[],"categories_sizes":[],"default_left":[0,0,0,0,0,0,0],"id":15,"left_children":[1,3,5,-1,-1,-1,-1],"loss_changes":[6.5563397E0,6.74665E-1,1.689147E0,0E0,0E0,0E0,0E0],"parents":[2147483647,0,0,1,1,2,2],"right_children":[2,4,6,-1,-1,-1,-1],"split_conditions":[-2.3628756E-1,-6.3450485E-1,2.0074782E-1,-1.5535835E-2,-6.0330206E-3,6.8923243E-4,9.217305E-3],"split_indices":[0,0,0,0,0,0,0],"split_type":[0,0,0,0,0,0,0],"sum_hessian":[6.849647E2,2.53E2,4.319647E2,5.1E1,2.02E2,2.29E2,2.029647E2],"tree_param":{"num_deleted":"0","num_feature":"4","num_nodes":"7","size_leaf_vector":"1"}},{"base_weights":[-1.1278448E-3,-8.819182E-2,8.839054E-2,-1.41695235E-2,-3.8941687E-3,2.1978084E-3,9.55367E-3],"categories":[],"categories_nodes":[],"categories_segments":[],"categories_sizes":[],"default_left":[0,0,0,0,0,0,0],"id":16,"left_children":[1,3,5,-1,-1,-1,-1],"loss_changes":[5.450596E0,1.0843179E0,8.96374E-1,0E0,0E0,0E0,0E0],"parents":[2147483647,0,0,1,1,2,2],"right_children":[2,4,6,-1,-1,-1,-1],"split_conditions":[-7.525604E-2,-6.049778E-1,3.4053162E-1,-1.41695235E-2,-3.8941687E-3,2.1978084E-3,9.55367E-3],"split_indices":[0,0,0,0,0,0,0],"split_type":[0,0,0,0,0,0,0],"sum_hessian":[6.809647E2,3.48E2,3.329647E2,5.5E1,2.93E2,1.75E2,1.579647E2],"tree_param":{"num_deleted":"0","num_feature":"4","num_nodes":"7","size_leaf_vector":"1"}},{"base_weights":[-2.0213374E-3,2.6671223E-2,-1.2420362E-1,-2.5346817E-3,1.0974286E-2,-1.3008618E-2,-2.3536696E-3],"categories":[],"categories_nodes":[],"categories_segments":[],"categories_sizes":[],"default_left":[0,0,0,0,0,0,0],"id":17,"left_children":[1,3,5,-1,-1,-1,-1],"loss_changes":[2.5177922E0,5.107954E0,6.7532444E-1,0E0,0E0,0E0,0E0],"parents":[2147483647,0,0,1,1,2,2],"right_children":[2,4,6,-1,-1,-1,-1],"split_conditions":[1.6666667E-1,-5.810264E-1,6.666667E-1,-2.5346817E-3,1.0974286E-2,-1.3008618E-2,-2.3536696E-3],"split_indices":[3,1,3,0,0,0,0],"split_type":[0,0,0,0,0,0,0],"sum_hessian":[6.869647E2,5.589647E2,1.28E2,3.82E2,1.769647E2,6.3E1,6.5E1],"tree_param":{"num_deleted":"0","num_feature":"4","num_nodes":"7","size_leaf_vector":"1"}},{"base_weights":[3.531675E-5,-8.117855E-2,8.69307E-2,-1.18780555E-2,-3.305842E-3,2.8228539E-3,9.993805E-3],"categories":[],"categories_nodes":[],"categories_segments":[],"categories_sizes":[],"default_left":[0,0,0,0,0,0,0],"id":18,"left_children":[1,3,5,-1,-1,-1,-1],"loss_changes":[4.9593773E0,9.1272736E-1,7.998111E-1,0E0,0E0,0E0,0E0],"parents":[2147483647,0,0,1,1,2,2],"right_children":[2,4,6,-1,-1,-1,-1],"split_conditions":[-7.525604E-2,-5.6025815E-1,-5.810264E-1,-1.18780555E-2,-3.305842E-3,2.8228539E-3,9.993805E-3],"split_indices":[0,0,1,0,0,0,0],"split_type":[0,0,0,0,0,0,0],"sum_hessian":[6.839647E2,3.51E2,3.329647E2,7.4E1,2.77E2,2.06E2,1.2696471E2],"tree_param":{"num_deleted":"0","num_feature":"4","num_nodes":"7","size_leaf_vector":"1"}},{"base_weights":[3.7017004E-3,-5.632073E-2,1.0651167E-1,-7.1630455E-3,-0E0,-4.0127775E-3,7.7924426E-3],"categories":[],"categories_nodes":[],"categories_segments":[],"categories_sizes":[],"default_left":[0,0,0,0,0,0,0],"id":19,"left_children":[1,3,5,-1,-1,-1,-1],"loss_changes":[4.3319917E0,1.2211528E0,4.9475455E-1,0E0,0E0,0E0,0E0],"parents":[2147483647,0,0,1,1,2,2],"right_children":[2,4,6,-1,-1,-1,-1],"split_conditions":[9.097528E-2,-2.7301022E-1,-7.805703E-1,-7.1630455E-3,-0E0,-4.0127775E-3,7.7924426E-3],"split_indices":[0,0,1,0,0,0,0],"split_type":[0,0,0,0,0,0,0],"sum_hessian":[6.799647E2,4.29E2,2.509647E2,2.21E2,2.08E2,8E0,2.429647E2],"tree_param":{"num_deleted":"0","num_feature":"4","num_nodes":"7","size_leaf_vector":"1"}},{"base_weights":[-0E0,-6.44548E-2,7.927102E-2,-1.0714215E-2,-2.477189E-3,2.6650669E-3,1.007985E-2],"categories":[],"categories_nodes":[],"categories_segments":[],"categories_sizes":[],"default_left":[0,0,0,0,0,0,0],"id":20,"left_children":[1,3,5,-1,-1,-1,-1],"loss_changes":[3.5367243E0,8.6118567E-1,7.1704733E-1,0E0,0E0,0E0,0E0],"parents":[2147483647,0,0,1,1,2,2],"right_children":[2,4,6,-1,-1,-1,-1],"split_conditions":[-2.0342266E-2,-5.6025815E-1,5.240633E-1,-1.0714215E-2,-2.477189E-3,2.6650669E-3,1.007985E-2],"split_indices":[0,0,0,0,0,0,0],"split_type":[0,0,0,0,0,0,0],"sum_hessian":[6.749647E2,3.76E2,2.989647E2,7.1E1,3.05E2,2.05E2,9.396471E1],"tree_param":{"num_deleted":"0","num_feature":"4","num_nodes":"7","size_leaf_vector":"1"}},{"base_weights":[-2.2752483E-3,-7.181005E-2,6.0220413E-2,-1.0963469E-2,-3.347004E-3,7.251784E-4,9.385985E-3],"categories":[],"categories_nodes":[],"categories_segments":[],"categories_sizes":[],"default_left":[0,0,0,0,0,0,0],"id":21,"left_children":[1,3,5,-1,-1,-1,-1],"loss_changes":[3.0140924E0,4.8922503E-1,1.3305947E0,0E0,0E0,0E0,0E0],"parents":[2147483647,0,0,1,1,2,2],"right_children":[2,4,6,-1,-1,-1,-1],"split_conditions":[-1.3283442E-1,-6.3450485E-1,-5.810264E-1,-1.0963469E-2,-3.347004E-3,7.251784E-4,9.385985E-3],"split_indices":[0,0,1,0,0,0,0],"split_type":[0,0,0,0,0,0,0],"sum_hessian":[6.739647E2,3.22E2,3.519647E2,4.7E1,2.75E2,2.27E2,1.2496471E2],"tree_param":{"num_deleted":"0","num_feature":"4","num_nodes":"7","size_leaf_vector":"1"}},{"base_weights":[-4.246038E-3,-9.040579E-2,3.9018292E-2,-1.0685269E-2,-3.9991485E-3,-0E0,5.349249E-3],"categories":[],"categories_nodes":[],"categories_segments":[],"categories_sizes":[],"default_left":[0,0,0,0,0,0,0],"id":22,"left_children":[1,3,5,-1,-1,-1,-1],"loss_changes":[2.6187124E0,3.0883706E-1,7.049661E-1,0E0,0E0,0E0,0E0],"parents":[2147483647,0,0,1,1,2,2],"right_children":[2,4,6,-1,-1,-1,-1],"split_conditions":[-2.6331663E-1,-6.049778E-1,1.8360837E-1,-1.0685269E-2,-3.9991485E-3,-0E0,5.349249E-3],"split_indices":[0,0,0,0,0,0,0],"split_type":[0,0,0,0,0,0,0],"sum_hessian":[6.78E2,2.27E2,4.51E2,5.4E1,1.73E2,2.38E2,2.13E2],"tree_param":{"num_deleted":"0","num_feature":"4","num_nodes":"7","size_leaf_vector":"1"}},{"base_weights":[-0E0,1.6579388E-2,-1.4934455E-1,-2.2455219E-3,9.344017E-3,-1.2245182E-2,-0E0],"categories":[],"categories_nodes":[],"categories_segments":[],"categories_sizes":[],"default_left":[0,0,0,0,0,0,0],"id":23,"left_children":[1,3,5,-1,-1,-1,-1],"loss_changes":[1.7173929E0,3.9641383E0,2.5318933E-1,0E0,0E0,0E0,0E0],"parents":[2147483647,0,0,1,1,2,2],"right_children":[2,4,6,-1,-1,-1,-1],"split_conditions":[6.909919E-1,-5.810264E-1,9.6676385E-1,-2.2455219E-3,9.344017E-3,-1.2245182E-2,-0E0],"split_indices":[1,1,1,0,0,0,0],"split_type":[0,0,0,0,0,0,0],"sum_hessian":[6.839647E2,6.239647E2,6E1,4.45E2,1.789647E2,4.5E1,1.5E1],"tree_param":{"num_deleted":"0","num_feature":"4","num_nodes":"7","size_leaf_vector":"1"}},{"base_weights":[-6.843128E-4,1.5646596E-2,-1.4707628E-1,-1.991849E-3,8.3684465E-3,-1.1902038E-2,-0E0],"categories":[],"categories_nodes":[],"categories_segments":[],"categories_sizes":[],"default_left":[0,0,0,0,0,0,0],"id":24,"left_children":[1,3,5,-1,-1,-1,-1],"loss_changes":[1.7365676E0,3.1672616E0,2.3917854E-1,0E0,0E0,0E0,0E0],"parents":[2147483647,0,0,1,1,2,2],"right_children":[2,4,6,-1,-1,-1,-1],"split_conditions":[6.909919E-1,-5.810264E-1,9.6676385E-1,-1.991849E-3,8.3684465E-3,-1.1902038E-2,-0E0],"split_indices":[1,1,1,0,0,0,0],"split_type":[0,0,0,0,0,0,0],"sum_hessian":[6.819647E2,6.179647E2,6.4E1,4.38E2,1.799647E2,4.9E1,1.5E1],"tree_param":{"num_deleted":"0","num_feature":"4","num_nodes":"7","size_leaf_vector":"1"}},{"base_weights":[-1.1546004E-3,-8.080689E-2,3.8029812E-2,-1.0710473E-2,-3.8329381E-3,-9.911841E-5,7.1913563E-3],"categories":[],"categories_nodes":[],"categories_segments":[],"categories_sizes":[],"default_left":[0,0,0,0,0,0,0],"id":25,"left_children":[1,3,5,-1,-1,-1,-1],"loss_changes":[2.2184668E0,2.5409698E-1,1.326165E0,0E0,0E0,0E0,0E0],"parents":[2147483647,0,0,1,1,2,2],"right_children":[2,4,6,-1,-1,-1,-1],"split_conditions":[-2.7301022E-1,-7.2643393E-1,-5.810264E-1,-1.0710473E-2,-3.8329381E-3,-9.911841E-5,7.1913563E-3],"split_indices":[0,0,1,0,0,0,0],"split_type":[0,0,0,0,0,0,0],"sum_hessian":[6.859647E2,2.27E2,4.589647E2,3.6E1,1.91E2,2.93E2,1.659647E2],"tree_param":{"num_deleted":"0","num_feature":"4","num_nodes":"7","size_leaf_vector":"1"}},{"base_weights":[-2.2160804E-3,1.2090358E-2,-1.3739164E-1,-1.7780372E-3,7.4164085E-3,-1.1199258E-2,-0E0],"categories":[],"categories_nodes":[],"categories_segments":[],"categories_sizes":[],"default_left":[0,0,0,0,0,0,0],"id":26,"left_children":[1,3,5,-1,-1,-1,-1],"loss_changes":[1.4139297E0,2.4544485E0,2.0540428E-1,0E0,0E0,0E0,0E0],"parents":[2147483647,0,0,1,1,2,2],"right_children":[2,4,6,-1,-1,-1,-1],"split_conditions":[6.909919E-1,-5.810264E-1,9.6676385E-1,-1.7780372E-3,7.4164085E-3,-1.1199258E-2,-0E0],"split_indices":[1,1,1,0,0,0,0],"split_type":[0,0,0,0,0,0,0],"sum_hessian":[6.829647E2,6.219647E2,6.1E1,4.48E2,1.739647E2,4.6E1,1.5E1],"tree_param":{"num_deleted":"0","num_feature":"4","num_nodes":"7","size_leaf_vector":"1"}},{"base_weights":[-2.8515593E-3,-4.5459926E-2,6.627312E-2,-8.149637E-3,-1.7496079E-3,6.8697226E-3,-9.7323075E-4],"categories":[],"categories_nodes":[],"categories_segments":[],"categories_sizes":[],"default_left":[0,0,0,0,0,0,0],"id":27,"left_children":[1,3,5,-1,-1,-1,-1],"loss_changes":[2.0622327E0,5.470502E-1,8.2070696E-1,0E0,0E0,0E0,0E0],"parents":[2147483647,0,0,1,1,2,2],"right_children":[2,4,6,-1,-1,-1,-1],"split_conditions":[9.097528E-2,-5.6025815E-1,-4.9321687E-1,-8.149637E-3,-1.7496079E-3,6.8697226E-3,-9.7323075E-4],"split_indices":[0,0,1,0,0,0,0],"split_type":[0,0,0,0,0,0,0],"sum_hessian":[6.849647E2,4.3E2,2.549647E2,7.3E1,3.57E2,1.789647E2,7.6E1],"tree_param":{"num_deleted":"0","num_feature":"4","num_nodes":"7","size_leaf_vector":"1"}},{"base_weights":[8.3499536E-4,1.4939769E-2,-1.2693323E-1,-1.6888746E-3,7.5614667E-3,-1.02906395E-2,-0E0],"categories":[],"categories_nodes":[],"categories_segments":[],"categories_sizes":[],"default_left":[0,0,0,0,0,0,0],"id":28,"left_children":[1,3,5,-1,-1,-1,-1],"loss_changes":[1.2255185E0,2.5751328E0,1.6270566E-1,0E0,0E0,0E0,0E0],"parents":[2147483647,0,0,1,1,2,2],"right_children":[2,4,6,-1,-1,-1,-1],"split_conditions":[6.909919E-1,-5.810264E-1,9.6676385E-1,-1.6888746E-3,7.5614667E-3,-1.02906395E-2,-0E0],"split_indices":[1,1,1,0,0,0,0],"split_type":[0,0,0,0,0,0,0],"sum_hessian":[6.909647E2,6.329647E2,5.8E1,4.5E2,1.829647E2,4.4E1,1.4E1],"tree_param":{"num_deleted":"0","num_feature":"4","num_nodes":"7","size_leaf_vector":"1"}},{"base_weights":[-1.4857406E-3,-4.4063915E-2,6.572557E-2,-9.060434E-3,-1.8946298E-3,1.9696383E-3,7.685829E-3],"categories":[],"categories_nodes":[],"categories_segments":[],"categories_sizes":[],"default_left":[0,0,0,0,0,0,0],"id":29,"left_children":[1,3,5,-1,-1,-1,-1],"loss_changes":[1.9483798E0,4.967096E-1,3.6241567E-1,0E0,0E0,0E0,0E0],"parents":[2147483647,0,0,1,1,2,2],"right_children":[2,4,6,-1,-1,-1,-1],"split_conditions":[9.097528E-2,-6.3450485E-1,5.240633E-1,-9.060434E-3,-1.8946298E-3,1.9696383E-3,7.685829E-3],"split_indices":[0,0,0,0,0,0,0],"split_type":[0,0,0,0,0,0,0],"sum_hessian":[6.659647E2,4.14E2,2.519647E2,4.7E1,3.67E2,1.58E2,9.396471E1],"tree_param":{"num_deleted":"0","num_feature":"4","num_nodes":"7","size_leaf_vector":"1"}},{"base_weights":[-0E0,-3.1978585E-2,7.062147E-2,-7.343731E-4,-7.1119005E-3,7.022891E-3,-5.9084286E-4],"categories":[],"categories_nodes":[],"categories_segments":[],"categories_sizes":[],"default_left":[0,0,0,0,0,0,0],"id":30,"left_children":[1,3,5,-1,-1,-1,-1],"loss_changes":[1.5624149E0,6.840518E-1,6.2916315E-1,0E0,0E0,0E0,0E0],"parents":[2147483647,0,0,1,1,2,2],"right_children":[2,4,6,-1,-1,-1,-1],"split_conditions":[2.0074782E-1,-4.9321687E-1,-4.9321687E-1,-7.343731E-4,-7.1119005E-3,7.022891E-3,-5.9084286E-4],"split_indices":[0,1,1,0,0,0,0],"split_type":[0,0,0,0,0,0,0],"sum_hessian":[6.79E2,4.74E2,2.05E2,3.82E2,9.2E1,1.46E2,5.9E1],"tree_param":{"num_deleted":"0","num_feature":"4","num_nodes":"7","size_leaf_vector":"1"}},{"base_weights":[-1.5665963E-4,1.4872754E-2,-1.03813216E-1,-1.534705E-3,8.086387E-3,-8.452509E-3,-1.3147433E-3],"categories":[],"categories_nodes":[],"categories_segments":[],"categories_sizes":[],"default_left":[0,0,0,0,0,0,0],"id":31,"left_children":[1,3,5,-1,-1,-1,-1],"loss_changes":[1.1149198E0,2.4433722E0,7.576406E-2,0E0,0E0,0E0,0E0],"parents":[2147483647,0,0,1,1,2,2],"right_children":[2,4,6,-1,-1,-1,-1],"split_conditions":[-2.3976815E-1,-5.810264E-1,-9.4057375E-1,-1.534705E-3,8.086387E-3,-8.452509E-3,-1.3147433E-3],"split_indices":[1,1,2,0,0,0,0],"split_type":[0,0,0,0,0,0,0],"sum_hessian":[6.699647E2,5.879647E2,8.2E1,4.35E2,1.529647E2,5.7E1,2.5E1],"tree_param":{"num_deleted":"0","num_feature":"4","num_nodes":"7","size_leaf_vector":"1"}},{"base_weights":[-2.5824045E-3,-6.359526E-2,2.774356E-2,-8.895572E-3,-2.9203221E-3,-5.2938904E-5,5.248403E-3],"categories":[],"categories_nodes":[],"categories_segments":[],"categories_sizes":[],"default_left":[0,0,0,0,0,0,0],"id":32,"left_children":[1,3,5,-1,-1,-1,-1],"loss_changes":[1.3160249E0,1.9291031E-1,7.036756E-1,0E0,0E0,0E0,0E0],"parents":[2147483647,0,0,1,1,2,2],"right_children":[2,4,6,-1,-1,-1,-1],"split_conditions":[-2.6331663E-1,-7.2643393E-1,-5.810264E-1,-8.895572E-3,-2.9203221E-3,-5.2938904E-5,5.248403E-3],"split_indices":[0,0,1,0,0,0,0],"split_type":[0,0,0,0,0,0,0],"sum_hessian":[6.84E2,2.29E2,4.55E2,3.5E1,1.94E2,2.9E2,1.65E2],"tree_param":{"num_deleted":"0","num_feature":"4","num_nodes":"7","size_leaf_vector":"1"}},{"base_weights":[-1.3093029E-3,-4.9923792E-2,4.137303E-2,-7.634159E-3,-2.1999588E-3,9.580704E-4,5.283502E-3],"categories":[],"categories_nodes":[],"categories_segments":[],"categories_sizes":[],"default_left":[0,0,0,0,0,0,0],"id":33,"left_children":[1,3,5,-1,-1,-1,-1],"loss_changes":[1.4157436E0,2.4947482E-1,3.0548388E-1,0E0,0E0,0E0,0E0],"parents":[2147483647,0,0,1,1,2,2],"right_children":[2,4,6,-1,-1,-1,-1],"split_conditions":[-1.4776556E-1,-6.3450485E-1,3.9777377E-1,-7.634159E-3,-2.1999588E-3,9.580704E-4,5.283502E-3],"split_indices":[0,0,0,0,0,0,0],"split_type":[0,0,0,0,0,0,0],"sum_hessian":[6.619647E2,3.14E2,3.479647E2,5E1,2.64E2,2.16E2,1.319647E2],"tree_param":{"num_deleted":"0","num_feature":"4","num_nodes":"7","size_leaf_vector":"1"}},{"base_weights":[1.8482314E-3,-3.0483404E-2,5.653527E-2,-8.368225E-4,-6.689136E-3,6.342372E-3,-2.066448E-3],"categories":[],"categories_nodes":[],"categories_segments":[],"categories_sizes":[],"default_left":[0,0,0,0,0,0,0],"id":34,"left_children":[1,3,5,-1,-1,-1,-1],"loss_changes":[1.2486336E0,4.7525164E-1,9.309727E-1,0E0,0E0,0E0,0E0],"parents":[2147483647,0,0,1,1,2,2],"right_children":[2,4,6,-1,-1,-1,-1],"split_conditions":[9.097528E-2,-4.9321687E-1,-4.9321687E-1,-8.368225E-4,-6.689136E-3,6.342372E-3,-2.066448E-3],"split_indices":[0,1,1,0,0,0,0],"split_type":[0,0,0,0,0,0,0],"sum_hessian":[6.809647E2,4.25E2,2.559647E2,3.51E2,7.4E1,1.819647E2,7.4E1],"tree_param":{"num_deleted":"0","num_feature":"4","num_nodes":"7","size_leaf_vector":"1"}},{"base_weights":[-6.15175E-4,-2.713397E-2,6.5467246E-2,-3.3605725E-3,1.1020657E-3,6.925998E-3,-8.692389E-4],"categories":[],"categories_nodes":[],"categories_segments":[],"categories_sizes":[],"default_left":[0,0,0,0,0,0,0],"id":35,"left_children":[1,3,5,-1,-1,-1,-1],"loss_changes":[1.2074095E0,5.2464324E-1,6.293236E-1,0E0,0E0,0E0,0E0],"parents":[2147483647,0,0,1,1,2,2],"right_children":[2,4,6,-1,-1,-1,-1],"split_conditions":[2.6588574E-1,-5.810264E-1,-4.9321687E-1,-3.3605725E-3,1.1020657E-3,6.925998E-3,-8.692389E-4],"split_indices":[0,1,1,0,0,0,0],"split_type":[0,0,0,0,0,0,0],"sum_hessian":[6.809647E2,4.95E2,1.859647E2,3.31E2,1.64E2,1.2796471E2,5.8E1],"tree_param":{"num_deleted":"0","num_feature":"4","num_nodes":"7","size_leaf_vector":"1"}},{"base_weights":[1.1080356E-3,-1.8430442E-2,7.62847E-2,-3.0101205E-3,2.1210986E-3,8.65466E-3,-5.932071E-4],"categories":[],"categories_nodes":[],"categories_segments":[],"categories_sizes":[],"default_left":[0,0,0,0,0,0,0],"id":36,"left_children":[1,3,5,-1,-1,-1,-1],"loss_changes":[1.0397241E0,7.3254204E-1,7.241506E-1,0E0,0E0,0E0,0E0],"parents":[2147483647,0,0,1,1,2,2],"right_children":[2,4,6,-1,-1,-1,-1],"split_conditions":[3.9777377E-1,-5.810264E-1,-4.9321687E-1,-3.0101205E-3,2.1210986E-3,8.65466E-3,-5.932071E-4],"split_indices":[0,1,1,0,0,0,0],"split_type":[0,0,0,0,0,0,0],"sum_hessian":[6.709647E2,5.33E2,1.379647E2,3.56E2,1.77E2,8.596471E1,5.2E1],"tree_param":{"num_deleted":"0","num_feature":"4","num_nodes":"7","size_leaf_vector":"1"}},{"base_weights":[-1.8416392E-3,1.6124895E-2,-7.705585E-2,-1.515519E-3,1.0806087E-2,-6.2934808E-3,-3.2475538E-4],"categories":[],"categories_nodes":[],"categories_segments":[],"categories_sizes":[],"default_left":[0,0,0,0,0,0,0],"id":37,"left_children":[1,3,5,-1,-1,-1,-1],"loss_changes":[9.7599447E-1,3.2352483E0,1.1591804E-1,0E0,0E0,0E0,0E0],"parents":[2147483647,0,0,1,1,2,2],"right_children":[2,4,6,-1,-1,-1,-1],"split_conditions":[-2.4832822E-1,-5.810264E-1,5.67301E-1,-1.515519E-3,1.0806087E-2,-6.2934808E-3,-3.2475538E-4],"split_indices":[1,1,0,0,0,0,0],"split_type":[0,0,0,0,0,0,0],"sum_hessian":[6.829647E2,5.519647E2,1.31E2,4.39E2,1.1296471E2,9.9E1,3.2E1],"tree_param":{"num_deleted":"0","num_feature":"4","num_nodes":"7","size_leaf_vector":"1"}},{"base_weights":[-2.0509148E-3,-1.696323E-2,8.139959E-2,-0E0,-5.6770057E-3,1.0262959E-2,-1.9067794E-4],"categories":[],"categories_nodes":[],"categories_segments":[],"categories_sizes":[],"default_left":[0,0,0,0,0,0,0],"id":38,"left_children":[1,3,5,-1,-1,-1,-1],"loss_changes":[8.5559314E-1,6.599922E-1,6.944723E-1,0E0,0E0,0E0,0E0],"parents":[2147483647,0,0,1,1,2,2],"right_children":[2,4,6,-1,-1,-1,-1],"split_conditions":[5.3420025E-1,-4.9321687E-1,-4.9321687E-1,-0E0,-5.6770057E-3,1.0262959E-2,-1.9067794E-4],"split_indices":[0,1,1,0,0,0,0],"split_type":[0,0,0,0,0,0,0],"sum_hessian":[6.929647E2,5.99E2,9.396471E1,4.91E2,1.08E2,4.9964703E1,4.4E1],"tree_param":{"num_deleted":"0","num_feature":"4","num_nodes":"7","size_leaf_vector":"1"}},{"base_weights":[-8.361097E-5,1.5584261E-2,-6.663056E-2,-1.2819474E-3,1.0075292E-2,-5.531229E-3,-0E0],"categories":[],"categories_nodes":[],"categories_segments":[],"categories_sizes":[],"default_left":[0,0,0,0,0,0,0],"id":39,"left_children":[1,3,5,-1,-1,-1,-1],"loss_changes":[7.4320155E-1,2.6565337E0,1.091665E-1,0E0,0E0,0E0,0E0],"parents":[2147483647,0,0,1,1,2,2],"right_children":[2,4,6,-1,-1,-1,-1],"split_conditions":[-2.4832822E-1,-5.810264E-1,3.1912974E-1,-1.2819474E-3,1.0075292E-2,-5.531229E-3,-0E0],"split_indices":[1,1,2,0,0,0,0],"split_type":[0,0,0,0,0,0,0],"sum_hessian":[6.709647E2,5.429647E2,1.28E2,4.35E2,1.0796471E2,9.7E1,3.1E1],"tree_param":{"num_deleted":"0","num_feature":"4","num_nodes":"7","size_leaf_vector":"1"}},{"base_weights":[-1.6291183E-3,-4.8374724E-2,2.1356978E-2,-7.485601E-3,-2.2289145E-3,2.675095E-3,-2.545264E-3],"categories":[],"categories_nodes":[],"categories_segments":[],"categories_sizes":[],"default_left":[0,0,0,0,0,0,0],"id":40,"left_children":[1,3,5,-1,-1,-1,-1],"loss_changes":[7.6403725E-1,1.2418163E-1,5.1868415E-1,0E0,0E0,0E0,0E0],"parents":[2147483647,0,0,1,1,2,2],"right_children":[2,4,6,-1,-1,-1,-1],"split_conditions":[-2.6331663E-1,-7.5702965E-1,-4.9321687E-1,-7.485601E-3,-2.2289145E-3,2.675095E-3,-2.545264E-3],"split_indices":[0,0,1,0,0,0,0],"split_type":[0,0,0,0,0,0,0],"sum_hessian":[6.809647E2,2.28E2,4.529647E2,2.7E1,2.01E2,3.539647E2,9.9E1],"tree_param":{"num_deleted":"0","num_feature":"4","num_nodes":"7","size_leaf_vector":"1"}},{"base_weights":[2.4190635E-5,-1.3071943E-2,8.38616E-2,-5.2408087E-3,-1.0015724E-4,1.0703774E-2,3.76487E-3],"categories":[],"categories_nodes":[],"categories_segments":[],"categories_sizes":[],"default_left":[0,0,0,0,0,0,0],"id":41,"left_children":[1,3,5,-1,-1,-1,-1],"loss_changes":[7.995969E-1,4.101833E-1,2.3060381E-2,0E0,0E0,0E0,0E0],"parents":[2147483647,0,0,1,1,2,2],"right_children":[2,4,6,-1,-1,-1,-1],"split_conditions":[5.3420025E-1,-5.6025815E-1,-9.4155574E-1,-5.2408087E-3,-1.0015724E-4,1.0703774E-2,3.76487E-3],"split_indices":[0,0,2,0,0,0,0],"split_type":[0,0,0,0,0,0,0],"sum_hessian":[6.789647E2,5.89E2,8.996471E1,7.5E1,5.14E2,7.964704E0,8.2E1],"tree_param":{"num_deleted":"0","num_feature":"4","num_nodes":"7","size_leaf_vector":"1"}},{"base_weights":[-1.8760847E-3,1.3887196E-2,-5.7323415E-2,-1.494442E-3,1.2050954E-2,-4.376565E-3,-0E0],"categories":[],"categories_nodes":[],"categories_segments":[],"categories_sizes":[],"default_left":[0,0,0,0,0,0,0],"id":42,"left_children":[1,3,5,-1,-1,-1,-1],"loss_changes":[6.2700635E-1,3.2999017E0,8.842963E-2,0E0,0E0,0E0,0E0],"parents":[2147483647,0,0,1,1,2,2],"right_children":[2,4,6,-1,-1,-1,-1],"split_conditions":[-4.9321687E-1,-5.810264E-1,9.6676385E-1,-1.494442E-3,1.2050954E-2,-4.376565E-3,-0E0],"split_indices":[1,1,1,0,0,0,0],"split_type":[0,0,0,0,0,0,0],"sum_hessian":[6.759647E2,5.249647E2,1.51E2,4.35E2,8.996471E1,1.36E2,1.5E1],"tree_param":{"num_deleted":"0","num_feature":"4","num_nodes":"7","size_leaf_vector":"1"}},{"base_weights":[-0E0,-3.410244E-2,3.0453218E-2,-7.5339186E-3,-1.6821579E-3,1.1533152E-3,4.175569E-3],"categories":[],"categories_nodes":[],"categories_segments":[],"categories_sizes":[],"default_left":[0,0,0,0,0,0,0],"id":43,"left_children":[1,3,5,-1,-1,-1,-1],"loss_changes":[7.043042E-1,1.346182E-1,1.03364706E-1,0E0,0E0,0E0,0E0],"parents":[2147483647,0,0,1,1,2,2],"right_children":[2,4,6,-1,-1,-1,-1],"split_conditions":[-1.4776556E-1,-8.577229E-1,5.3420025E-1,-7.5339186E-3,-1.6821579E-3,1.1533152E-3,4.175569E-3],"split_indices":[0,0,0,0,0,0,0],"split_type":[0,0,0,0,0,0,0],"sum_hessian":[6.599647E2,3.1E2,3.499647E2,1.6E1,2.94E2,2.67E2,8.296471E1],"tree_param":{"num_deleted":"0","num_feature":"4","num_nodes":"7","size_leaf_vector":"1"}},{"base_weights":[-5.96603E-4,-4.038168E-2,1.913887E-2,-5.0031175E-3,-1.506586E-3,-2.2111912E-4,3.99906E-3],"categories":[],"categories_nodes":[],"categories_segments":[],"categories_sizes":[],"default_left":[0,0,0,0,0,0,0],"id":44,"left_children":[1,3,5,-1,-1,-1,-1],"loss_changes":[5.5526924E-1,8.3907455E-2,4.412282E-1,0E0,0E0,0E0,0E0],"parents":[2147483647,0,0,1,1,2,2],"right_children":[2,4,6,-1,-1,-1,-1],"split_conditions":[-2.6331663E-1,-5.895346E-1,-5.810264E-1,-5.0031175E-3,-1.506586E-3,-2.2111912E-4,3.99906E-3],"split_indices":[0,0,1,0,0,0,0],"split_type":[0,0,0,0,0,0,0],"sum_hessian":[6.759647E2,2.29E2,4.469647E2,6E1,1.69E2,2.85E2,1.619647E2],"tree_param":{"num_deleted":"0","num_feature":"4","num_nodes":"7","size_leaf_vector":"1"}},{"base_weights":[-0E0,1.621683E-2,-5.3500358E-2,-1.0771482E-3,1.18525345E-2,-4.0595415E-3,-0E0],"categories":[],"categories_nodes":[],"categories_segments":[],"categories_sizes":[],"default_left":[0,0,0,0,0,0,0],"id":45,"left_children":[1,3,5,-1,-1,-1,-1],"loss_changes":[6.0683477E-1,2.8990355E0,7.93044E-2,0E0,0E0,0E0,0E0],"parents":[2147483647,0,0,1,1,2,2],"right_children":[2,4,6,-1,-1,-1,-1],"split_conditions":[-4.9321687E-1,-5.810264E-1,9.6676385E-1,-1.0771482E-3,1.18525345E-2,-4.0595415E-3,-0E0],"split_indices":[1,1,1,0,0,0,0],"split_type":[0,0,0,0,0,0,0],"sum_hessian":[6.859647E2,5.329647E2,1.53E2,4.48E2,8.496471E1,1.4E2,1.3E1],"tree_param":{"num_deleted":"0","num_feature":"4","num_nodes":"7","size_leaf_vector":"1"}},{"base_weights":[-6.3179247E-4,-1.2470951E-2,6.4115115E-2,-2.1728585E-3,1.7336508E-3,8.785436E-3,-8.018392E-4],"categories":[],"categories_nodes":[],"categories_segments":[],"categories_sizes":[],"default_left":[0,0,0,0,0,0,0],"id":46,"left_children":[1,3,5,-1,-1,-1,-1],"loss_changes":[5.1775986E-1,4.6918672E-1,5.929727E-1,0E0,0E0,0E0,0E0],"parents":[2147483647,0,0,1,1,2,2],"right_children":[2,4,6,-1,-1,-1,-1],"split_conditions":[5.240633E-1,-5.810264E-1,-4.9321687E-1,-2.1728585E-3,1.7336508E-3,8.785436E-3,-8.018392E-4],"split_indices":[0,1,1,0,0,0,0],"split_type":[0,0,0,0,0,0,0],"sum_hessian":[6.889647E2,5.95E2,9.396471E1,4.01E2,1.94E2,4.9964703E1,4.4E1],"tree_param":{"num_deleted":"0","num_feature":"4","num_nodes":"7","size_leaf_vector":"1"}},{"base_weights":[8.1751234E-4,-2.2833742E-2,4.0139977E-2,-4.368029E-4,-3.958224E-3,4.6957014E-3,-1.6102863E-3],"categories":[],"categories_nodes":[],"categories_segments":[],"categories_sizes":[],"default_left":[0,0,0,0,0,0,0],"id":47,"left_children":[1,3,5,-1,-1,-1,-1],"loss_changes":[6.6603756E-1,2.2067747E-1,5.5688393E-1,0E0,0E0,0E0,0E0],"parents":[2147483647,0,0,1,1,2,2],"right_children":[2,4,6,-1,-1,-1,-1],"split_conditions":[7.306812E-2,-9.6891993E-1,-4.9321687E-1,-4.368029E-4,-3.958224E-3,4.6957014E-3,-1.6102863E-3],"split_indices":[0,2,1,0,0,0,0],"split_type":[0,0,0,0,0,0,0],"sum_hessian":[6.889647E2,4.25E2,2.639647E2,3.09E2,1.16E2,1.849647E2,7.9E1],"tree_param":{"num_deleted":"0","num_feature":"4","num_nodes":"7","size_leaf_vector":"1"}},{"base_weights":[-2.6721251E-3,-1.54439295E-2,5.2746627E-2,-2.7988954E-3,2.389227E-3,7.4719843E-3,-8.876105E-4],"categories":[],"categories_nodes":[],"categories_segments":[],"categories_sizes":[],"default_left":[0,0,0,0,0,0,0],"id":48,"left_children":[1,3,5,-1,-1,-1,-1],"loss_changes":[4.7387418E-1,7.771058E-1,5.344814E-1,0E0,0E0,0E0,0E0],"parents":[2147483647,0,0,1,1,2,2],"right_children":[2,4,6,-1,-1,-1,-1],"split_conditions":[-2.2272305E-1,-5.810264E-1,-6.598183E-1,-2.7988954E-3,2.389227E-3,7.4719843E-3,-8.876105E-4],"split_indices":[2,1,1,0,0,0,0],"split_type":[0,0,0,0,0,0,0],"sum_hessian":[6.75E2,5.61E2,1.14E2,3.78E2,1.83E2,6.1E1,5.3E1],"tree_param":{"num_deleted":"0","num_feature":"4","num_nodes":"7","size_leaf_vector":"1"}},{"base_weights":[-0E0,1.4636641E-2,-5.698899E-2,-9.478145E-4,8.640058E-3,-4.8435074E-3,-0E0],"categories":[],"categories_nodes":[],"categories_segments":[],"categories_sizes":[],"default_left":[0,0,0,0,0,0,0],"id":49,"left_children":[1,3,5,-1,-1,-1,-1],"loss_changes":[5.818232E-1,1.9033334E0,1.0450193E-1,0E0,0E0,0E0,0E0],"parents":[2147483647,0,0,1,1,2,2],"right_children":[2,4,6,-1,-1,-1,-1],"split_conditions":[-2.4832822E-1,-5.810264E-1,5.67301E-1,-9.478145E-4,8.640058E-3,-4.8435074E-3,-0E0],"split_indices":[1,1,0,0,0,0,0],"split_type":[0,0,0,0,0,0,0],"sum_hessian":[6.839647E2,5.509647E2,1.33E2,4.43E2,1.0796471E2,1E2,3.3E1],"tree_param":{"num_deleted":"0","num_feature":"4","num_nodes":"7","size_leaf_vector":"1"}},{"base_weights":[-1.5388664E-3,1.2043269E-2,-5.1197886E-2,-1.0208655E-3,9.243046E-3,-4.353755E-3,-0E0],"categories":[],"categories_nodes":[],"categories_segments":[],"categories_sizes":[],"default_left":[0,0,0,0,0,0,0],"id":50,"left_children":[1,3,5,-1,-1,-1,-1],"loss_changes":[4.8252717E-1,1.8976437E0,8.01115E-2,0E0,0E0,0E0,0E0],"parents":[2147483647,0,0,1,1,2,2],"right_children":[2,4,6,-1,-1,-1,-1],"split_conditions":[-4.9321687E-1,-5.810264E-1,5.67301E-1,-1.0208655E-3,9.243046E-3,-4.353755E-3,-0E0],"split_indices":[1,1,0,0,0,0,0],"split_type":[0,0,0,0,0,0,0],"sum_hessian":[6.699647E2,5.239647E2,1.46E2,4.34E2,8.996471E1,1.07E2,3.9E1],"tree_param":{"num_deleted":"0","num_feature":"4","num_nodes":"7","size_leaf_vector":"1"}},{"base_weights":[-0E0,-4.2557664E-2,1.4542746E-2,-3.5882825E-3,-0E0,3.9215604E-4,4.420271E-3],"categories":[],"categories_nodes":[],"categories_segments":[],"categories_sizes":[],"default_left":[0,0,0,0,0,0,0],"id":51,"left_children":[1,3,5,-1,-1,-1,-1],"loss_changes":[4.3700853E-1,7.5547665E-2,1.954251E-1,0E0,0E0,0E0,0E0],"parents":[2147483647,0,0,1,1,2,2],"right_children":[2,4,6,-1,-1,-1,-1],"split_conditions":[-3.5601002E-1,6.666667E-1,3.6720785E-1,-3.5882825E-3,-0E0,3.9215604E-4,4.420271E-3],"split_indices":[0,3,2,0,0,0,0],"split_type":[0,0,0,0,0,0,0],"sum_hessian":[6.849647E2,1.71E2,5.139647E2,1.32E2,3.9E1,4.559647E2,5.8E1],"tree_param":{"num_deleted":"0","num_feature":"4","num_nodes":"7","size_leaf_vector":"1"}},{"base_weights":[1.1053759E-3,1.5772518E-2,-4.5729868E-2,-6.41502E-4,9.264421E-3,-4.0199463E-3,-0E0],"categories":[],"categories_nodes":[],"categories_segments":[],"categories_sizes":[],"default_left":[0,0,0,0,0,0,0],"id":52,"left_children":[1,3,5,-1,-1,-1,-1],"loss_changes":[4.63617E-1,1.7319392E0,9.143478E-2,0E0,0E0,0E0,0E0],"parents":[2147483647,0,0,1,1,2,2],"right_children":[2,4,6,-1,-1,-1,-1],"split_conditions":[-4.9321687E-1,-5.810264E-1,5.67301E-1,-6.41502E-4,9.264421E-3,-4.0199463E-3,-0E0],"split_indices":[1,1,0,0,0,0,0],"split_type":[0,0,0,0,0,0,0],"sum_hessian":[6.769647E2,5.279647E2,1.49E2,4.41E2,8.696471E1,1.09E2,4E1],"tree_param":{"num_deleted":"0","num_feature":"4","num_nodes":"7","size_leaf_vector":"1"}},{"base_weights":[-1.8224708E-3,-1.8125966E-2,3.535263E-2,-1.7664838E-3,1.7255542E-3,8.377414E-4,3.5930644E-3],"categories":[],"categories_nodes":[],"categories_segments":[],"categories_sizes":[],"default_left":[0,0,0,0,0,0,0],"id":53,"left_children":[1,3,5,-1,-1,-1,-1],"loss_changes":[4.171394E-1,1.833051E-1,4.717189E-2,0E0,0E0,0E0,0E0],"parents":[2147483647,0,0,1,1,2,2],"right_children":[2,4,6,-1,-1,-1,-1],"split_conditions":[2.3467106E-1,6.666667E-1,5.3420025E-1,-1.7664838E-3,1.7255542E-3,8.377414E-4,3.5930644E-3],"split_indices":[0,3,0,0,0,0,0],"split_type":[0,0,0,0,0,0,0],"sum_hessian":[6.829647E2,4.87E2,1.959647E2,4.23E2,6.4E1,1.05E2,9.096471E1],"tree_param":{"num_deleted":"0","num_feature":"4","num_nodes":"7","size_leaf_vector":"1"}},{"base_weights":[-5.987071E-4,1.1748416E-2,-4.5700524E-2,-7.6676486E-4,8.165182E-3,-3.5446251E-3,-0E0],"categories":[],"categories_nodes":[],"categories_segments":[],"categories_sizes":[],"default_left":[0,0,0,0,0,0,0],"id":54,"left_children":[1,3,5,-1,-1,-1,-1],"loss_changes":[3.9943126E-1,1.4163346E0,6.874627E-2,0E0,0E0,0E0,0E0],"parents":[2147483647,0,0,1,1,2,2],"right_children":[2,4,6,-1,-1,-1,-1],"split_conditions":[-4.9321687E-1,-5.810264E-1,9.6676385E-1,-7.6676486E-4,8.165182E-3,-3.5446251E-3,-0E0],"split_indices":[1,1,1,0,0,0,0],"split_type":[0,0,0,0,0,0,0],"sum_hessian":[6.699647E2,5.229647E2,1.47E2,4.35E2,8.796471E1,1.33E2,1.4E1],"tree_param":{"num_deleted":"0","num_feature":"4","num_nodes":"7","size_leaf_vector":"1"}},{"base_weights":[-1.10230256E-4,-1.939607E-2,3.0741327E-2,-1.9521507E-3,1.5220351E-3,5.920257E-4,3.3660189E-3],"categories":[],"categories_nodes":[],"categories_segments":[],"categories_sizes":[],"default_left":[0,0,0,0,0,0,0],"id":55,"left_children":[1,3,5,-1,-1,-1,-1],"loss_changes":[4.0711737E-1,1.8563284E-1,7.6646015E-2,0E0,0E0,0E0,0E0],"parents":[2147483647,0,0,1,1,2,2],"right_children":[2,4,6,-1,-1,-1,-1],"split_conditions":[9.097528E-2,6.666667E-1,-2.2272305E-1,-1.9521507E-3,1.5220351E-3,5.920257E-4,3.3660189E-3],"split_indices":[0,3,2,0,0,0,0],"split_type":[0,0,0,0,0,0,0],"sum_hessian":[6.749647E2,4.27E2,2.479647E2,3.59E2,6.8E1,1.339647E2,1.14E2],"tree_param":{"num_deleted":"0","num_feature":"4","num_nodes":"7","size_leaf_vector":"1"}},{"base_weights":[-0E0,-3.748248E-2,1.280036E-2,-0E0,-3.3195447E-3,-2.8098127E-4,3.0257148E-3],"categories":[],"categories_nodes":[],"categories_segments":[],"categories_sizes":[],"default_left":[0,0,0,0,0,0,0],"id":56,"left_children":[1,3,5,-1,-1,-1,-1],"loss_changes":[3.2715365E-1,9.229557E-2,3.055599E-1,0E0,0E0,0E0,0E0],"parents":[2147483647,0,0,1,1,2,2],"right_children":[2,4,6,-1,-1,-1,-1],"split_conditions":[-3.5850668E-1,-8.106774E-1,-5.810264E-1,-0E0,-3.3195447E-3,-2.8098127E-4,3.0257148E-3],"split_indices":[0,1,1,0,0,0,0],"split_type":[0,0,0,0,0,0,0],"sum_hessian":[6.739647E2,1.63E2,5.109647E2,3.5E1,1.28E2,3.3E2,1.809647E2],"tree_param":{"num_deleted":"0","num_feature":"4","num_nodes":"7","size_leaf_vector":"1"}},{"base_weights":[-1.317759E-3,1.1244026E-2,-4.6947744E-2,-7.8580395E-4,8.03468E-3,-3.630663E-3,-0E0],"categories":[],"categories_nodes":[],"categories_segments":[],"categories_sizes":[],"default_left":[0,0,0,0,0,0,0],"id":57,"left_children":[1,3,5,-1,-1,-1,-1],"loss_changes":[4.101234E-1,1.3799785E0,7.010397E-2,0E0,0E0,0E0,0E0],"parents":[2147483647,0,0,1,1,2,2],"right_children":[2,4,6,-1,-1,-1,-1],"split_conditions":[-4.9321687E-1,-5.810264E-1,9.6676385E-1,-7.8580395E-4,8.03468E-3,-3.630663E-3,-0E0],"split_indices":[1,1,1,0,0,0,0],"split_type":[0,0,0,0,0,0,0],"sum_hessian":[6.679647E2,5.209647E2,1.47E2,4.33E2,8.796471E1,1.33E2,1.4E1],"tree_param":{"num_deleted":"0","num_feature":"4","num_nodes":"7","size_leaf_vector":"1"}},{"base_weights":[-0E0,9.282436E-3,-5.9486367E-2,-6.272169E-4,4.150766E-3,-5.0485954E-3,-0E0],"categories":[],"categories_nodes":[],"categories_segments":[],"categories_sizes":[],"default_left":[0,0,0,0,0,0,0],"id":58,"left_children":[1,3,5,-1,-1,-1,-1],"loss_changes":[3.673465E-1,6.159885E-1,1.13714874E-1,0E0,0E0,0E0,0E0],"parents":[2147483647,0,0,1,1,2,2],"right_children":[2,4,6,-1,-1,-1,-1],"split_conditions":[-2.3976815E-1,-5.810264E-1,9.6676385E-1,-6.272169E-4,4.150766E-3,-5.0485954E-3,-0E0],"split_indices":[1,1,1,0,0,0,0],"split_type":[0,0,0,0,0,0,0],"sum_hessian":[6.709647E2,5.909647E2,8E1,4.35E2,1.559647E2,6.7E1,1.3E1],"tree_param":{"num_deleted":"0","num_feature":"4","num_nodes":"7","size_leaf_vector":"1"}},{"base_weights":[7.041342E-4,-9.522786E-3,4.4940904E-2,-1.9785028E-3,2.0150295E-3,6.4204675E-3,-1.1806064E-3],"categories":[],"categories_nodes":[],"categories_segments":[],"categories_sizes":[],"default_left":[0,0,0,0,0,0,0],"id":59,"left_children":[1,3,5,-1,-1,-1,-1],"loss_changes":[3.336081E-1,4.478519E-1,4.9542525E-1,0E0,0E0,0E0,0E0],"parents":[2147483647,0,0,1,1,2,2],"right_children":[2,4,6,-1,-1,-1,-1],"split_conditions":[-3.8563216E-1,-5.810264E-1,-6.598183E-1,-1.9785028E-3,2.0150295E-3,6.4204675E-3,-1.1806064E-3],"split_indices":[2,1,1,0,0,0,0],"split_type":[0,0,0,0,0,0,0],"sum_hessian":[6.819647E2,5.509647E2,1.31E2,3.76E2,1.749647E2,7.4E1,5.7E1],"tree_param":{"num_deleted":"0","num_feature":"4","num_nodes":"7","size_leaf_vector":"1"}},{"base_weights":[1.5363101E-3,1.4548554E-2,-3.869504E-2,-2.5822516E-4,6.897213E-3,-3.0501508E-3,-0E0],"categories":[],"categories_nodes":[],"categories_segments":[],"categories_sizes":[],"default_left":[0,0,0,0,0,0,0],"id":60,"left_children":[1,3,5,-1,-1,-1,-1],"loss_changes":[3.5280234E-1,9.153365E-1,5.9325084E-2,0E0,0E0,0E0,0E0],"parents":[2147483647,0,0,1,1,2,2],"right_children":[2,4,6,-1,-1,-1,-1],"split_conditions":[-4.9321687E-1,-5.810264E-1,9.6676385E-1,-2.5822516E-4,6.897213E-3,-3.0501508E-3,-0E0],"split_indices":[1,1,1,0,0,0,0],"split_type":[0,0,0,0,0,0,0],"sum_hessian":[6.769647E2,5.249647E2,1.52E2,4.37E2,8.796471E1,1.37E2,1.5E1],"tree_param":{"num_deleted":"0","num_feature":"4","num_nodes":"7","size_leaf_vector":"1"}},{"base_weights":[-0E0,9.93512E-3,-3.3710938E-2,-4.0114025E-4,8.937211E-3,-4.4281776E-3,-7.825948E-4],"categories":[],"categories_nodes":[],"categories_segments":[],"categories_sizes":[],"default_left":[0,0,0,0,0,0,0],"id":61,"left_children":[1,3,5,-1,-1,-1,-1],"loss_changes":[2.3235509E-1,1.1318865E0,6.728861E-2,0E0,0E0,0E0,0E0],"parents":[2147483647,0,0,1,1,2,2],"right_children":[2,4,6,-1,-1,-1,-1],"split_conditions":[-4.9321687E-1,-5.440981E-1,-9.7679263E-1,-4.0114025E-4,8.937211E-3,-4.4281776E-3,-7.825948E-4],"split_indices":[1,1,2,0,0,0,0],"split_type":[0,0,0,0,0,0,0],"sum_hessian":[6.829647E2,5.349647E2,1.48E2,4.78E2,5.6964703E1,4.4E1,1.04E2],"tree_param":{"num_deleted":"0","num_feature":"4","num_nodes":"7","size_leaf_vector":"1"}},{"base_weights":[-6.857275E-4,-1.2122585E-2,4.2674962E-2,-5.2191326E-3,-4.3638668E-4,5.551275E-3,-9.145823E-4],"categories":[],"categories_nodes":[],"categories_segments":[],"categories_sizes":[],"default_left":[0,0,0,0,0,0,0],"id":62,"left_children":[1,3,5,-1,-1,-1,-1],"loss_changes":[3.3434647E-1,1.6354948E-1,3.5332218E-1,0E0,0E0,0E0,0E0],"parents":[2147483647,0,0,1,1,2,2],"right_children":[2,4,6,-1,-1,-1,-1],"split_conditions":[4.3269736E-1,-7.5702965E-1,-4.9321687E-1,-5.2191326E-3,-4.3638668E-4,5.551275E-3,-9.145823E-4],"split_indices":[0,0,1,0,0,0,0],"split_type":[0,0,0,0,0,0,0],"sum_hessian":[6.849647E2,5.56E2,1.289647E2,2.8E1,5.28E2,7.796471E1,5.1E1],"tree_param":{"num_deleted":"0","num_feature":"4","num_nodes":"7","size_leaf_vector":"1"}},{"base_weights":[-1.1518388E-3,2.6252322E-2,-1.6516207E-2,-3.6849795E-4,6.8940897E-3,-3.243147E-3,7.070556E-4],"categories":[],"categories_nodes":[],"categories_segments":[],"categories_sizes":[],"default_left":[0,0,0,0,0,0,0],"id":63,"left_children":[1,3,5,-1,-1,-1,-1],"loss_changes":[2.886459E-1,6.304561E-1,4.1450727E-1,0E0,0E0,0E0,0E0],"parents":[2147483647,0,0,1,1,2,2],"right_children":[2,4,6,-1,-1,-1,-1],"split_conditions":[-6.598183E-1,-7.0276266E-1,-5.810264E-1,-3.6849795E-4,6.8940897E-3,-3.243147E-3,7.070556E-4],"split_indices":[1,1,1,0,0,0,0],"split_type":[0,0,0,0,0,0,0],"sum_hessian":[6.779647E2,2.3E2,4.479647E2,1.64E2,6.6E1,2.11E2,2.369647E2],"tree_param":{"num_deleted":"0","num_feature":"4","num_nodes":"7","size_leaf_vector":"1"}},{"base_weights":[-0E0,1.0642475E-2,-3.596048E-2,-4.62252E-4,6.353511E-3,-2.8753642E-3,-0E0],"categories":[],"categories_nodes":[],"categories_segments":[],"categories_sizes":[],"default_left":[0,0,0,0,0,0,0],"id":64,"left_children":[1,3,5,-1,-1,-1,-1],"loss_changes":[2.647338E-1,8.278462E-1,5.7155818E-2,0E0,0E0,0E0,0E0],"parents":[2147483647,0,0,1,1,2,2],"right_children":[2,4,6,-1,-1,-1,-1],"split_conditions":[-4.9321687E-1,-5.810264E-1,9.6676385E-1,-4.62252E-4,6.353511E-3,-2.8753642E-3,-0E0],"split_indices":[1,1,1,0,0,0,0],"split_type":[0,0,0,0,0,0,0],"sum_hessian":[6.709647E2,5.219647E2,1.49E2,4.34E2,8.796471E1,1.34E2,1.5E1],"tree_param":{"num_deleted":"0","num_feature":"4","num_nodes":"7","size_leaf_vector":"1"}},{"base_weights":[-3.5381454E-4,9.634078E-3,-3.7379213E-2,-4.6045566E-4,5.822354E-3,-4.470716E-3,-1.1126904E-3],"categories":[],"categories_nodes":[],"categories_segments":[],"categories_sizes":[],"default_left":[0,0,0,0,0,0,0],"id":65,"left_children":[1,3,5,-1,-1,-1,-1],"loss_changes":[2.7443284E-1,7.361771E-1,4.7177345E-2,0E0,0E0,0E0,0E0],"parents":[2147483647,0,0,1,1,2,2],"right_children":[2,4,6,-1,-1,-1,-1],"split_conditions":[-4.9321687E-1,-5.810264E-1,-9.7679263E-1,-4.6045566E-4,5.822354E-3,-4.470716E-3,-1.1126904E-3],"split_indices":[1,1,2,0,0,0,0],"split_type":[0,0,0,0,0,0,0],"sum_hessian":[6.879647E2,5.369647E2,1.51E2,4.44E2,9.296471E1,4.5E1,1.06E2],"tree_param":{"num_deleted":"0","num_feature":"4","num_nodes":"7","size_leaf_vector":"1"}},{"base_weights":[-0E0,3.1023355E-2,-1.5059024E-2,3.286731E-8,8.306276E-3,-2.7387831E-3,4.4381936E-4],"categories":[],"categories_nodes":[],"categories_segments":[],"categories_sizes":[],"default_left":[0,0,0,0,0,0,0],"id":66,"left_children":[1,3,5,-1,-1,-1,-1],"loss_changes":[3.2981053E-1,6.155335E-1,2.723698E-1,0E0,0E0,0E0,0E0],"parents":[2147483647,0,0,1,1,2,2],"right_children":[2,4,6,-1,-1,-1,-1],"split_conditions":[-6.598183E-1,-6.967573E-1,-5.810264E-1,3.286731E-8,8.306276E-3,-2.7387831E-3,4.4381936E-4],"split_indices":[1,1,1,0,0,0,0],"split_type":[0,0,0,0,0,0,0],"sum_hessian":[6.729647E2,2.26E2,4.469647E2,1.8E2,4.6E1,2.11E2,2.359647E2],"tree_param":{"num_deleted":"0","num_feature":"4","num_nodes":"7","size_leaf_vector":"1"}},{"base_weights":[9.912628E-4,1.2282446E-2,-3.4719452E-2,-7.812303E-5,7.5259274E-3,-3.1286748E-3,-0E0],"categories":[],"categories_nodes":[],"categories_segments":[],"categories_sizes":[],"default_left":[0,0,0,0,0,0,0],"id":67,"left_children":[1,3,5,-1,-1,-1,-1],"loss_changes":[2.7346143E-1,7.844115E-1,5.954559E-2,0E0,0E0,0E0,0E0],"parents":[2147483647,0,0,1,1,2,2],"right_children":[2,4,6,-1,-1,-1,-1],"split_conditions":[-4.9321687E-1,-5.440981E-1,5.67301E-1,-7.812303E-5,7.5259274E-3,-3.1286748E-3,-0E0],"split_indices":[1,1,0,0,0,0,0],"split_type":[0,0,0,0,0,0,0],"sum_hessian":[6.859647E2,5.359647E2,1.5E2,4.76E2,5.9964703E1,1.07E2,4.3E1],"tree_param":{"num_deleted":"0","num_feature":"4","num_nodes":"7","size_leaf_vector":"1"}},{"base_weights":[-0E0,-2.8234672E-2,1.418344E-2,-2.3593467E-3,-0E0,4.0203801E-4,3.6953117E-3],"categories":[],"categories_nodes":[],"categories_segments":[],"categories_sizes":[],"default_left":[0,0,0,0,0,0,0],"id":68,"left_children":[1,3,5,-1,-1,-1,-1],"loss_changes":[2.792716E-1,4.858558E-2,1.2167069E-1,0E0,0E0,0E0,0E0],"parents":[2147483647,0,0,1,1,2,2],"right_children":[2,4,6,-1,-1,-1,-1],"split_conditions":[-2.6331663E-1,6.666667E-1,3.6720785E-1,-2.3593467E-3,-0E0,4.0203801E-4,3.6953117E-3],"split_indices":[0,3,2,0,0,0,0],"split_type":[0,0,0,0,0,0,0],"sum_hessian":[6.759647E2,2.25E2,4.509647E2,1.82E2,4.3E1,3.939647E2,5.7E1],"tree_param":{"num_deleted":"0","num_feature":"4","num_nodes":"7","size_leaf_vector":"1"}},{"base_weights":[-0E0,-1.1086978E-2,4.199829E-2,-5.214384E-3,-3.5618347E-4,5.0817016E-3,-6.562414E-4],"categories":[],"categories_nodes":[],"categories_segments":[],"categories_sizes":[],"default_left":[0,0,0,0,0,0,0],"id":69,"left_children":[1,3,5,-1,-1,-1,-1],"loss_changes":[3.3134487E-1,1.7012674E-1,2.974105E-1,0E0,0E0,0E0,0E0],"parents":[2147483647,0,0,1,1,2,2],"right_children":[2,4,6,-1,-1,-1,-1],"split_conditions":[3.9777377E-1,-7.5702965E-1,-4.9321687E-1,-5.214384E-3,-3.5618347E-4,5.0817016E-3,-6.562414E-4],"split_indices":[0,0,1,0,0,0,0],"split_type":[0,0,0,0,0,0,0],"sum_hessian":[6.859647E2,5.46E2,1.399647E2,2.8E1,5.18E2,8.796471E1,5.2E1],"tree_param":{"num_deleted":"0","num_feature":"4","num_nodes":"7","size_leaf_vector":"1"}},{"base_weights":[1.5962368E-3,1.1847863E-2,-3.02232E-2,-2.2753586E-4,5.59565E-3,-3.894304E-3,-6.0805754E-4],"categories":[],"categories_nodes":[],"categories_segments":[],"categories_sizes":[],"default_left":[0,0,0,0,0,0,0],"id":70,"left_children":[1,3,5,-1,-1,-1,-1],"loss_changes":[2.1537109E-1,6.1701834E-1,5.465892E-2,0E0,0E0,0E0,0E0],"parents":[2147483647,0,0,1,1,2,2],"right_children":[2,4,6,-1,-1,-1,-1],"split_conditions":[-4.9321687E-1,-5.810264E-1,-9.7679263E-1,-2.2753586E-4,5.59565E-3,-3.894304E-3,-6.0805754E-4],"split_indices":[1,1,2,0,0,0,0],"split_type":[0,0,0,0,0,0,0],"sum_hessian":[6.679647E2,5.209647E2,1.47E2,4.31E2,8.996471E1,4.7E1,1E2],"tree_param":{"num_deleted":"0","num_feature":"4","num_nodes":"7","size_leaf_vector":"1"}},{"base_weights":[4.220908E-4,-8.020264E-3,4.3924402E-2,-1.4302676E-3,1.0275567E-3,5.671324E-3,-2.2779274E-4],"categories":[],"categories_nodes":[],"categories_segments":[],"categories_sizes":[],"default_left":[0,0,0,0,0,0,0],"id":71,"left_children":[1,3,5,-1,-1,-1,-1],"loss_changes":[2.7025712E-1,1.8119608E-1,2.730945E-1,0E0,0E0,0E0,0E0],"parents":[2147483647,0,0,1,1,2,2],"right_children":[2,4,6,-1,-1,-1,-1],"split_conditions":[-2.2272305E-1,-5.810264E-1,-6.598183E-1,-1.4302676E-3,1.0275567E-3,5.671324E-3,-2.2779274E-4],"split_indices":[2,1,1,0,0,0,0],"split_type":[0,0,0,0,0,0,0],"sum_hessian":[6.709647E2,5.589647E2,1.12E2,3.7E2,1.889647E2,6.2E1,5E1],"tree_param":{"num_deleted":"0","num_feature":"4","num_nodes":"7","size_leaf_vector":"1"}},{"base_weights":[-4.9273453E-6,2.6510034E-2,-1.4841488E-2,-7.5463776E-4,5.288026E-3,7.899784E-5,-4.4392864E-3],"categories":[],"categories_nodes":[],"categories_segments":[],"categories_sizes":[],"default_left":[0,0,0,0,0,0,0],"id":72,"left_children":[1,3,5,-1,-1,-1,-1],"loss_changes":[2.7267253E-1,5.1667506E-1,4.129803E-1,0E0,0E0,0E0,0E0],"parents":[2147483647,0,0,1,1,2,2],"right_children":[2,4,6,-1,-1,-1,-1],"split_conditions":[-6.598183E-1,-9.2928195E-1,-9.237628E-1,-7.5463776E-4,5.288026E-3,7.899784E-5,-4.4392864E-3],"split_indices":[1,2,2,0,0,0,0],"split_type":[0,0,0,0,0,0,0],"sum_hessian":[6.889647E2,2.33E2,4.559647E2,1.34E2,9.9E1,3.469647E2,1.09E2],"tree_param":{"num_deleted":"0","num_feature":"4","num_nodes":"7","size_leaf_vector":"1"}},{"base_weights":[-7.0982805E-4,2.128265E-2,-1.3807318E-2,-0E0,6.400557E-3,-2.500238E-3,4.0130178E-4],"categories":[],"categories_nodes":[],"categories_segments":[],"categories_sizes":[],"default_left":[0,0,0,0,0,0,0],"id":73,"left_children":[1,3,5,-1,-1,-1,-1],"loss_changes":[1.9763793E-1,4.1510117E-1,2.2549126E-1,0E0,0E0,0E0,0E0],"parents":[2147483647,0,0,1,1,2,2],"right_children":[2,4,6,-1,-1,-1,-1],"split_conditions":[-6.598183E-1,-6.967573E-1,-5.810264E-1,-0E0,6.400557E-3,-2.500238E-3,4.0130178E-4],"split_indices":[1,1,1,0,0,0,0],"split_type":[0,0,0,0,0,0,0],"sum_hessian":[6.8E2,2.38E2,4.42E2,1.89E2,4.9E1,2.1E2,2.32E2],"tree_param":{"num_deleted":"0","num_feature":"4","num_nodes":"7","size_leaf_vector":"1"}},{"base_weights":[-0E0,-7.6103006E-3,3.6420282E-2,-3.405748E-3,-1.2030811E-4,7.438526E-4,3.4877493E-3],"categories":[],"categories_nodes":[],"categories_segments":[],"categories_sizes":[],"default_left":[0,0,0,0,0,0,0],"id":74,"left_children":[1,3,5,-1,-1,-1,-1],"loss_changes":[2.0012441E-1,1.15588635E-1,1.3955042E-2,0E0,0E0,0E0,0E0],"parents":[2147483647,0,0,1,1,2,2],"right_children":[2,4,6,-1,-1,-1,-1],"split_conditions":[-2.2272305E-1,-6.5152776E-1,3.6720785E-1,-3.405748E-3,-1.2030811E-4,7.438526E-4,3.4877493E-3],"split_indices":[2,0,2,0,0,0,0],"split_type":[0,0,0,0,0,0,0],"sum_hessian":[6.729647E2,5.559647E2,1.17E2,4.8E1,5.079647E2,6.2E1,5.5E1],"tree_param":{"num_deleted":"0","num_feature":"4","num_nodes":"7","size_leaf_vector":"1"}},{"base_weights":[1.6620253E-3,2.8127767E-2,-1.123064E-2,-0E0,5.711744E-3,-2.202966E-3,4.177282E-4],"categories":[],"categories_nodes":[],"categories_segments":[],"categories_sizes":[],"default_left":[0,0,0,0,0,0,0],"id":75,"left_children":[1,3,5,-1,-1,-1,-1],"loss_changes":[2.4786673E-1,3.7956747E-1,1.8772854E-1,0E0,0E0,0E0,0E0],"parents":[2147483647,0,0,1,1,2,2],"right_children":[2,4,6,-1,-1,-1,-1],"split_conditions":[-6.598183E-1,-7.0276266E-1,-5.810264E-1,-0E0,5.711744E-3,-2.202966E-3,4.177282E-4],"split_indices":[1,1,1,0,0,0,0],"split_type":[0,0,0,0,0,0,0],"sum_hessian":[6.849647E2,2.33E2,4.519647E2,1.63E2,7E1,2.11E2,2.409647E2],"tree_param":{"num_deleted":"0","num_feature":"4","num_nodes":"7","size_leaf_vector":"1"}},{"base_weights":[2.5476297E-4,-1.4978343E-2,1.8632624E-2,1.6871813E-3,-1.8355715E-3,-4.846729E-3,1.7646672E-3],"categories":[],"categories_nodes":[],"categories_segments":[],"categories_sizes":[],"default_left":[0,0,0,0,0,0,0],"id":76,"left_children":[1,3,5,-1,-1,-1,-1],"loss_changes":[1.9753134E-1,1.8900175E-1,2.2383636E-1,0E0,0E0,0E0,0E0],"parents":[2147483647,0,0,1,1,2,2],"right_children":[2,4,6,-1,-1,-1,-1],"split_conditions":[-4.9341515E-2,-7.863751E-1,-7.805703E-1,1.6871813E-3,-1.8355715E-3,-4.846729E-3,1.7646672E-3],"split_indices":[0,1,1,0,0,0,0],"split_type":[0,0,0,0,0,0,0],"sum_hessian":[6.809647E2,3.59E2,3.219647E2,7.3E1,2.86E2,1.4E1,3.079647E2],"tree_param":{"num_deleted":"0","num_feature":"4","num_nodes":"7","size_leaf_vector":"1"}},{"base_weights":[-0E0,2.2333324E-2,-1.1608908E-2,-0E0,6.39052E-3,1.5366802E-4,-3.769141E-3],"categories":[],"categories_nodes":[],"categories_segments":[],"categories_sizes":[],"default_left":[0,0,0,0,0,0,0],"id":77,"left_children":[1,3,5,-1,-1,-1,-1],"loss_changes":[1.8481186E-1,3.8456348E-1,3.110319E-1,0E0,0E0,0E0,0E0],"parents":[2147483647,0,0,1,1,2,2],"right_children":[2,4,6,-1,-1,-1,-1],"split_conditions":[-6.598183E-1,-6.967573E-1,-9.237628E-1,-0E0,6.39052E-3,1.5366802E-4,-3.769141E-3],"split_indices":[1,1,2,0,0,0,0],"split_type":[0,0,0,0,0,0,0],"sum_hessian":[6.879647E2,2.37E2,4.509647E2,1.9E2,4.7E1,3.419647E2,1.09E2],"tree_param":{"num_deleted":"0","num_feature":"4","num_nodes":"7","size_leaf_vector":"1"}},{"base_weights":[-3.9505623E-3,3.429019E-3,-3.195009E-2,-4.8056996E-4,5.433235E-3,-2.6547967E-3,3.2901645E-4],"categories":[],"categories_nodes":[],"categories_segments":[],"categories_sizes":[],"default_left":[0,0,0,0,0,0,0],"id":78,"left_children":[1,3,5,-1,-1,-1,-1],"loss_changes":[1.5708421E-1,4.8246643E-1,6.220539E-2,0E0,0E0,0E0,0E0],"parents":[2147483647,0,0,1,1,2,2],"right_children":[2,4,6,-1,-1,-1,-1],"split_conditions":[-4.9321687E-1,-5.440981E-1,9.6676385E-1,-4.8056996E-4,5.433235E-3,-2.6547967E-3,3.2901645E-4],"split_indices":[1,1,1,0,0,0,0],"split_type":[0,0,0,0,0,0,0],"sum_hessian":[6.799647E2,5.309647E2,1.49E2,4.69E2,6.1964703E1,1.34E2,1.5E1],"tree_param":{"num_deleted":"0","num_feature":"4","num_nodes":"7","size_leaf_vector":"1"}},{"base_weights":[6.410065E-4,-5.4266355E-3,4.132334E-2,-4.701992E-3,-1.0909484E-4,6.424904E-3,1.6907563E-3],"categories":[],"categories_nodes":[],"categories_segments":[],"categories_sizes":[],"default_left":[0,0,0,0,0,0,0],"id":79,"left_children":[1,3,5,-1,-1,-1,-1],"loss_changes":[1.9013572E-1,1.1189954E-1,8.788109E-3,0E0,0E0,0E0,0E0],"parents":[2147483647,0,0,1,1,2,2],"right_children":[2,4,6,-1,-1,-1,-1],"split_conditions":[5.240633E-1,-8.577229E-1,-9.423258E-1,-4.701992E-3,-1.0909484E-4,6.424904E-3,1.6907563E-3],"split_indices":[0,0,2,0,0,0,0],"split_type":[0,0,0,0,0,0,0],"sum_hessian":[6.829647E2,5.91E2,9.196471E1,1.7E1,5.74E2,3.964704E0,8.8E1],"tree_param":{"num_deleted":"0","num_feature":"4","num_nodes":"7","size_leaf_vector":"1"}},{"base_weights":[-1.5384132E-3,2.8862979E-3,-3.7627485E-2,-5.029156E-4,2.2296365E-3,-3.354046E-3,-0E0],"categories":[],"categories_nodes":[],"categories_segments":[],"categories_sizes":[],"default_left":[0,0,0,0,0,0,0],"id":80,"left_children":[1,3,5,-1,-1,-1,-1],"loss_changes":[1.283474E-1,2.0723271E-1,5.9653893E-2,0E0,0E0,0E0,0E0],"parents":[2147483647,0,0,1,1,2,2],"right_children":[2,4,6,-1,-1,-1,-1],"split_conditions":[-2.3976815E-1,-5.810264E-1,9.6676385E-1,-5.029156E-4,2.2296365E-3,-3.354046E-3,-0E0],"split_indices":[1,1,1,0,0,0,0],"split_type":[0,0,0,0,0,0,0],"sum_hessian":[6.839647E2,6.049647E2,7.9E1,4.44E2,1.609647E2,6.5E1,1.4E1],"tree_param":{"num_deleted":"0","num_feature":"4","num_nodes":"7","size_leaf_vector":"1"}},{"base_weights":[-3.1376374E-4,1.93118E-2,-1.2175119E-2,-1.1648867E-4,4.8381747E-3,-2.1844269E-3,3.0582532E-4],"categories":[],"categories_nodes":[],"categories_segments":[],"categories_sizes":[],"default_left":[0,0,0,0,0,0,0],"id":81,"left_children":[1,3,5,-1,-1,-1,-1],"loss_changes":[1.6056333E-1,3.1188884E-1,1.6895533E-1,0E0,0E0,0E0,0E0],"parents":[2147483647,0,0,1,1,2,2],"right_children":[2,4,6,-1,-1,-1,-1],"split_conditions":[-6.598183E-1,-7.0276266E-1,-5.810264E-1,-1.1648867E-4,4.8381747E-3,-2.1844269E-3,3.0582532E-4],"split_indices":[1,1,1,0,0,0,0],"split_type":[0,0,0,0,0,0,0],"sum_hessian":[6.859647E2,2.41E2,4.449647E2,1.72E2,6.9E1,2.1E2,2.349647E2],"tree_param":{"num_deleted":"0","num_feature":"4","num_nodes":"7","size_leaf_vector":"1"}},{"base_weights":[1.9113895E-3,-5.081587E-3,3.1223105E-2,-7.7334576E-4,1.9449966E-3,4.4333073E-3,1.0552602E-3],"categories":[],"categories_nodes":[],"categories_segments":[],"categories_sizes":[],"default_left":[0,0,0,0,0,0,0],"id":82,"left_children":[1,3,5,-1,-1,-1,-1],"loss_changes":[1.5197879E-1,1.1212626E-1,2.9037118E-2,0E0,0E0,0E0,0E0],"parents":[2147483647,0,0,1,1,2,2],"right_children":[2,4,6,-1,-1,-1,-1],"split_conditions":[3.9777377E-1,6.666667E-1,-9.4155574E-1,-7.7334576E-4,1.9449966E-3,4.4333073E-3,1.0552602E-3],"split_indices":[0,3,2,0,0,0,0],"split_type":[0,0,0,0,0,0,0],"sum_hessian":[6.639647E2,5.29E2,1.349647E2,4.62E2,6.7E1,2.2964705E1,1.12E2],"tree_param":{"num_deleted":"0","num_feature":"4","num_nodes":"7","size_leaf_vector":"1"}},{"base_weights":[-0E0,7.170912E-3,-2.4035852E-2,-2.3037965E-4,4.027142E-3,-1.9494932E-3,-0E0],"categories":[],"categories_nodes":[],"categories_segments":[],"categories_sizes":[],"default_left":[0,0,0,0,0,0,0],"id":83,"left_children":[1,3,5,-1,-1,-1,-1],"loss_changes":[1.2053112E-1,3.3287218E-1,3.1123683E-2,0E0,0E0,0E0,0E0],"parents":[2147483647,0,0,1,1,2,2],"right_children":[2,4,6,-1,-1,-1,-1],"split_conditions":[-4.9321687E-1,-5.810264E-1,9.6676385E-1,-2.3037965E-4,4.027142E-3,-1.9494932E-3,-0E0],"split_indices":[1,1,1,0,0,0,0],"split_type":[0,0,0,0,0,0,0],"sum_hessian":[6.859647E2,5.349647E2,1.51E2,4.45E2,8.996471E1,1.38E2,1.3E1],"tree_param":{"num_deleted":"0","num_feature":"4","num_nodes":"7","size_leaf_vector":"1"}},{"base_weights":[1.6106641E-3,-2.6680126E-3,5.0292224E-2,1.9051511E-4,-1.9521144E-3,5.897156E-3,-1.2001945E-3],"categories":[],"categories_nodes":[],"categories_segments":[],"categories_sizes":[],"default_left":[0,0,0,0,0,0,0],"id":84,"left_children":[1,3,5,-1,-1,-1,-1],"loss_changes":[1.6762201E-1,1.0511456E-1,2.1398064E-1,0E0,0E0,0E0,0E0],"parents":[2147483647,0,0,1,1,2,2],"right_children":[2,4,6,-1,-1,-1,-1],"split_conditions":[3.6720785E-1,-4.9321687E-1,-2.3976815E-1,1.9051511E-4,-1.9521144E-3,5.897156E-3,-1.2001945E-3],"split_indices":[2,1,1,0,0,0,0],"split_type":[0,0,0,0,0,0,0],"sum_hessian":[6.799647E2,6.239647E2,5.6E1,5.079647E2,1.16E2,3.9E1,1.7E1],"tree_param":{"num_deleted":"0","num_feature":"4","num_nodes":"7","size_leaf_vector":"1"}},{"base_weights":[-0E0,-4.9591237E-3,3.3953622E-2,7.2615466E-4,-9.811469E-4,3.4096874E-3,-1.3076639E-3],"categories":[],"categories_nodes":[],"categories_segments":[],"categories_sizes":[],"default_left":[0,0,0,0,0,0,0],"id":85,"left_children":[1,3,5,-1,-1,-1,-1],"loss_changes":[1.3261111E-1,9.4780564E-2,1.15390345E-1,0E0,0E0,0E0,0E0],"parents":[2147483647,0,0,1,1,2,2],"right_children":[2,4,6,-1,-1,-1,-1],"split_conditions":[5.240633E-1,-6.598183E-1,-2.3976815E-1,7.2615466E-4,-9.811469E-4,3.4096874E-3,-1.3076639E-3],"split_indices":[0,1,1,0,0,0,0],"split_type":[0,0,0,0,0,0,0],"sum_hessian":[6.869647E2,5.94E2,9.296471E1,2.06E2,3.88E2,7.796471E1,1.5E1],"tree_param":{"num_deleted":"0","num_feature":"4","num_nodes":"7","size_leaf_vector":"1"}},{"base_weights":[-4.5944646E-5,-4.6878528E-2,3.2957855E-3,-0E0,-4.1816263E-3,3.8508412E-3,-6.95263E-5],"categories":[],"categories_nodes":[],"categories_segments":[],"categories_sizes":[],"default_left":[0,0,0,0,0,0,0],"id":86,"left_children":[1,3,5,-1,-1,-1,-1],"loss_changes":[1.2814386E-1,3.7952423E-2,1.7472914E-1,0E0,0E0,0E0,0E0],"parents":[2147483647,0,0,1,1,2,2],"right_children":[2,4,6,-1,-1,-1,-1],"split_conditions":[-6.5152776E-1,-8.550054E-1,-7.863751E-1,-0E0,-4.1816263E-3,3.8508412E-3,-6.95263E-5],"split_indices":[0,1,1,0,0,0,0],"split_type":[0,0,0,0,0,0,0],"sum_hessian":[6.669647E2,4.6E1,6.209647E2,1.4E1,3.2E1,4.6E1,5.749647E2],"tree_param":{"num_deleted":"0","num_feature":"4","num_nodes":"7","size_leaf_vector":"1"}},{"base_weights":[2.5176434E-3,-5.8759853E-2,6.452262E-3,-4.8712026E-3,-0E0,9.1108785E-4,-9.891809E-4],"categories":[],"categories_nodes":[],"categories_segments":[],"categories_sizes":[],"default_left":[0,0,0,0,0,0,0],"id":87,"left_children":[1,3,5,-1,-1,-1,-1],"loss_changes":[1.4480038E-1,3.1633608E-2,1.00974634E-1,0E0,0E0,0E0,0E0],"parents":[2147483647,0,0,1,1,2,2],"right_children":[2,4,6,-1,-1,-1,-1],"split_conditions":[-7.5702965E-1,-9.437216E-1,-4.9321687E-1,-4.8712026E-3,-0E0,9.1108785E-4,-9.891809E-4],"split_indices":[0,2,1,0,0,0,0],"split_type":[0,0,0,0,0,0,0],"sum_hessian":[6.809647E2,2.6E1,6.549647E2,2E1,6E0,5.099647E2,1.45E2],"tree_param":{"num_deleted":"0","num_feature":"4","num_nodes":"7","size_leaf_vector":"1"}},{"base_weights":[-0E0,-4.8546125E-3,3.1206977E-2,-3.9505498E-3,-1.04398E-4,4.862599E-3,5.621105E-4],"categories":[],"categories_nodes":[],"categories_segments":[],"categories_sizes":[],"default_left":[0,0,0,0,0,0,0],"id":88,"left_children":[1,3,5,-1,-1,-1,-1],"loss_changes":[1.1468218E-1,7.7581756E-2,5.262097E-2,0E0,0E0,0E0,0E0],"parents":[2147483647,0,0,1,1,2,2],"right_children":[2,4,6,-1,-1,-1,-1],"split_conditions":[5.240633E-1,-8.577229E-1,-9.2662233E-1,-3.9505498E-3,-1.04398E-4,4.862599E-3,5.621105E-4],"split_indices":[0,0,2,0,0,0,0],"split_type":[0,0,0,0,0,0,0],"sum_hessian":[6.879647E2,5.94E2,9.396471E1,1.7E1,5.77E2,1.8964705E1,7.5E1],"tree_param":{"num_deleted":"0","num_feature":"4","num_nodes":"7","size_leaf_vector":"1"}},{"base_weights":[-0E0,-1.402359E-2,1.0071254E-2,-3.7781291E-3,-5.516104E-4,3.9714033E-4,4.2947507E-3],"categories":[],"categories_nodes":[],"categories_segments":[],"categories_sizes":[],"default_left":[0,0,0,0,0,0,0],"id":89,"left_children":[1,3,5,-1,-1,-1,-1],"loss_changes":[1.012816E-1,4.1256793E-2,5.1626053E-2,0E0,0E0,0E0,0E0],"parents":[2147483647,0,0,1,1,2,2],"right_children":[2,4,6,-1,-1,-1,-1],"split_conditions":[-1.7688708E-1,-8.577229E-1,8.333333E-1,-3.7781291E-3,-5.516104E-4,3.9714033E-4,4.2947507E-3],"split_indices":[0,0,3,0,0,0,0],"split_type":[0,0,0,0,0,0,0],"sum_hessian":[6.879647E2,3.02E2,3.859647E2,1.7E1,2.85E2,3.759647E2,1E1],"tree_param":{"num_deleted":"0","num_feature":"4","num_nodes":"7","size_leaf_vector":"1"}},{"base_weights":[4.312073E-4,-3.5972022E-3,3.8462184E-2,-7.9681433E-4,7.665884E-4,4.132015E-3,-8.9138723E-4],"categories":[],"categories_nodes":[],"categories_segments":[],"categories_sizes":[],"default_left":[0,0,0,0,0,0,0],"id":90,"left_children":[1,3,5,-1,-1,-1,-1],"loss_changes":[1.23576336E-1,7.817985E-2,1.2350675E-1,0E0,0E0,0E0,0E0],"parents":[2147483647,0,0,1,1,2,2],"right_children":[2,4,6,-1,-1,-1,-1],"split_conditions":[6.0115755E-1,-5.810264E-1,-2.3976815E-1,-7.9681433E-4,7.665884E-4,4.132015E-3,-8.9138723E-4],"split_indices":[0,1,1,0,0,0,0],"split_type":[0,0,0,0,0,0,0],"sum_hessian":[6.799647E2,6.109647E2,6.9E1,4.16E2,1.949647E2,5.3E1,1.6E1],"tree_param":{"num_deleted":"0","num_feature":"4","num_nodes":"7","size_leaf_vector":"1"}},{"base_weights":[-0E0,1.6273398E-2,-8.712617E-3,-0E0,5.014059E-3,-2.004737E-3,5.6752015E-4],"categories":[],"categories_nodes":[],"categories_segments":[],"categories_sizes":[],"default_left":[0,0,0,0,0,0,0],"id":91,"left_children":[1,3,5,-1,-1,-1,-1],"loss_changes":[9.8196305E-2,2.5349072E-1,1.7361759E-1,0E0,0E0,0E0,0E0],"parents":[2147483647,0,0,1,1,2,2],"right_children":[2,4,6,-1,-1,-1,-1],"split_conditions":[-6.598183E-1,-6.967573E-1,-5.810264E-1,-0E0,5.014059E-3,-2.004737E-3,5.6752015E-4],"split_indices":[1,1,1,0,0,0,0],"split_type":[0,0,0,0,0,0,0],"sum_hessian":[6.699647E2,2.34E2,4.359647E2,1.86E2,4.8E1,2.05E2,2.309647E2],"tree_param":{"num_deleted":"0","num_feature":"4","num_nodes":"7","size_leaf_vector":"1"}},{"base_weights":[9.950295E-4,8.135117E-3,-2.0827262E-2,-1.3886907E-4,3.9988845E-3,-1.8459378E-3,3.5949127E-4],"categories":[],"categories_nodes":[],"categories_segments":[],"categories_sizes":[],"default_left":[0,0,0,0,0,0,0],"id":92,"left_children":[1,3,5,-1,-1,-1,-1],"loss_changes":[1.0176073E-1,3.0984834E-1,3.866131E-2,0E0,0E0,0E0,0E0],"parents":[2147483647,0,0,1,1,2,2],"right_children":[2,4,6,-1,-1,-1,-1],"split_conditions":[-4.9321687E-1,-5.810264E-1,9.6676385E-1,-1.3886907E-4,3.9988845E-3,-1.8459378E-3,3.5949127E-4],"split_indices":[1,1,1,0,0,0,0],"split_type":[0,0,0,0,0,0,0],"sum_hessian":[6.729647E2,5.279647E2,1.45E2,4.4E2,8.796471E1,1.3E2,1.5E1],"tree_param":{"num_deleted":"0","num_feature":"4","num_nodes":"7","size_leaf_vector":"1"}},{"base_weights":[-0E0,-3.5777435E-2,3.6849766E-3,-3.8229127E-3,1.9241896E-4,3.0607504E-3,-0E0],"categories":[],"categories_nodes":[],"categories_segments":[],"categories_sizes":[],"default_left":[0,0,0,0,0,0,0],"id":93,"left_children":[1,3,5,-1,-1,-1,-1],"loss_changes":[7.9305366E-2,7.230689E-2,1.0566283E-1,0E0,0E0,0E0,0E0],"parents":[2147483647,0,0,1,1,2,2],"right_children":[2,4,6,-1,-1,-1,-1],"split_conditions":[-6.5152776E-1,-9.4057375E-1,-9.985849E-1,-3.8229127E-3,1.9241896E-4,3.0607504E-3,-0E0],"split_indices":[0,2,2,0,0,0,0],"split_type":[0,0,0,0,0,0,0],"sum_hessian":[6.739647E2,4.6E1,6.279647E2,3.5E1,1.1E1,4.6E1,5.819647E2],"tree_param":{"num_deleted":"0","num_feature":"4","num_nodes":"7","size_leaf_vector":"1"}},{"base_weights":[-0E0,-1.7833104E-2,5.8685825E-3,-2.2336703E-3,-0E0,1.4167994E-4,3.1386968E-3],"categories":[],"categories_nodes":[],"categories_segments":[],"categories_sizes":[],"default_left":[0,0,0,0,0,0,0],"id":94,"left_children":[1,3,5,-1,-1,-1,-1],"loss_changes":[7.650882E-2,5.9022617E-2,5.2778773E-2,0E0,0E0,0E0,0E0],"parents":[2147483647,0,0,1,1,2,2],"right_children":[2,4,6,-1,-1,-1,-1],"split_conditions":[-3.2647055E-1,1.6666667E-1,8.333333E-1,-2.2336703E-3,-0E0,1.4167994E-4,3.1386968E-3],"split_indices":[0,3,3,0,0,0,0],"split_type":[0,0,0,0,0,0,0],"sum_hessian":[6.699647E2,1.77E2,4.929647E2,9.8E1,7.9E1,4.709647E2,2.2E1],"tree_param":{"num_deleted":"0","num_feature":"4","num_nodes":"7","size_leaf_vector":"1"}},{"base_weights":[-1.32892E-3,-1.3597343E-2,7.2080106E-3,-1.2161324E-3,-0E0,1.3633642E-3,-3.530804E-4],"categories":[],"categories_nodes":[],"categories_segments":[],"categories_sizes":[],"default_left":[0,0,0,0,0,0,0],"id":95,"left_children":[1,3,5,-1,-1,-1,-1],"loss_changes":[7.5935364E-2,2.645732E-2,7.135151E-2,0E0,0E0,0E0,0E0],"parents":[2147483647,0,0,1,1,2,2],"right_children":[2,4,6,-1,-1,-1,-1],"split_conditions":[-1.7688708E-1,6.666667E-1,-9.3966097E-1,-1.2161324E-3,-0E0,1.3633642E-3,-3.530804E-4],"split_indices":[0,3,2,0,0,0,0],"split_type":[0,0,0,0,0,0,0],"sum_hessian":[6.779647E2,2.99E2,3.789647E2,2.46E2,5.3E1,2.009647E2,1.78E2],"tree_param":{"num_deleted":"0","num_feature":"4","num_nodes":"7","size_leaf_vector":"1"}},{"base_weights":[2.3327167E-3,-1.1858278E-2,1.4812699E-2,-1.1699639E-3,2.830967E-4,1.7174127E-3,-0E0],"categories":[],"categories_nodes":[],"categories_segments":[],"categories_sizes":[],"default_left":[0,0,0,0,0,0,0],"id":96,"left_children":[1,3,5,-1,-1,-1,-1],"loss_changes":[1.2455391E-1,3.4418054E-2,5.0130613E-2,0E0,0E0,0E0,0E0],"parents":[2147483647,0,0,1,1,2,2],"right_children":[2,4,6,-1,-1,-1,-1],"split_conditions":[-1.7688708E-1,6.666667E-1,-9.3966097E-1,-1.1699639E-3,2.830967E-4,1.7174127E-3,-0E0],"split_indices":[0,3,2,0,0,0,0],"split_type":[0,0,0,0,0,0,0],"sum_hessian":[6.769647E2,2.99E2,3.779647E2,2.44E2,5.5E1,1.979647E2,1.8E2],"tree_param":{"num_deleted":"0","num_feature":"4","num_nodes":"7","size_leaf_vector":"1"}},{"base_weights":[2.6229484E-4,-5.2928515E-3,3.0444922E-2,1.4651649E-5,-2.936777E-3,3.703022E-3,-0E0],"categories":[],"categories_nodes":[],"categories_segments":[],"categories_sizes":[],"default_left":[0,0,0,0,0,0,0],"id":97,"left_children":[1,3,5,-1,-1,-1,-1],"loss_changes":[1.272516E-1,1.4085677E-1,1.0138608E-1,0E0,0E0,0E0,0E0],"parents":[2147483647,0,0,1,1,2,2],"right_children":[2,4,6,-1,-1,-1,-1],"split_conditions":[-2.2272305E-1,-8.854266E-1,-6.598183E-1,1.4651649E-5,-2.936777E-3,3.703022E-3,-0E0],"split_indices":[2,2,1,0,0,0,0],"split_type":[0,0,0,0,0,0,0],"sum_hessian":[6.689647E2,5.579647E2,1.11E2,4.849647E2,7.3E1,6.1E1,5E1],"tree_param":{"num_deleted":"0","num_feature":"4","num_nodes":"7","size_leaf_vector":"1"}},{"base_weights":[6.503E-4,-2.9823342E-3,1.4423858E-3,1.2201877E-4,-3.155932E-3],"categories":[],"categories_nodes":[],"categories_segments":[],"categories_sizes":[],"default_left":[0,0,0,0,0],"id":98,"left_children":[1,3,-1,-1,-1],"loss_changes":[6.0976323E-2,1.4237908E-1,0E0,0E0,0E0],"parents":[2147483647,0,0,1,1],"right_children":[2,4,-1,-1,-1],"split_conditions":[-2.2272305E-1,-7.861876E-1,1.4423858E-3,1.2201877E-4,-3.155932E-3],"split_indices":[2,2,0,0,0],"split_type":[0,0,0,0,0],"sum_hessian":[6.729647E2,5.599647E2,1.13E2,5.029647E2,5.7E1],"tree_param":{"num_deleted":"0","num_feature":"4","num_nodes":"5","size_leaf_vector":"1"}},{"base_weights":[1.0466726E-3,-2.4220115E-3,4.2578537E-2,1.9511103E-3,-5.1918987E-4,3.864284E-3,-0E0],"categories":[],"categories_nodes":[],"categories_segments":[],"categories_sizes":[],"default_left":[0,0,0,0,0,0,0],"id":99,"left_children":[1,3,5,-1,-1,-1,-1],"loss_changes":[1.1934479E-1,9.727811E-2,5.5927306E-2,0E0,0E0,0E0,0E0],"parents":[2147483647,0,0,1,1,2,2],"right_children":[2,4,6,-1,-1,-1,-1],"split_conditions":[3.6720785E-1,-7.863751E-1,-2.3976815E-1,1.9511103E-3,-5.1918987E-4,3.864284E-3,-0E0],"split_indices":[2,1,1,0,0,0,0],"split_type":[0,0,0,0,0,0,0],"sum_hessian":[6.789647E2,6.239647E2,5.5E1,7.1E1,5.529647E2,4.3E1,1.2E1],"tree_param":{"num_deleted":"0","num_feature":"4","num_nodes":"7","size_leaf_vector":"1"}},{"base_weights":[-6.89211E-4,-5.096594E-3,3.0431308E-2,-2.9284558E-3,-0E0,-3.4653491E-4,3.3587874E-3],"categories":[],"categories_nodes":[],"categories_segments":[],"categories_sizes":[],"default_left":[0,0,0,0,0,0,0],"id":100,"left_children":[1,3,5,-1,-1,-1,-1],"loss_changes":[8.256677E-2,1.0378248E-1,7.396534E-2,0E0,0E0,0E0,0E0],"parents":[2147483647,0,0,1,1,2,2],"right_children":[2,4,6,-1,-1,-1,-1],"split_conditions":[6.666667E-1,-9.9225813E-1,-5.6025815E-1,-2.9284558E-3,-0E0,-3.4653491E-4,3.3587874E-3],"split_indices":[3,2,0,0,0,0,0],"split_type":[0,0,0,0,0,0,0],"sum_hessian":[6.709647E2,6.079647E2,6.3E1,5.4E1,5.539647E2,1.6E1,4.7E1],"tree_param":{"num_deleted":"0","num_feature":"4","num_nodes":"7","size_leaf_vector":"1"}},{"base_weights":[-0E0,-3.6081532E-3,3.476733E-3,3.1960693E-3,-2.8802415E-5],"categories":[],"categories_nodes":[],"categories_segments":[],"categories_sizes":[],"default_left":[0,0,0,0,0],"id":101,"left_children":[1,-1,3,-1,-1],"loss_changes":[1.06304295E-1,0E0,1.3493858E-1,0E0,0E0],"parents":[2147483647,0,0,2,2],"right_children":[2,-1,4,-1,-1],"split_conditions":[-7.5702965E-1,-3.6081532E-3,-7.863751E-1,3.1960693E-3,-2.8802415E-5],"split_indices":[0,0,1,0,0],"split_type":[0,0,0,0,0],"sum_hessian":[6.679647E2,2.5E1,6.429647E2,5.4E1,5.889647E2],"tree_param":{"num_deleted":"0","num_feature":"4","num_nodes":"5","size_leaf_vector":"1"}},{"base_weights":[1.9024655E-3,-1.0106721E-2,1.2935024E-2,1.2351825E-3,-1.1304843E-3,-2.1938102E-3,1.2838468E-3],"categories":[],"categories_nodes":[],"categories_segments":[],"categories_sizes":[],"default_left":[0,0,0,0,0,0,0],"id":102,"left_children":[1,3,5,-1,-1,-1,-1],"loss_changes":[9.4662145E-2,6.261839E-2,1.07770026E-1,0E0,0E0,0E0,0E0],"parents":[2147483647,0,0,1,1,2,2],"right_children":[2,4,6,-1,-1,-1,-1],"split_conditions":[-1.7688708E-1,-8.106774E-1,-7.805703E-1,1.2351825E-3,-1.1304843E-3,-2.1938102E-3,1.2838468E-3],"split_indices":[0,1,1,0,0,0,0],"split_type":[0,0,0,0,0,0,0],"sum_hessian":[6.859647E2,3.08E2,3.779647E2,4.2E1,2.66E2,3.1E1,3.469647E2],"tree_param":{"num_deleted":"0","num_feature":"4","num_nodes":"7","size_leaf_vector":"1"}},{"base_weights":[-0E0,5.528467E-3,-1.9140767E-2,-2.228085E-4,4.9173827E-3,-2.5146238E-3,-2.8650032E-4],"categories":[],"categories_nodes":[],"categories_segments":[],"categories_sizes":[],"default_left":[0,0,0,0,0,0,0],"id":103,"left_children":[1,3,5,-1,-1,-1,-1],"loss_changes":[7.593335E-2,3.5847417E-1,2.2604298E-2,0E0,0E0,0E0,0E0],"parents":[2147483647,0,0,1,1,2,2],"right_children":[2,4,6,-1,-1,-1,-1],"split_conditions":[-4.9321687E-1,-5.440981E-1,-9.7679263E-1,-2.228085E-4,4.9173827E-3,-2.5146238E-3,-2.8650032E-4],"split_indices":[1,1,2,0,0,0,0],"split_type":[0,0,0,0,0,0,0],"sum_hessian":[6.839647E2,5.309647E2,1.53E2,4.71E2,5.9964703E1,4.8E1,1.05E2],"tree_param":{"num_deleted":"0","num_feature":"4","num_nodes":"7","size_leaf_vector":"1"}},{"base_weights":[1.207807E-3,8.376608E-3,-2.0038277E-2,-2.3331308E-5,3.4473618E-3,-1.7697735E-3,3.4671664E-4],"categories":[],"categories_nodes":[],"categories_segments":[],"categories_sizes":[],"default_left":[0,0,0,0,0,0,0],"id":104,"left_children":[1,3,5,-1,-1,-1,-1],"loss_changes":[1.0061158E-1,2.2551487E-1,3.6564782E-2,0E0,0E0,0E0,0E0],"parents":[2147483647,0,0,1,1,2,2],"right_children":[2,4,6,-1,-1,-1,-1],"split_conditions":[-4.9321687E-1,-5.810264E-1,9.6676385E-1,-2.3331308E-5,3.4473618E-3,-1.7697735E-3,3.4671664E-4],"split_indices":[1,1,1,0,0,0,0],"split_type":[0,0,0,0,0,0,0],"sum_hessian":[6.779647E2,5.279647E2,1.5E2,4.37E2,9.096471E1,1.35E2,1.5E1],"tree_param":{"num_deleted":"0","num_feature":"4","num_nodes":"7","size_leaf_vector":"1"}},{"base_weights":[3.1388804E-4,1.5549369E-2,-6.79927E-3,-1.3709534E-4,3.9483975E-3,-1.5496477E-3,3.9452844E-4],"categories":[],"categories_nodes":[],"categories_segments":[],"categories_sizes":[],"default_left":[0,0,0,0,0,0,0],"id":105,"left_children":[1,3,5,-1,-1,-1,-1],"loss_changes":[8.039684E-2,2.1439305E-1,1.0372634E-1,0E0,0E0,0E0,0E0],"parents":[2147483647,0,0,1,1,2,2],"right_children":[2,4,6,-1,-1,-1,-1],"split_conditions":[-6.598183E-1,-7.0276266E-1,-5.810264E-1,-1.3709534E-4,3.9483975E-3,-1.5496477E-3,3.9452844E-4],"split_indices":[1,1,1,0,0,0,0],"split_type":[0,0,0,0,0,0,0],"sum_hessian":[6.849647E2,2.36E2,4.489647E2,1.66E2,7E1,2.1E2,2.389647E2],"tree_param":{"num_deleted":"0","num_feature":"4","num_nodes":"7","size_leaf_vector":"1"}},{"base_weights":[-0E0,1.3591531E-2,-6.4776265E-3,-1.4333164E-4,3.6668424E-3,-1.8078348E-3,6.342157E-4],"categories":[],"categories_nodes":[],"categories_segments":[],"categories_sizes":[],"default_left":[0,0,0,0,0,0,0],"id":106,"left_children":[1,3,5,-1,-1,-1,-1],"loss_changes":[6.349498E-2,1.8012007E-1,1.6004357E-1,0E0,0E0,0E0,0E0],"parents":[2147483647,0,0,1,1,2,2],"right_children":[2,4,6,-1,-1,-1,-1],"split_conditions":[-6.598183E-1,-7.0276266E-1,-5.810264E-1,-1.4333164E-4,3.6668424E-3,-1.8078348E-3,6.342157E-4],"split_indices":[1,1,1,0,0,0,0],"split_type":[0,0,0,0,0,0,0],"sum_hessian":[6.809647E2,2.3E2,4.509647E2,1.64E2,6.6E1,2.08E2,2.429647E2],"tree_param":{"num_deleted":"0","num_feature":"4","num_nodes":"7","size_leaf_vector":"1"}},{"base_weights":[2.6211186E-4,6.194853E-3,-1.7006181E-2,-2.0274344E-4,5.1336223E-3,-1.5239927E-3,3.126752E-4],"categories":[],"categories_nodes":[],"categories_segments":[],"categories_sizes":[],"default_left":[0,0,0,0,0,0,0],"id":107,"left_children":[1,3,5,-1,-1,-1,-1],"loss_changes":[6.5260254E-2,3.80996E-1,2.8606273E-2,0E0,0E0,0E0,0E0],"parents":[2147483647,0,0,1,1,2,2],"right_children":[2,4,6,-1,-1,-1,-1],"split_conditions":[-4.9321687E-1,-5.440981E-1,9.6676385E-1,-2.0274344E-4,5.1336223E-3,-1.5239927E-3,3.126752E-4],"split_indices":[1,1,1,0,0,0,0],"split_type":[0,0,0,0,0,0,0],"sum_hessian":[6.689647E2,5.229647E2,1.46E2,4.64E2,5.8964703E1,1.33E2,1.3E1],"tree_param":{"num_deleted":"0","num_feature":"4","num_nodes":"7","size_leaf_vector":"1"}},{"base_weights":[1.5509003E-4,-4.2763874E-3,2.4510907E-2,3.3930544E-5,-2.8330889E-3,2.3526533E-3,-3.4722977E-4],"categories":[],"categories_nodes":[],"categories_segments":[],"categories_sizes":[],"default_left":[0,0,0,0,0,0,0],"id":108,"left_children":[1,3,5,-1,-1,-1,-1],"loss_changes":[8.440749E-2,1.2314868E-1,5.4234758E-2,0E0,0E0,0E0,0E0],"parents":[2147483647,0,0,1,1,2,2],"right_children":[2,4,6,-1,-1,-1,-1],"split_conditions":[-2.2272305E-1,-8.222362E-1,-2.3976815E-1,3.3930544E-5,-2.8330889E-3,2.3526533E-3,-3.4722977E-4],"split_indices":[2,2,1,0,0,0,0],"split_type":[0,0,0,0,0,0,0],"sum_hessian":[6.74E2,5.6E2,1.14E2,4.94E2,6.6E1,9.5E1,1.9E1],"tree_param":{"num_deleted":"0","num_feature":"4","num_nodes":"7","size_leaf_vector":"1"}},{"base_weights":[-3.7164192E-4,3.0204209E-2,-3.7145247E-3,-0E0,2.8464857E-3,-2.7797387E-3,5.5082735E-5],"categories":[],"categories_nodes":[],"categories_segments":[],"categories_sizes":[],"default_left":[0,0,0,0,0,0,0],"id":109,"left_children":[1,3,5,-1,-1,-1,-1],"loss_changes":[5.815426E-2,3.6888037E-2,1.2856813E-1,0E0,0E0,0E0,0E0],"parents":[2147483647,0,0,1,1,2,2],"right_children":[2,4,6,-1,-1,-1,-1],"split_conditions":[-8.106774E-1,-9.943172E-1,-7.805703E-1,-0E0,2.8464857E-3,-2.7797387E-3,5.5082735E-5],"split_indices":[1,2,1,0,0,0,0],"split_type":[0,0,0,0,0,0,0],"sum_hessian":[6.739647E2,4.5E1,6.289647E2,6E0,3.9E1,7.1E1,5.579647E2],"tree_param":{"num_deleted":"0","num_feature":"4","num_nodes":"7","size_leaf_vector":"1"}},{"base_weights":[2.8703446E-4,1.4886303E-2,-6.3867727E-3,-0E0,4.328702E-3,-1.5092252E-3,4.0134252E-4],"categories":[],"categories_nodes":[],"categories_segments":[],"categories_sizes":[],"default_left":[0,0,0,0,0,0,0],"id":110,"left_children":[1,3,5,-1,-1,-1,-1],"loss_changes":[7.200023E-2,1.8348034E-1,9.959866E-2,0E0,0E0,0E0,0E0],"parents":[2147483647,0,0,1,1,2,2],"right_children":[2,4,6,-1,-1,-1,-1],"split_conditions":[-6.598183E-1,-6.967573E-1,-5.810264E-1,-0E0,4.328702E-3,-1.5092252E-3,4.0134252E-4],"split_indices":[1,1,1,0,0,0,0],"split_type":[0,0,0,0,0,0,0],"sum_hessian":[6.789647E2,2.32E2,4.469647E2,1.84E2,4.8E1,2.08E2,2.389647E2],"tree_param":{"num_deleted":"0","num_feature":"4","num_nodes":"7","size_leaf_vector":"1"}},{"base_weights":[-2.071849E-3,-4.6366166E-2,-0E0,-3.6661609E-3,-0E0,2.5773505E-3,-2.6332305E-4],"categories":[],"categories_nodes":[],"categories_segments":[],"categories_sizes":[],"default_left":[0,0,0,0,0,0,0],"id":111,"left_children":[1,3,5,-1,-1,-1,-1],"loss_changes":[7.055452E-2,1.323732E-2,1.0653377E-1,0E0,0E0,0E0,0E0],"parents":[2147483647,0,0,1,1,2,2],"right_children":[2,4,6,-1,-1,-1,-1],"split_conditions":[-7.5702965E-1,-9.437216E-1,-7.863751E-1,-3.6661609E-3,-0E0,2.5773505E-3,-2.6332305E-4],"split_indices":[0,2,1,0,0,0,0],"split_type":[0,0,0,0,0,0,0],"sum_hessian":[6.809647E2,2.5E1,6.559647E2,2E1,5E0,5.7E1,5.989647E2],"tree_param":{"num_deleted":"0","num_feature":"4","num_nodes":"7","size_leaf_vector":"1"}},{"base_weights":[1.2255715E-3,7.3686265E-3,-1.6026033E-2,-0E0,4.0205806E-3,-1.4445344E-3,2.7483646E-4],"categories":[],"categories_nodes":[],"categories_segments":[],"categories_sizes":[],"default_left":[0,0,0,0,0,0,0],"id":112,"left_children":[1,3,5,-1,-1,-1,-1],"loss_changes":[7.071143E-2,2.2497644E-1,2.7262535E-2,0E0,0E0,0E0,0E0],"parents":[2147483647,0,0,1,1,2,2],"right_children":[2,4,6,-1,-1,-1,-1],"split_conditions":[-4.9321687E-1,-5.440981E-1,9.6676385E-1,-0E0,4.0205806E-3,-1.4445344E-3,2.7483646E-4],"split_indices":[1,1,1,0,0,0,0],"split_type":[0,0,0,0,0,0,0],"sum_hessian":[6.869647E2,5.309647E2,1.56E2,4.69E2,6.1964703E1,1.41E2,1.5E1],"tree_param":{"num_deleted":"0","num_feature":"4","num_nodes":"7","size_leaf_vector":"1"}},{"base_weights":[2.9791833E-4,-2.5241151E-3,1.7557896E-3,2.1892434E-4,-1.4649287E-3],"categories":[],"categories_nodes":[],"categories_segments":[],"categories_sizes":[],"default_left":[0,0,0,0,0],"id":113,"left_children":[1,3,-1,-1,-1],"loss_changes":[6.188976E-2,7.744249E-2,0E0,0E0,0E0],"parents":[2147483647,0,0,1,1],"right_children":[2,4,-1,-1,-1],"split_conditions":[5.67301E-1,-9.3966097E-1,1.7557896E-3,2.1892434E-4,-1.4649287E-3],"split_indices":[0,2,0,0,0],"split_type":[0,0,0,0,0],"sum_hessian":[6.769647E2,6.009647E2,7.6E1,4.489647E2,1.52E2],"tree_param":{"num_deleted":"0","num_feature":"4","num_nodes":"5","size_leaf_vector":"1"}},{"base_weights":[8.477681E-4,-1.7354726E-3,2.8323432E-2,1.7957526E-3,-3.4862914E-4,3.2164138E-3,-7.487216E-4],"categories":[],"categories_nodes":[],"categories_segments":[],"categories_sizes":[],"default_left":[0,0,0,0,0,0,0],"id":114,"left_children":[1,3,5,-1,-1,-1,-1],"loss_changes":[6.1691977E-2,5.1465545E-2,8.0348E-2,0E0,0E0,0E0,0E0],"parents":[2147483647,0,0,1,1,2,2],"right_children":[2,4,6,-1,-1,-1,-1],"split_conditions":[6.0115755E-1,-8.106774E-1,-2.3976815E-1,1.7957526E-3,-3.4862914E-4,3.2164138E-3,-7.487216E-4],"split_indices":[0,1,1,0,0,0,0],"split_type":[0,0,0,0,0,0,0],"sum_hessian":[6.739647E2,6.079647E2,6.6E1,4.4E1,5.639647E2,5.1E1,1.5E1],"tree_param":{"num_deleted":"0","num_feature":"4","num_nodes":"7","size_leaf_vector":"1"}},{"base_weights":[-1.1711927E-3,-3.2837525E-2,7.044458E-4,-3.2782073E-3,-0E0,3.2104438E-3,-1.7846246E-4],"categories":[],"categories_nodes":[],"categories_segments":[],"categories_sizes":[],"default_left":[0,0,0,0,0,0,0],"id":115,"left_children":[1,3,5,-1,-1,-1,-1],"loss_changes":[5.6734513E-2,4.7639493E-2,1.2514503E-1,0E0,0E0,0E0,0E0],"parents":[2147483647,0,0,1,1,2,2],"right_children":[2,4,6,-1,-1,-1,-1],"split_conditions":[-6.5152776E-1,-9.437216E-1,-7.863751E-1,-3.2782073E-3,-0E0,3.2104438E-3,-1.7846246E-4],"split_indices":[0,2,1,0,0,0,0],"split_type":[0,0,0,0,0,0,0],"sum_hessian":[6.829647E2,4.4E1,6.389647E2,3.5E1,9E0,4.4E1,5.949647E2],"tree_param":{"num_deleted":"0","num_feature":"4","num_nodes":"7","size_leaf_vector":"1"}},{"base_weights":[1.9954972E-3,7.302103E-3,-1.4084381E-2,-0E0,2.9383977E-3,-1.280757E-3,5.330385E-5],"categories":[],"categories_nodes":[],"categories_segments":[],"categories_sizes":[],"default_left":[0,0,0,0,0,0,0],"id":116,"left_children":[1,3,5,-1,-1,-1,-1],"loss_changes":[5.7352208E-2,1.6545473E-1,2.0266443E-2,0E0,0E0,0E0,0E0],"parents":[2147483647,0,0,1,1,2,2],"right_children":[2,4,6,-1,-1,-1,-1],"split_conditions":[-4.9321687E-1,-5.810264E-1,9.6676385E-1,-0E0,2.9383977E-3,-1.280757E-3,5.330385E-5],"split_indices":[1,1,1,0,0,0,0],"split_type":[0,0,0,0,0,0,0],"sum_hessian":[6.899647E2,5.449647E2,1.45E2,4.52E2,9.296471E1,1.31E2,1.4E1],"tree_param":{"num_deleted":"0","num_feature":"4","num_nodes":"7","size_leaf_vector":"1"}},{"base_weights":[-3.359334E-5,-3.947336E-3,3.1283937E-2,-8.4412866E-4,6.886402E-4,3.560832E-3,-1.12500406E-4],"categories":[],"categories_nodes":[],"categories_segments":[],"categories_sizes":[],"default_left":[0,0,0,0,0,0,0],"id":117,"left_children":[1,3,5,-1,-1,-1,-1],"loss_changes":[7.1636684E-2,7.89599E-2,7.05173E-2,0E0,0E0,0E0,0E0],"parents":[2147483647,0,0,1,1,2,2],"right_children":[2,4,6,-1,-1,-1,-1],"split_conditions":[3.6720785E-1,-5.810264E-1,-2.3976815E-1,-8.4412866E-4,6.886402E-4,3.560832E-3,-1.12500406E-4],"split_indices":[2,1,1,0,0,0,0],"split_type":[0,0,0,0,0,0,0],"sum_hessian":[6.729647E2,6.189647E2,5.4E1,4.07E2,2.119647E2,3.8E1,1.6E1],"tree_param":{"num_deleted":"0","num_feature":"4","num_nodes":"7","size_leaf_vector":"1"}},{"base_weights":[-2.2285434E-5,4.1181236E-3,-1.7409883E-2,-3.1174993E-4,3.2856616E-3,-1.4974274E-3,-0E0],"categories":[],"categories_nodes":[],"categories_segments":[],"categories_sizes":[],"default_left":[0,0,0,0,0,0,0],"id":118,"left_children":[1,3,5,-1,-1,-1,-1],"loss_changes":[5.6504115E-2,2.3480529E-1,2.363966E-2,0E0,0E0,0E0,0E0],"parents":[2147483647,0,0,1,1,2,2],"right_children":[2,4,6,-1,-1,-1,-1],"split_conditions":[-4.9321687E-1,-5.810264E-1,9.6676385E-1,-3.1174993E-4,3.2856616E-3,-1.4974274E-3,-0E0],"split_indices":[1,1,1,0,0,0,0],"split_type":[0,0,0,0,0,0,0],"sum_hessian":[6.779647E2,5.309647E2,1.47E2,4.42E2,8.896471E1,1.34E2,1.3E1],"tree_param":{"num_deleted":"0","num_feature":"4","num_nodes":"7","size_leaf_vector":"1"}},{"base_weights":[1.045306E-3,-1.4872681E-3,3.426115E-2,-6.4122304E-4,7.880954E-4,3.3851648E-3,-0E0],"categories":[],"categories_nodes":[],"categories_segments":[],"categories_sizes":[],"default_left":[0,0,0,0,0,0,0],"id":119,"left_children":[1,3,5,-1,-1,-1,-1],"loss_changes":[7.365571E-2,6.693952E-2,5.162371E-2,0E0,0E0,0E0,0E0],"parents":[2147483647,0,0,1,1,2,2],"right_children":[2,4,6,-1,-1,-1,-1],"split_conditions":[3.6720785E-1,-5.810264E-1,-2.3976815E-1,-6.4122304E-4,7.880954E-4,3.3851648E-3,-0E0],"split_indices":[2,1,1,0,0,0,0],"split_type":[0,0,0,0,0,0,0],"sum_hessian":[6.739647E2,6.209647E2,5.3E1,4.1E2,2.109647E2,4E1,1.3E1],"tree_param":{"num_deleted":"0","num_feature":"4","num_nodes":"7","size_leaf_vector":"1"}},{"base_weights":[1.7055965E-3,1.8803837E-2,-6.0899486E-3,-4.7495024E-4,3.7063414E-3,4.158401E-4,-3.1828454E-3],"categories":[],"categories_nodes":[],"categories_segments":[],"categories_sizes":[],"default_left":[0,0,0,0,0,0,0],"id":120,"left_children":[1,3,5,-1,-1,-1,-1],"loss_changes":[9.767629E-2,2.4653754E-1,2.522555E-1,0E0,0E0,0E0,0E0],"parents":[2147483647,0,0,1,1,2,2],"right_children":[2,4,6,-1,-1,-1,-1],"split_conditions":[-6.598183E-1,-9.2928195E-1,-9.237628E-1,-4.7495024E-4,3.7063414E-3,4.158401E-4,-3.1828454E-3],"split_indices":[1,2,2,0,0,0,0],"split_type":[0,0,0,0,0,0,0],"sum_hessian":[6.699647E2,2.25E2,4.449647E2,1.28E2,9.7E1,3.399647E2,1.05E2],"tree_param":{"num_deleted":"0","num_feature":"4","num_nodes":"7","size_leaf_vector":"1"}},{"base_weights":[-0E0,-3.2271983E-3,2.764338E-2,1.5891084E-3,-5.268874E-4,3.2366894E-3,-3.3813406E-4],"categories":[],"categories_nodes":[],"categories_segments":[],"categories_sizes":[],"default_left":[0,0,0,0,0,0,0],"id":121,"left_children":[1,3,5,-1,-1,-1,-1],"loss_changes":[5.7974394E-2,7.283047E-2,6.785882E-2,0E0,0E0,0E0,0E0],"parents":[2147483647,0,0,1,1,2,2],"right_children":[2,4,6,-1,-1,-1,-1],"split_conditions":[3.6720785E-1,-7.863751E-1,-2.3976815E-1,1.5891084E-3,-5.268874E-4,3.2366894E-3,-3.3813406E-4],"split_indices":[2,1,1,0,0,0,0],"split_type":[0,0,0,0,0,0,0],"sum_hessian":[6.849647E2,6.269647E2,5.8E1,7.1E1,5.559647E2,4.2E1,1.6E1],"tree_param":{"num_deleted":"0","num_feature":"4","num_nodes":"7","size_leaf_vector":"1"}},{"base_weights":[-1.0688015E-3,-1.6283803E-2,3.2276898E-3,-0E0,-2.4583042E-3,-1.121864E-3,6.141837E-4],"categories":[],"categories_nodes":[],"categories_segments":[],"categories_sizes":[],"default_left":[0,0,0,0,0,0,0],"id":122,"left_children":[1,3,5,-1,-1,-1,-1],"loss_changes":[5.1600274E-2,5.2140504E-2,5.868695E-2,0E0,0E0,0E0,0E0],"parents":[2147483647,0,0,1,1,2,2],"right_children":[2,4,6,-1,-1,-1,-1],"split_conditions":[-3.5601002E-1,-6.26352E-1,-7.0276266E-1,-0E0,-2.4583042E-3,-1.121864E-3,6.141837E-4],"split_indices":[0,1,1,0,0,0,0],"split_type":[0,0,0,0,0,0,0],"sum_hessian":[6.769647E2,1.68E2,5.089647E2,1.03E2,6.5E1,9.4E1,4.149647E2],"tree_param":{"num_deleted":"0","num_feature":"4","num_nodes":"7","size_leaf_vector":"1"}},{"base_weights":[-0E0,-3.920018E-3,2.1653669E-2,1.00783145E-4,-2.7784777E-3,2.4823826E-3,-0E0],"categories":[],"categories_nodes":[],"categories_segments":[],"categories_sizes":[],"default_left":[0,0,0,0,0,0,0],"id":123,"left_children":[1,3,5,-1,-1,-1,-1],"loss_changes":[6.752534E-2,1.3599318E-1,3.9650716E-2,0E0,0E0,0E0,0E0],"parents":[2147483647,0,0,1,1,2,2],"right_children":[2,4,6,-1,-1,-1,-1],"split_conditions":[-2.2272305E-1,-8.854266E-1,-6.598183E-1,1.00783145E-4,-2.7784777E-3,2.4823826E-3,-0E0],"split_indices":[2,2,1,0,0,0,0],"split_type":[0,0,0,0,0,0,0],"sum_hessian":[6.809647E2,5.649647E2,1.16E2,4.899647E2,7.5E1,6.3E1,5.3E1],"tree_param":{"num_deleted":"0","num_feature":"4","num_nodes":"7","size_leaf_vector":"1"}},{"base_weights":[2.1846252E-3,1.5428046E-2,-3.6200301E-3,-9.77676E-6,3.5868313E-3,3.4975528E-4,-2.3021097E-3],"categories":[],"categories_nodes":[],"categories_segments":[],"categories_sizes":[],"default_left":[0,0,0,0,0,0,0],"id":124,"left_children":[1,3,5,-1,-1,-1,-1],"loss_changes":[5.8463193E-2,1.6381939E-1,1.384441E-1,0E0,0E0,0E0,0E0],"parents":[2147483647,0,0,1,1,2,2],"right_children":[2,4,6,-1,-1,-1,-1],"split_conditions":[-6.598183E-1,-7.0276266E-1,-9.237628E-1,-9.77676E-6,3.5868313E-3,3.4975528E-4,-2.3021097E-3],"split_indices":[1,1,2,0,0,0,0],"split_type":[0,0,0,0,0,0,0],"sum_hessian":[6.709647E2,2.25E2,4.459647E2,1.57E2,6.8E1,3.399647E2,1.06E2],"tree_param":{"num_deleted":"0","num_feature":"4","num_nodes":"7","size_leaf_vector":"1"}},{"base_weights":[-1.1361018E-3,-6.224764E-3,1.4760831E-2,-5.0351046E-5,-3.6893424E-3,2.0218606E-3,-0E0],"categories":[],"categories_nodes":[],"categories_segments":[],"categories_sizes":[],"default_left":[0,0,0,0,0,0,0],"id":125,"left_children":[1,3,5,-1,-1,-1,-1],"loss_changes":[5.290469E-2,1.2079668E-1,4.560859E-2,0E0,0E0,0E0,0E0],"parents":[2147483647,0,0,1,1,2,2],"right_children":[2,4,6,-1,-1,-1,-1],"split_conditions":[-4.6032307E-1,-8.222362E-1,-6.598183E-1,-5.0351046E-5,-3.6893424E-3,2.0218606E-3,-0E0],"split_indices":[2,2,1,0,0,0,0],"split_type":[0,0,0,0,0,0,0],"sum_hessian":[6.849647E2,5.459647E2,1.39E2,5.079647E2,3.8E1,7.7E1,6.2E1],"tree_param":{"num_deleted":"0","num_feature":"4","num_nodes":"7","size_leaf_vector":"1"}},{"base_weights":[-2.3267543E-4,2.3460984E-2,-4.0529817E-3,-3.8902694E-4,2.794009E-3,-3.8815674E-3,-0E0],"categories":[],"categories_nodes":[],"categories_segments":[],"categories_sizes":[],"default_left":[0,0,0,0,0,0,0],"id":126,"left_children":[1,3,5,-1,-1,-1,-1],"loss_changes":[5.3675674E-2,6.123923E-2,1.5707356E-1,0E0,0E0,0E0,0E0],"parents":[2147483647,0,0,1,1,2,2],"right_children":[2,4,6,-1,-1,-1,-1],"split_conditions":[-7.863751E-1,-7.2643393E-1,-7.805703E-1,-3.8902694E-4,2.794009E-3,-3.8815674E-3,-0E0],"split_indices":[1,0,1,0,0,0,0],"split_type":[0,0,0,0,0,0,0],"sum_hessian":[6.769647E2,7E1,6.069647E2,1.9E1,5.1E1,4.1E1,5.659647E2],"tree_param":{"num_deleted":"0","num_feature":"4","num_nodes":"7","size_leaf_vector":"1"}},{"base_weights":[-1.319214E-3,-4.96162E-3,2.1403449E-2,1.5395703E-5,-1.4218999E-3,2.8790962E-3,-0E0],"categories":[],"categories_nodes":[],"categories_segments":[],"categories_sizes":[],"default_left":[0,0,0,0,0,0,0],"id":127,"left_children":[1,3,5,-1,-1,-1,-1],"loss_changes":[4.979862E-2,6.182075E-2,3.7838325E-2,0E0,0E0,0E0,0E0],"parents":[2147483647,0,0,1,1,2,2],"right_children":[2,4,6,-1,-1,-1,-1],"split_conditions":[6.0115755E-1,-9.4155574E-1,-4.9321687E-1,1.5395703E-5,-1.4218999E-3,2.8790962E-3,-0E0],"split_indices":[0,2,1,0,0,0,0],"split_type":[0,0,0,0,0,0,0],"sum_hessian":[6.759647E2,6.069647E2,6.9E1,4.439647E2,1.63E2,3.1E1,3.8E1],"tree_param":{"num_deleted":"0","num_feature":"4","num_nodes":"7","size_leaf_vector":"1"}},{"base_weights":[1.4840964E-3,-1.2222279E-3,1.2315247E-3,1.16211704E-4,-1.9260587E-3],"categories":[],"categories_nodes":[],"categories_segments":[],"categories_sizes":[],"default_left":[0,0,0,0,0],"id":128,"left_children":[1,3,-1,-1,-1],"loss_changes":[3.964855E-2,5.9879214E-2,0E0,0E0,0E0],"parents":[2147483647,0,0,1,1],"right_children":[2,4,-1,-1,-1],"split_conditions":[-2.2272305E-1,-8.222362E-1,1.2315247E-3,1.16211704E-4,-1.9260587E-3],"split_indices":[2,2,0,0,0],"split_type":[0,0,0,0,0],"sum_hessian":[6.769647E2,5.659647E2,1.11E2,5.029647E2,6.3E1],"tree_param":{"num_deleted":"0","num_feature":"4","num_nodes":"5","size_leaf_vector":"1"}},{"base_weights":[-0E0,-2.4453977E-2,1.4847757E-3,-0E0,-2.5021315E-3,2.887304E-3,-9.499552E-5],"categories":[],"categories_nodes":[],"categories_segments":[],"categories_sizes":[],"default_left":[0,0,0,0,0,0,0],"id":129,"left_children":[1,3,5,-1,-1,-1,-1],"loss_changes":[3.6221623E-2,2.6369266E-2,9.781727E-2,0E0,0E0,0E0,0E0],"parents":[2147483647,0,0,1,1,2,2],"right_children":[2,4,6,-1,-1,-1,-1],"split_conditions":[-6.3450485E-1,-8.550054E-1,-7.863751E-1,-0E0,-2.5021315E-3,2.887304E-3,-9.499552E-5],"split_indices":[0,1,1,0,0,0,0],"split_type":[0,0,0,0,0,0,0],"sum_hessian":[6.839647E2,4.9E1,6.349647E2,1.4E1,3.5E1,4.4E1,5.909647E2],"tree_param":{"num_deleted":"0","num_feature":"4","num_nodes":"7","size_leaf_vector":"1"}},{"base_weights":[3.1004872E-4,-2.9859534E-2,2.7103138E-3,-3.1555712E-3,-0E0,2.1822765E-3,-0E0],"categories":[],"categories_nodes":[],"categories_segments":[],"categories_sizes":[],"default_left":[0,0,0,0,0,0,0],"id":130,"left_children":[1,3,5,-1,-1,-1,-1],"loss_changes":[3.7991144E-2,3.771205E-2,6.269394E-2,0E0,0E0,0E0,0E0],"parents":[2147483647,0,0,1,1,2,2],"right_children":[2,4,6,-1,-1,-1,-1],"split_conditions":[-7.389005E-1,-9.2928195E-1,-7.863751E-1,-3.1555712E-3,-0E0,2.1822765E-3,-0E0],"split_indices":[0,2,1,0,0,0,0],"split_type":[0,0,0,0,0,0,0],"sum_hessian":[6.849647E2,2.8E1,6.569647E2,2.3E1,5E0,5.5E1,6.019647E2],"tree_param":{"num_deleted":"0","num_feature":"4","num_nodes":"7","size_leaf_vector":"1"}},{"base_weights":[-1.3040976E-3,1.9897155E-2,-4.8628952E-3,-8.726767E-6,2.6802635E-3,-3.7232E-3,-0E0],