{"learner":{"attributes":{"best_iteration":"334","best_score":"0.06661483279203839"},"feature_names":["sqrt(t/R)","E*sqrt(t)/Kic","v"],"feature_types":[],"gradient_booster":{"model":{"gbtree_model_param":{"num_parallel_tree":"1","num_trees":"385"},"iteration_indptr":[0,1,2,3,4,5,6,7,8,9,10,11,12,13,14,15,16,17,18,19,20,21,22,23,24,25,26,27,28,29,30,31,32,33,34,35,36,37,38,39,40,41,42,43,44,45,46,47,48,49,50,51,52,53,54,55,56,57,58,59,60,61,62,63,64,65,66,67,68,69,70,71,72,73,74,75,76,77,78,79,80,81,82,83,84,85,86,87,88,89,90,91,92,93,94,95,96,97,98,99,100,101,102,103,104,105,106,107,108,109,110,111,112,113,114,115,116,117,118,119,120,121,122,123,124,125,126,127,128,129,130,131,132,133,134,135,136,137,138,139,140,141,142,143,144,145,146,147,148,149,150,151,152,153,154,155,156,157,158,159,160,161,162,163,164,165,166,167,168,169,170,171,172,173,174,175,176,177,178,179,180,181,182,183,184,185,186,187,188,189,190,191,192,193,194,195,196,197,198,199,200,201,202,203,204,205,206,207,208,209,210,211,212,213,214,215,216,217,218,219,220,221,222,223,224,225,226,227,228,229,230,231,232,233,234,235,236,237,238,239,240,241,242,243,244,245,246,247,248,249,250,251,252,253,254,255,256,257,258,259,260,261,262,263,264,265,266,267,268,269,270,271,272,273,274,275,276,277,278,279,280,281,282,283,284,285,286,287,288,289,290,291,292,293,294,295,296,297,298,299,300,301,302,303,304,305,306,307,308,309,310,311,312,313,314,315,316,317,318,319,320,321,322,323,324,325,326,327,328,329,330,331,332,333,334,335,336,337,338,339,340,341,342,343,344,345,346,347,348,349,350,351,352,353,354,355,356,357,358,359,360,361,362,363,364,365,366,367,368,369,370,371,372,373,374,375,376,377,378,379,380,381,382,383,384,385],"tree_info":[0,0,0,0,0,0,0,0,0,0,0,0,0,0,0,0,0,0,0,0,0,0,0,0,0,0,0,0,0,0,0,0,0,0,0,0,0,0,0,0,0,0,0,0,0,0,0,0,0,0,0,0,0,0,0,0,0,0,0,0,0,0,0,0,0,0,0,0,0,0,0,0,0,0,0,0,0,0,0,0,0,0,0,0,0,0,0,0,0,0,0,0,0,0,0,0,0,0,0,0,0,0,0,0,0,0,0,0,0,0,0,0,0,0,0,0,0,0,0,0,0,0,0,0,0,0,0,0,0,0,0,0,0,0,0,0,0,0,0,0,0,0,0,0,0,0,0,0,0,0,0,0,0,0,0,0,0,0,0,0,0,0,0,0,0,0,0,0,0,0,0,0,0,0,0,0,0,0,0,0,0,0,0,0,0,0,0,0,0,0,0,0,0,0,0,0,0,0,0,0,0,0,0,0,0,0,0,0,0,0,0,0,0,0,0,0,0,0,0,0,0,0,0,0,0,0,0,0,0,0,0,0,0,0,0,0,0,0,0,0,0,0,0,0,0,0,0,0,0,0,0,0,0,0,0,0,0,0,0,0,0,0,0,0,0,0,0,0,0,0,0,0,0,0,0,0,0,0,0,0,0,0,0,0,0,0,0,0,0,0,0,0,0,0,0,0,0,0,0,0,0,0,0,0,0,0,0,0,0,0,0,0,0,0,0,0,0,0,0,0,0,0,0,0,0,0,0,0,0,0,0,0,0,0,0,0,0,0,0,0,0,0,0,0,0,0,0,0,0,0,0,0,0,0,0,0,0,0,0,0,0,0,0,0,0,0,0,0,0,0,0,0,0,0,0,0,0,0,0,0,0,0,0,0,0],"trees":[{"base_weights":[2.9199153E-5,-1.73147E-1,4.384731E-1,-2.7041698E-1,-2.3521487E-2,3.0451572E-1,5.18478E-2,-2.1304322E-2,-1.3340379E-2,-9.027786E-2,4.6553764E-2,2.0007935E-1,2.442953E-2,-7.260847E-3,-2.020298E-2,6.0384898E-3,1.0974418E-1,5.901173E-2,1.4025967E-2,1.5466134E-3,-2.0436144E-3,1.1065074E-3,-2.6424825E-3,7.4122297E-3,-0E0,5.137059E-3,-0E0],"categories":[],"categories_nodes":[],"categories_segments":[],"categories_sizes":[],"default_left":[0,0,0,0,0,0,0,0,0,0,0,0,0,0,0,0,0,0,0,0,0,0,0,0,0,0,0],"id":0,"left_children":[1,3,5,7,9,11,-1,-1,-1,13,15,17,-1,-1,19,21,23,25,-1,-1,-1,-1,-1,-1,-1,-1,-1],"loss_changes":[1.0561592E2,1.4418211E1,1.5972565E1,1.4838257E0,1.9338814E0,1.3120708E0,0E0,0E0,0E0,2.6175368E-1,5.021285E-1,1.05858326E-1,0E0,0E0,3.6109164E-2,7.1470946E-2,2.362746E-2,2.452448E-2,0E0,0E0,0E0,0E0,0E0,0E0,0E0,0E0,0E0],"parents":[2147483647,0,0,1,1,2,2,3,3,4,4,5,5,9,9,10,10,11,11,14,14,15,15,16,16,17,17],"right_children":[2,4,6,8,10,12,-1,-1,-1,14,16,18,-1,-1,20,22,24,26,-1,-1,-1,-1,-1,-1,-1,-1,-1],"split_conditions":[-1.9155213E-1,-5.386782E-1,2.7621904E-1,-6.980927E-1,-3.6811393E-1,-3.275361E-2,5.18478E-2,-2.1304322E-2,-1.3340379E-2,-2.3680179E-1,-2.3146592E-1,-6.5226054E-1,2.442953E-2,-7.260847E-3,-1.5911777E-1,-3.01321E-1,6.450409E-1,-6.958304E-1,1.4025967E-2,1.5466134E-3,-2.0436144E-3,1.1065074E-3,-2.6424825E-3,7.4122297E-3,-0E0,5.137059E-3,-0E0],"split_indices":[0,0,0,0,0,0,0,0,0,1,1,1,0,0,1,1,1,1,0,0,0,0,0,0,0,0,0],"split_type":[0,0,0,0,0,0,0,0,0,0,0,0,0,0,0,0,0,0,0,0,0,0,0,0,0,0,0],"sum_hessian":[1.3711387E3,9.87E2,3.841387E2,5.93E2,3.94E2,2.91E2,9.3138695E1,3.11E2,2.82E2,2.01E2,1.93E2,1.29E2,1.62E2,1.51E2,5E1,1.25E2,6.8E1,1.6E1,1.13E2,6E0,4.4E1,1.08E2,1.7E1,6.6E1,2E0,9E0,7E0],"tree_param":{"num_deleted":"0","num_feature":"3","num_nodes":"27","size_leaf_vector":"1"}},{"base_weights":[7.883421E-5,-1.5858041E-1,4.1942376E-1,-2.494452E-1,-1.43686505E-2,2.9807335E-1,5.093449E-2,-1.998452E-2,-1.8755469E-1,-7.006505E-2,5.485858E-2,1.9620667E-1,3.701445E-1,-3.8955177E-3,-1.2623104E-2,-8.1180036E-2,-1.1487649E-3,6.774172E-2,-3.0801164E-3,1.3444164E-2,4.734687E-2,3.085486E-1,3.602747E-2,-0E0,-5.8184946E-3,9.114791E-5,5.1370114E-3,7.299214E-5,4.499657E-3,2.2769788E-2,2.3928743E-3],"categories":[],"categories_nodes":[],"categories_segments":[],"categories_sizes":[],"default_left":[0,0,0,0,0,0,0,0,0,0,0,0,0,0,0,0,0,0,0,0,0,0,0,0,0,0,0,0,0,0,0],"id":1,"left_children":[1,3,5,7,9,11,-1,-1,13,15,17,19,21,-1,-1,23,-1,25,-1,-1,27,29,-1,-1,-1,-1,-1,-1,-1,-1,-1],"loss_changes":[9.328164E1,1.3264538E1,1.4192017E1,1.483429E0,1.5957723E0,1.4616356E0,0E0,0E0,3.571129E-2,1.1098635E-1,2.7482158E-1,5.7061672E-2,8.002472E-2,0E0,0E0,1.003319E-1,0E0,1.06841445E-1,0E0,0E0,1.3108328E-2,1.321621E0,0E0,0E0,0E0,0E0,0E0,0E0,0E0,0E0,0E0],"parents":[2147483647,0,0,1,1,2,2,3,3,4,4,5,5,8,8,9,9,10,10,11,11,12,12,15,15,17,17,20,20,21,21],"right_children":[2,4,6,8,10,12,-1,-1,14,16,18,20,22,-1,-1,24,-1,26,-1,-1,28,30,-1,-1,-1,-1,-1,-1,-1,-1,-1],"split_conditions":[-1.874591E-1,-5.2764255E-1,3.092234E-1,-7.0042866E-1,-3.3718404E-1,-1.8767435E-2,5.093449E-2,-1.998452E-2,-2.3664123E-1,-3.8809186E-1,2.977099E-1,2.977099E-1,5.2671754E-1,-3.8955177E-3,-1.2623104E-2,-2.3664123E-1,-1.1487649E-3,-3.8931298E-1,-3.0801164E-3,1.3444164E-2,3.740458E-1,2.977099E-1,3.602747E-2,-0E0,-5.8184946E-3,9.114791E-5,5.1370114E-3,7.299214E-5,4.499657E-3,2.2769788E-2,2.3928743E-3],"split_indices":[0,0,0,0,0,0,0,0,2,0,2,2,2,0,0,2,0,2,0,0,2,2,0,0,0,0,0,0,0,0,0],"split_type":[0,0,0,0,0,0,0,0,0,0,0,0,0,0,0,0,0,0,0,0,0,0,0,0,0,0,0,0,0,0,0],"sum_hessian":[1.3821387E3,1.007E3,3.751387E2,6.13E2,3.94E2,2.93E2,8.2138695E1,3.06E2,3.07E2,2.19E2,1.75E2,1.37E2,1.56E2,1.5E1,2.92E2,1.75E2,4.4E1,1.59E2,1.6E1,1.26E2,1.1E1,1.36E2,2E1,1.6E1,1.59E2,2.4E1,1.35E2,8E0,3E0,1.17E2,1.9E1],"tree_param":{"num_deleted":"0","num_feature":"3","num_nodes":"31","size_leaf_vector":"1"}},{"base_weights":[6.179857E-4,-1.5019141E-1,3.9170906E-1,-2.4263489E-1,-2.597667E-2,2.6690337E-1,4.630288E-2,-1.8765658E-2,-1.2250137E-2,-8.261321E-2,4.390171E-2,1.5413341E-1,2.046014E-2,-1.0055248E-1,-4.9015153E-2,5.5312186E-2,-3.2101683E-3,1.0754009E-2,2.3105558E-2,-1.6709513E-3,-6.961521E-3,7.361356E-5,-3.6717446E-3,1.07386266E-4,5.1286076E-3,2.2944165E-3,-1.286044E-4],"categories":[],"categories_nodes":[],"categories_segments":[],"categories_sizes":[],"default_left":[0,0,0,0,0,0,0,0,0,0,0,0,0,0,0,0,0,0,0,0,0,0,0,0,0,0,0],"id":2,"left_children":[1,3,5,7,9,11,-1,-1,-1,13,15,17,-1,19,21,23,-1,-1,25,-1,-1,-1,-1,-1,-1,-1,-1],"loss_changes":[8.304596E1,1.1577936E1,1.3315659E1,8.3148575E-1,1.7992251E0,9.520626E-1,0E0,0E0,0E0,8.877933E-2,2.4344933E-1,7.0028305E-2,0E0,2.0942688E-2,4.205492E-2,2.191391E-1,0E0,0E0,9.179909E-3,0E0,0E0,0E0,0E0,0E0,0E0,0E0,0E0],"parents":[2147483647,0,0,1,1,2,2,3,3,4,4,5,5,9,9,10,10,11,11,13,13,14,14,15,15,18,18],"right_children":[2,4,6,8,10,12,-1,-1,-1,14,16,18,-1,20,22,24,-1,-1,26,-1,-1,-1,-1,-1,-1,-1,-1],"split_conditions":[-1.9155213E-1,-5.5583435E-1,2.7621904E-1,-7.0226306E-1,-3.6811393E-1,-8.7794855E-2,4.630288E-2,-1.8765658E-2,-1.2250137E-2,-4.5946595E-1,2.977099E-1,2.977099E-1,2.046014E-2,-2.3664123E-1,-4.5081776E-1,-3.1098282E-1,-3.2101683E-3,1.0754009E-2,-1.3980843E-1,-1.6709513E-3,-6.961521E-3,7.361356E-5,-3.6717446E-3,1.07386266E-4,5.1286076E-3,2.2944165E-3,-1.286044E-4],"split_indices":[0,0,0,0,0,0,0,0,0,0,2,2,0,2,0,0,0,0,0,0,0,0,0,0,0,0,0],"split_type":[0,0,0,0,0,0,0,0,0,0,0,0,0,0,0,0,0,0,0,0,0,0,0,0,0,0,0],"sum_hessian":[1.3881387E3,1.006E3,3.821387E2,5.71E2,4.35E2,2.86E2,9.6138695E1,3.03E2,2.68E2,2.4E2,1.95E2,9.3E1,1.93E2,1.42E2,9.8E1,1.78E2,1.7E1,8.4E1,9E0,1.4E1,1.28E2,1.1E1,8.7E1,5.7E1,1.21E2,6E0,3E0],"tree_param":{"num_deleted":"0","num_feature":"3","num_nodes":"27","size_leaf_vector":"1"}},{"base_weights":[-9.761588E-5,-3.4974154E-2,5.807399E-1,-1.8221964E-1,1.02559686E-1,4.980496E-2,-6.450296E-3,1.42362015E-2,-1.8860316E-1,2.3882304E-1,2.2967223E-2,2.284301E-3,-1.0003395E-3,-1.9204259E-1,4.8312643E-3,7.659502E-2,1.9943662E-2,-1.7331792E-2,1.0286261E-2,-1.3143159E-2,-7.7434015E-3,1.1124723E-2,5.805213E-4,7.3028645E-3,-2.0293253E-3],"categories":[],"categories_nodes":[],"categories_segments":[],"categories_sizes":[],"default_left":[0,0,0,0,0,0,0,0,0,0,0,0,0,0,0,0,0,0,0,0,0,0,0,0,0],"id":3,"left_children":[1,3,5,7,9,-1,-1,11,13,15,17,-1,-1,19,-1,21,-1,23,-1,-1,-1,-1,-1,-1,-1],"loss_changes":[2.8224089E1,2.685614E1,1.0193874E1,8.444195E-1,7.3710065E0,0E0,0E0,2.4246877E-2,7.078514E-1,2.3561E0,2.4276297E0,0E0,0E0,8.89492E-2,0E0,4.999884E-1,0E0,6.312287E-1,0E0,0E0,0E0,0E0,0E0,0E0,0E0],"parents":[2147483647,0,0,1,1,2,2,3,3,4,4,7,7,8,8,9,9,10,10,13,13,15,15,17,17],"right_children":[2,4,6,8,10,-1,-1,12,14,16,18,-1,-1,20,-1,22,-1,24,-1,-1,-1,-1,-1,-1,-1],"split_conditions":[5.2671754E-1,-5.342666E-1,8.3206105E-1,-2.3664123E-1,6.870229E-2,4.980496E-2,-6.450296E-3,-6.1339694E-1,3.740458E-1,-2.6148537E-1,1.0658837E-1,2.284301E-3,-1.0003395E-3,2.977099E-1,4.8312643E-3,-5.22366E-1,1.9943662E-2,-5.0284654E-1,1.0286261E-2,-1.3143159E-2,-7.7434015E-3,1.1124723E-2,5.805213E-4,7.3028645E-3,-2.0293253E-3],"split_indices":[2,1,2,2,2,0,0,1,2,1,1,0,0,2,0,1,0,1,0,0,0,0,0,0,0],"split_type":[0,0,0,0,0,0,0,0,0,0,0,0,0,0,0,0,0,0,0,0,0,0,0,0,0],"sum_hessian":[1.3761387E3,1.307E3,6.9138695E1,6.3E2,6.77E2,5.4138695E1,1.5E1,1.9E1,6.11E2,2.42E2,4.35E2,1.2E1,7E0,6.06E2,5E0,7.5E1,1.67E2,3.4E2,9.5E1,5.34E2,7.2E1,2.5E1,5E1,2.5E1,3.15E2],"tree_param":{"num_deleted":"0","num_feature":"3","num_nodes":"25","size_leaf_vector":"1"}},{"base_weights":[2.8472617E-3,-3.128776E-2,5.62696E-1,-1.7135778E-1,9.8663926E-2,4.7167614E-2,-5.9846593E-3,-1.7455053E-1,4.7235973E-3,2.299906E-1,2.1133356E-2,4.0175156E-3,-1.8002625E-1,7.673096E-2,1.9010255E-2,-1.42857E-2,9.331486E-3,1.833948E-3,-1.2900878E-3,-1.2275068E-2,-7.525976E-3,1.1810694E-2,-3.031019E-4,6.9247624E-3,-1.7997083E-3],"categories":[],"categories_nodes":[],"categories_segments":[],"categories_sizes":[],"default_left":[0,0,0,0,0,0,0,0,0,0,0,0,0,0,0,0,0,0,0,0,0,0,0,0,0],"id":4,"left_children":[1,3,5,7,9,-1,-1,11,-1,13,15,17,19,21,-1,23,-1,-1,-1,-1,-1,-1,-1,-1,-1],"loss_changes":[2.6571978E1,2.3994541E1,8.7199745E0,6.236286E-1,6.901903E0,0E0,0E0,6.378803E-1,0E0,2.0257053E0,1.9183102E0,2.1715026E-2,2.1587372E-2,7.233724E-1,0E0,5.6621253E-1,0E0,0E0,0E0,0E0,0E0,0E0,0E0,0E0,0E0],"parents":[2147483647,0,0,1,1,2,2,3,3,4,4,7,7,9,9,10,10,11,11,12,12,13,13,15,15],"right_children":[2,4,6,8,10,-1,-1,12,-1,14,16,18,20,22,-1,24,-1,-1,-1,-1,-1,-1,-1,-1,-1],"split_conditions":[5.2671754E-1,-5.342666E-1,8.3206105E-1,3.740458E-1,6.870229E-2,4.7167614E-2,-5.9846593E-3,-2.3664123E-1,4.7235973E-3,-2.8724393E-1,1.0658837E-1,-6.1339694E-1,2.977099E-1,-5.22366E-1,1.9010255E-2,-5.0284654E-1,9.331486E-3,1.833948E-3,-1.2900878E-3,-1.2275068E-2,-7.525976E-3,1.1810694E-2,-3.031019E-4,6.9247624E-3,-1.7997083E-3],"split_indices":[2,1,2,2,2,0,0,2,0,1,1,1,2,1,0,1,0,0,0,0,0,0,0,0,0],"split_type":[0,0,0,0,0,0,0,0,0,0,0,0,0,0,0,0,0,0,0,0,0,0,0,0,0],"sum_hessian":[1.3691387E3,1.299E3,7.0138695E1,6.24E2,6.75E2,5.6138695E1,1.4E1,6.19E2,5E0,2.43E2,4.32E2,1.8E1,6.01E2,7.4E1,1.69E2,3.4E2,9.2E1,1E1,8E0,5.3E2,7.1E1,2.8E1,4.6E1,2.6E1,3.14E2],"tree_param":{"num_deleted":"0","num_feature":"3","num_nodes":"25","size_leaf_vector":"1"}},{"base_weights":[2.0617854E-3,-1.2864122E-1,3.4126624E-1,-2.0426522E-1,-1.5761843E-2,2.4347861E-1,4.1785385E-2,-1.5443131E-2,-9.260295E-3,-6.599838E-2,3.7695315E-2,1.1091663E-2,2.0354364E-2,-5.2914573E-3,-1.733543E-2,1.1941488E-2,7.690782E-2,-0E0,-3.019312E-3,1.5357786E-3,-2.6583138E-3,5.2906913E-3,-0E0],"categories":[],"categories_nodes":[],"categories_segments":[],"categories_sizes":[],"default_left":[0,0,0,0,0,0,0,0,0,0,0,0,0,0,0,0,0,0,0,0,0,0,0],"id":5,"left_children":[1,3,5,7,9,11,-1,-1,-1,13,15,-1,-1,-1,17,19,21,-1,-1,-1,-1,-1,-1],"loss_changes":[6.198144E1,8.559803E0,9.567135E0,8.048725E-1,1.1434433E0,9.637146E-1,0E0,0E0,0E0,1.3046485E-1,1.9175938E-1,0E0,0E0,0E0,3.5031468E-2,8.970386E-2,2.333033E-2,0E0,0E0,0E0,0E0,0E0,0E0],"parents":[2147483647,0,0,1,1,2,2,3,3,4,4,5,5,9,9,10,10,14,14,15,15,16,16],"right_children":[2,4,6,8,10,12,-1,-1,-1,14,16,-1,-1,-1,18,20,22,-1,-1,-1,-1,-1,-1],"split_conditions":[-1.874591E-1,-5.4185194E-1,3.092234E-1,-6.576668E-1,-3.6811393E-1,1.0753988E-2,4.1785385E-2,-1.5443131E-2,-9.260295E-3,-2.3680179E-1,-2.3146592E-1,1.1091663E-2,2.0354364E-2,-5.2914573E-3,-1.226147E-1,-3.01321E-1,6.124252E-1,-0E0,-3.019312E-3,1.5357786E-3,-2.6583138E-3,5.2906913E-3,-0E0],"split_indices":[0,0,0,0,0,0,0,0,0,1,1,0,0,0,1,1,1,0,0,0,0,0,0],"split_type":[0,0,0,0,0,0,0,0,0,0,0,0,0,0,0,0,0,0,0,0,0,0,0],"sum_hessian":[1.3781387E3,9.99E2,3.791387E2,5.93E2,4.06E2,2.98E2,8.1138695E1,3.83E2,2.1E2,2.09E2,1.97E2,1.56E2,1.42E2,1.55E2,5.4E1,1.28E2,6.9E1,3.8E1,1.6E1,1.11E2,1.7E1,6.6E1,3E0],"tree_param":{"num_deleted":"0","num_feature":"3","num_nodes":"23","size_leaf_vector":"1"}},{"base_weights":[2.382988E-3,-1.2035118E-1,3.1499693E-1,-1.9113237E-1,-1.4434089E-2,2.2129312E-1,3.913041E-2,-1.5105351E-2,-9.586097E-3,-5.5842776E-2,4.3986022E-2,2.8271405E-2,1.8976426E-1,-6.968954E-2,-9.651969E-3,1.871503E-2,7.678919E-2,4.1781448E-2,2.1095671E-1,-4.991078E-3,-1.6392779E-3,-2.4968968E-3,4.8241238E-4,1.9186484E-3,-2.0711974E-3,5.305641E-3,-0E0,-2.7478915E-3,4.2901225E-3,1.0105226E-2,1.7797824E-2],"categories":[],"categories_nodes":[],"categories_segments":[],"categories_sizes":[],"default_left":[0,0,0,0,0,0,0,0,0,0,0,0,0,0,0,0,0,0,0,0,0,0,0,0,0,0,0,0,0,0,0],"id":6,"left_children":[1,3,5,7,9,11,-1,-1,-1,13,15,-1,17,19,21,23,25,27,29,-1,-1,-1,-1,-1,-1,-1,-1,-1,-1,-1,-1],"loss_changes":[5.360174E1,7.472069E0,8.950359E0,6.8522453E-1,1.0236195E0,1.1863766E0,0E0,0E0,0E0,1.4404577E-1,1.2298131E-1,0E0,7.933731E-1,2.3554921E-2,3.8988557E-2,6.825739E-2,2.3357362E-2,1.23924725E-1,4.0477848E-1,0E0,0E0,0E0,0E0,0E0,0E0,0E0,0E0,0E0,0E0,0E0,0E0],"parents":[2147483647,0,0,1,1,2,2,3,3,4,4,5,5,9,9,10,10,12,12,13,13,14,14,15,15,16,16,17,17,18,18],"right_children":[2,4,6,8,10,12,-1,-1,-1,14,16,-1,18,20,22,24,26,28,30,-1,-1,-1,-1,-1,-1,-1,-1,-1,-1,-1,-1],"split_conditions":[-1.9155213E-1,-5.4185194E-1,3.092234E-1,-7.0226306E-1,-3.3718404E-1,-8.993087E-1,3.913041E-2,-1.5105351E-2,-9.586097E-3,-2.3680179E-1,-2.3146592E-1,2.8271405E-2,-6.5226054E-1,-3.8000447E-1,-4.67904E-1,-3.01321E-1,6.124252E-1,-8.446503E-1,1.0753988E-2,-4.991078E-3,-1.6392779E-3,-2.4968968E-3,4.8241238E-4,1.9186484E-3,-2.0711974E-3,5.305641E-3,-0E0,-2.7478915E-3,4.2901225E-3,1.0105226E-2,1.7797824E-2],"split_indices":[0,0,0,0,0,1,0,0,0,1,1,0,1,0,0,1,1,1,0,0,0,0,0,0,0,0,0,0,0,0,0],"split_type":[0,0,0,0,0,0,0,0,0,0,0,0,0,0,0,0,0,0,0,0,0,0,0,0,0,0,0,0,0,0,0],"sum_hessian":[1.3771387E3,9.93E2,3.841387E2,5.9E2,4.03E2,3.01E2,8.3138695E1,2.98E2,2.92E2,2.37E2,1.66E2,2.3E1,2.78E2,1.77E2,6E1,1.04E2,6.2E1,3.9E1,2.39E2,1.48E2,2.9E1,2E1,4E1,9.1E1,1.3E1,5.9E1,3E0,6E0,3.3E1,1.4E2,9.9E1],"tree_param":{"num_deleted":"0","num_feature":"3","num_nodes":"31","size_leaf_vector":"1"}},{"base_weights":[3.066095E-3,-1.120928E-1,3.0406657E-1,-1.8309313E-1,-1.8622618E-2,2.072467E-1,3.6258552E-2,-1.4743225E-2,-9.650221E-3,-5.8726564E-2,4.107409E-2,9.368733E-3,1.6904827E-2,-7.197265E-2,-1.0564016E-2,1.9972725E-2,6.8290524E-2,-5.0414638E-3,-1.889742E-3,-2.0059762E-3,7.0113275E-4,1.9563627E-3,-1.9933472E-3,4.6825567E-3,-0E0],"categories":[],"categories_nodes":[],"categories_segments":[],"categories_sizes":[],"default_left":[0,0,0,0,0,0,0,0,0,0,0,0,0,0,0,0,0,0,0,0,0,0,0,0,0],"id":7,"left_children":[1,3,5,7,9,11,-1,-1,-1,13,15,-1,-1,17,19,21,23,-1,-1,-1,-1,-1,-1,-1,-1],"loss_changes":[4.8459526E1,6.6562405E0,8.054573E0,4.9971962E-1,1.0971773E0,5.5131245E-1,0E0,0E0,0E0,1.5908396E-1,8.476043E-2,0E0,0E0,1.0876656E-2,3.5274226E-2,6.7360304E-2,1.9362748E-2,0E0,0E0,0E0,0E0,0E0,0E0,0E0,0E0],"parents":[2147483647,0,0,1,1,2,2,3,3,4,4,5,5,9,9,10,10,13,13,14,14,15,15,16,16],"right_children":[2,4,6,8,10,12,-1,-1,-1,14,16,-1,-1,18,20,22,24,-1,-1,-1,-1,-1,-1,-1,-1],"split_conditions":[-1.874591E-1,-5.5583435E-1,2.7621904E-1,-7.3299384E-1,-3.3718404E-1,-1.8767435E-2,3.6258552E-2,-1.4743225E-2,-9.650221E-3,-2.3680179E-1,-2.3146592E-1,9.368733E-3,1.6904827E-2,-3.8000447E-1,-4.410509E-1,-3.01321E-1,6.450409E-1,-5.0414638E-3,-1.889742E-3,-2.0059762E-3,7.0113275E-4,1.9563627E-3,-1.9933472E-3,4.6825567E-3,-0E0],"split_indices":[0,0,0,0,0,0,0,0,0,1,1,0,0,0,0,1,1,0,0,0,0,0,0,0,0],"split_type":[0,0,0,0,0,0,0,0,0,0,0,0,0,0,0,0,0,0,0,0,0,0,0,0,0],"sum_hessian":[1.3781387E3,1.001E3,3.771387E2,5.63E2,4.38E2,2.84E2,9.3138695E1,2.41E2,3.22E2,2.63E2,1.75E2,1.4E2,1.44E2,2.01E2,6.2E1,1.1E2,6.5E1,1.73E2,2.8E1,3.2E1,3E1,9.7E1,1.3E1,6.3E1,2E0],"tree_param":{"num_deleted":"0","num_feature":"3","num_nodes":"25","size_leaf_vector":"1"}},{"base_weights":[3.6640356E-3,-2.4532445E-2,4.5589244E-1,-1.3474637E-1,7.724447E-2,3.9549485E-2,-5.512146E-3,2.1902038E-2,-1.3982071E-1,1.7612429E-1,1.949975E-2,3.0567346E-3,-8.10361E-4,-9.373341E-3,3.3966005E-3,5.7071835E-2,1.4618988E-2,-7.411536E-3,7.227098E-3,8.910312E-3,-1.2108347E-4,6.729932E-3,-1.2843114E-3],"categories":[],"categories_nodes":[],"categories_segments":[],"categories_sizes":[],"default_left":[0,0,0,0,0,0,0,0,0,0,0,0,0,0,0,0,0,0,0,0,0,0,0],"id":8,"left_children":[1,3,5,7,9,-1,-1,11,13,15,17,-1,-1,-1,-1,19,-1,21,-1,-1,-1,-1,-1],"loss_changes":[1.7795116E1,1.48214E1,6.937874E0,5.444269E-1,3.8756833E0,0E0,0E0,3.1985726E-2,3.7954044E-1,1.2268472E0,1.1001055E0,0E0,0E0,0E0,0E0,4.0077993E-1,0E0,4.78367E-1,0E0,0E0,0E0,0E0,0E0],"parents":[2147483647,0,0,1,1,2,2,3,3,4,4,7,7,8,8,9,9,10,10,15,15,17,17],"right_children":[2,4,6,8,10,-1,-1,12,14,16,18,-1,-1,-1,-1,20,-1,22,-1,-1,-1,-1,-1],"split_conditions":[5.2671754E-1,-5.342666E-1,8.3206105E-1,-2.3664123E-1,6.870229E-2,3.9549485E-2,-5.512146E-3,-6.1339694E-1,3.740458E-1,-2.6148537E-1,1.0658837E-1,3.0567346E-3,-8.10361E-4,-9.373341E-3,3.3966005E-3,-5.22366E-1,1.4618988E-2,-5.0284654E-1,7.227098E-3,8.910312E-3,-1.2108347E-4,6.729932E-3,-1.2843114E-3],"split_indices":[2,1,2,2,2,0,0,1,2,1,1,0,0,0,0,1,0,1,0,0,0,0,0],"split_type":[0,0,0,0,0,0,0,0,0,0,0,0,0,0,0,0,0,0,0,0,0,0,0],"sum_hessian":[1.3741387E3,1.302E3,7.2138695E1,6.24E2,6.78E2,5.6138695E1,1.6E1,1.8E1,6.06E2,2.42E2,4.36E2,1E1,8E0,6.01E2,5E0,7.4E1,1.68E2,3.42E2,9.4E1,2.7E1,4.7E1,2.6E1,3.16E2],"tree_param":{"num_deleted":"0","num_feature":"3","num_nodes":"23","size_leaf_vector":"1"}},{"base_weights":[2.8034344E-3,-2.3594419E-2,4.3189093E-1,-1.2543125E-1,7.0883304E-2,3.6984507E-2,-5.2833473E-3,1.5386953E-2,-1.3039683E-1,1.6418697E-1,1.5300782E-2,2.302224E-3,-7.8634295E-4,-1.328331E-1,3.3209054E-3,5.2394908E-2,1.3660294E-2,-1.122228E-2,6.8227034E-3,-1.01433415E-2,-7.664879E-3,8.994814E-3,-7.278738E-4,6.40813E-3,-1.4562913E-3],"categories":[],"categories_nodes":[],"categories_segments":[],"categories_sizes":[],"default_left":[0,0,0,0,0,0,0,0,0,0,0,0,0,0,0,0,0,0,0,0,0,0,0,0,0],"id":9,"left_children":[1,3,5,7,9,-1,-1,11,13,15,17,-1,-1,19,-1,21,-1,23,-1,-1,-1,-1,-1,-1,-1],"loss_changes":[1.5812255E1,1.2722439E1,5.8639927E0,4.7462463E-1,3.520766E0,0E0,0E0,2.210553E-2,3.4424973E-1,1.1029634E0,1.054651E0,0E0,0E0,1.2984276E-2,0E0,4.791667E-1,0E0,4.2551717E-1,0E0,0E0,0E0,0E0,0E0,0E0,0E0],"parents":[2147483647,0,0,1,1,2,2,3,3,4,4,7,7,8,8,9,9,10,10,13,13,15,15,17,17],"right_children":[2,4,6,8,10,-1,-1,12,14,16,18,-1,-1,20,-1,22,-1,24,-1,-1,-1,-1,-1,-1,-1],"split_conditions":[5.2671754E-1,-5.342666E-1,8.3206105E-1,-2.3664123E-1,6.870229E-2,3.6984507E-2,-5.2833473E-3,-6.1339694E-1,3.740458E-1,-2.6148537E-1,1.0658837E-1,2.302224E-3,-7.8634295E-4,-8.370421E-1,3.3209054E-3,-5.22366E-1,1.3660294E-2,-5.0284654E-1,6.8227034E-3,-1.01433415E-2,-7.664879E-3,8.994814E-3,-7.278738E-4,6.40813E-3,-1.4562913E-3],"split_indices":[2,1,2,2,2,0,0,1,2,1,1,0,0,1,0,1,0,1,0,0,0,0,0,0,0],"split_type":[0,0,0,0,0,0,0,0,0,0,0,0,0,0,0,0,0,0,0,0,0,0,0,0,0],"sum_hessian":[1.3741387E3,1.303E3,7.1138695E1,6.26E2,6.77E2,5.6138695E1,1.5E1,2E1,6.06E2,2.45E2,4.32E2,1.2E1,8E0,6.01E2,5E0,7.5E1,1.7E2,3.38E2,9.4E1,2.24E2,3.77E2,2.8E1,4.7E1,2.3E1,3.15E2],"tree_param":{"num_deleted":"0","num_feature":"3","num_nodes":"25","size_leaf_vector":"1"}},{"base_weights":[3.495244E-3,-9.658232E-2,2.655047E-1,-1.4565748E-1,4.5531946E-3,1.8824278E-1,3.3279438E-2,-1.7452945E-1,-5.990646E-3,-3.1125847E-2,3.679612E-2,8.028798E-3,1.6216917E-2,-1.3367854E-2,-9.592149E-3,-4.0294528E-2,-2.4821036E-3,-1.4936154E-2,4.113638E-2,-1.260543E-4,-2.967062E-3,7.198572E-4,-1.6874583E-3,2.1422622E-4,-2.0919188E-3,1.4701147E-3,4.3032467E-3],"categories":[],"categories_nodes":[],"categories_segments":[],"categories_sizes":[],"default_left":[0,0,0,0,0,0,0,0,0,0,0,0,0,0,0,0,0,0,0,0,0,0,0,0,0,0,0],"id":10,"left_children":[1,3,5,7,9,11,-1,13,-1,15,17,-1,-1,-1,-1,19,21,23,25,-1,-1,-1,-1,-1,-1,-1,-1],"loss_changes":[3.66063E1,5.0310564E0,6.1612816E0,8.952608E-1,4.0143052E-1,8.5775375E-1,0E0,3.5840034E-2,0E0,3.840618E-2,4.9649492E-2,0E0,0E0,0E0,0E0,1.7173916E-2,2.0461611E-2,9.658581E-3,5.692929E-2,0E0,0E0,0E0,0E0,0E0,0E0,0E0,0E0],"parents":[2147483647,0,0,1,1,2,2,3,3,4,4,5,5,7,7,9,9,10,10,15,15,16,16,17,17,18,18],"right_children":[2,4,6,8,10,12,-1,14,-1,16,18,-1,-1,-1,-1,20,22,24,26,-1,-1,-1,-1,-1,-1,-1,-1],"split_conditions":[-1.874591E-1,-4.778104E-1,3.291774E-1,-6.2906635E-1,-3.3718404E-1,1.0753988E-2,3.3279438E-2,-7.604942E-1,-5.990646E-3,-2.3680179E-1,-8.446503E-1,8.028798E-3,1.6216917E-2,-1.3367854E-2,-9.592149E-3,-9.0839493E-1,-1.226147E-1,-2.3503973E-1,-2.4729152E-1,-1.260543E-4,-2.967062E-3,7.198572E-4,-1.6874583E-3,2.1422622E-4,-2.0919188E-3,1.4701147E-3,4.3032467E-3],"split_indices":[0,0,0,0,0,0,0,0,0,1,1,0,0,0,0,1,1,0,0,0,0,0,0,0,0,0,0],"split_type":[0,0,0,0,0,0,0,0,0,0,0,0,0,0,0,0,0,0,0,0,0,0,0,0,0,0,0],"sum_hessian":[1.3761387E3,1E3,3.761387E2,6.71E2,3.29E2,2.98E2,7.8138695E1,4.24E2,2.47E2,1.55E2,1.74E2,1.54E2,1.44E2,1.82E2,2.42E2,1.12E2,4.3E1,1E1,1.64E2,1.6E1,9.6E1,2.8E1,1.5E1,6E0,4E0,1.05E2,5.9E1],"tree_param":{"num_deleted":"0","num_feature":"3","num_nodes":"27","size_leaf_vector":"1"}},{"base_weights":[7.683141E-4,-2.1576192E-2,3.8034347E-1,-1.1055494E-1,5.964604E-2,3.300245E-2,-4.809767E-3,1.633416E-2,-1.1509789E-1,2.7988184E-2,1.9237943E-1,2.2834663E-3,-6.5888796E-4,-7.7193687E-3,2.8459423E-3,8.724026E-2,4.3977597E-3,1.3798538E-2,5.4587913E-3,3.0342673E-3,7.899749E-3,-6.556525E-4,4.4972263E-3],"categories":[],"categories_nodes":[],"categories_segments":[],"categories_sizes":[],"default_left":[0,0,0,0,0,0,0,0,0,0,0,0,0,0,0,0,0,0,0,0,0,0,0],"id":11,"left_children":[1,3,5,7,9,-1,-1,11,13,15,17,-1,-1,-1,-1,19,21,-1,-1,-1,-1,-1,-1],"loss_changes":[1.1884275E1,9.607134E0,4.6673517E0,3.9269114E-1,2.8510165E0,0E0,0E0,2.0023812E-2,2.6455212E-1,7.899261E-1,5.1611423E-2,0E0,0E0,0E0,0E0,1.488502E-1,3.9889464E-1,0E0,0E0,0E0,0E0,0E0,0E0],"parents":[2147483647,0,0,1,1,2,2,3,3,4,4,7,7,8,8,9,9,10,10,15,15,16,16],"right_children":[2,4,6,8,10,-1,-1,12,14,16,18,-1,-1,-1,-1,20,22,-1,-1,-1,-1,-1,-1],"split_conditions":[5.2671754E-1,-5.342666E-1,8.3206105E-1,-2.3664123E-1,2.2414276E-1,3.300245E-2,-4.809767E-3,-6.1339694E-1,3.740458E-1,6.870229E-2,-2.3664123E-1,2.2834663E-3,-6.5888796E-4,-7.7193687E-3,2.8459423E-3,-2.6148537E-1,1.0658837E-1,1.3798538E-2,5.4587913E-3,3.0342673E-3,7.899749E-3,-6.556525E-4,4.4972263E-3],"split_indices":[2,1,2,2,1,0,0,1,2,2,2,0,0,0,0,1,1,0,0,0,0,0,0],"split_type":[0,0,0,0,0,0,0,0,0,0,0,0,0,0,0,0,0,0,0,0,0,0,0],"sum_hessian":[1.3781387E3,1.31E3,6.8138695E1,6.24E2,6.86E2,5.3138695E1,1.5E1,2E1,6.04E2,5.64E2,1.22E2,1.2E1,8E0,5.99E2,5E0,1.52E2,4.12E2,9.7E1,2.5E1,7.9E1,7.3E1,3.42E2,7E1],"tree_param":{"num_deleted":"0","num_feature":"3","num_nodes":"23","size_leaf_vector":"1"}},{"base_weights":[4.742816E-3,-1.7939663E-2,3.707533E-1,-1.03590585E-1,6.1147295E-2,3.16651E-2,-4.5707095E-3,1.5590834E-2,-1.0784283E-1,3.295126E-2,1.812152E-1,2.2006016E-3,-6.3936046E-4,-1.09889984E-1,2.782519E-3,8.376727E-3,2.077141E-2,1.3005691E-2,5.2003847E-3,-8.471825E-3,-6.288938E-3,-1.1997065E-3,4.0053832E-3],"categories":[],"categories_nodes":[],"categories_segments":[],"categories_sizes":[],"default_left":[0,0,0,0,0,0,0,0,0,0,0,0,0,0,0,0,0,0,0,0,0,0,0],"id":12,"left_children":[1,3,5,7,9,-1,-1,11,13,15,17,-1,-1,19,-1,-1,21,-1,-1,-1,-1,-1,-1],"loss_changes":[1.165276E1,9.005727E0,4.3360415E0,3.4803534E-1,2.2641246E0,0E0,0E0,1.8760253E-2,2.4136543E-1,6.1840016E-1,3.7169456E-2,0E0,0E0,2.4921894E-2,0E0,0E0,8.2665634E-1,0E0,0E0,0E0,0E0,0E0,0E0],"parents":[2147483647,0,0,1,1,2,2,3,3,4,4,7,7,8,8,9,9,10,10,13,13,16,16],"right_children":[2,4,6,8,10,-1,-1,12,14,16,18,-1,-1,20,-1,-1,22,-1,-1,-1,-1,-1,-1],"split_conditions":[5.2671754E-1,-5.342666E-1,8.3206105E-1,-2.3664123E-1,2.2414276E-1,3.16651E-2,-4.5707095E-3,-6.1339694E-1,3.740458E-1,-5.0284654E-1,-2.3664123E-1,2.2006016E-3,-6.3936046E-4,-8.370421E-1,2.782519E-3,8.376727E-3,-2.3146592E-1,1.3005691E-2,5.2003847E-3,-8.471825E-3,-6.288938E-3,-1.1997065E-3,4.0053832E-3],"split_indices":[2,1,2,2,1,0,0,1,2,1,2,0,0,1,0,0,1,0,0,0,0,0,0],"split_type":[0,0,0,0,0,0,0,0,0,0,0,0,0,0,0,0,0,0,0,0,0,0,0],"sum_hessian":[1.3821387E3,1.31E3,7.2138695E1,6.28E2,6.82E2,5.7138695E1,1.5E1,2E1,6.08E2,5.63E2,1.19E2,1.2E1,8E0,6.03E2,5E0,5.3E1,5.1E2,9.4E1,2.5E1,2.25E2,3.78E2,2.6E2,2.5E2],"tree_param":{"num_deleted":"0","num_feature":"3","num_nodes":"23","size_leaf_vector":"1"}},{"base_weights":[5.360771E-3,-1.5521706E-2,3.4178555E-1,-9.661258E-2,5.731249E-2,2.9843614E-2,-4.5682066E-3,1.4875666E-2,-1.0067013E-1,1.2889837E-1,1.4773375E-2,2.1207435E-3,-6.204107E-4,-1.02668665E-1,2.7205092E-3,4.2155817E-2,1.628765E-1,-5.2668597E-3,7.987547E-2,-8.024196E-3,-5.8241896E-3,7.468692E-3,-6.0022605E-4,8.249455E-3,1.3944872E-2,7.061604E-4,-4.7244336E-3,6.1221584E-3,2.6522584E-3],"categories":[],"categories_nodes":[],"categories_segments":[],"categories_sizes":[],"default_left":[0,0,0,0,0,0,0,0,0,0,0,0,0,0,0,0,0,0,0,0,0,0,0,0,0,0,0,0,0],"id":13,"left_children":[1,3,5,7,9,-1,-1,11,13,15,17,-1,-1,19,-1,21,23,25,27,-1,-1,-1,-1,-1,-1,-1,-1,-1,-1],"loss_changes":[9.8461685E0,7.8406954E0,4.096714E0,3.064208E-1,2.099273E0,0E0,0E0,1.757791E-2,2.1950245E-1,6.7695E-1,5.9900075E-1,0E0,0E0,4.0014267E-2,0E0,3.3670843E-1,4.421997E-2,3.8816246E-1,7.20942E-3,0E0,0E0,0E0,0E0,0E0,0E0,0E0,0E0,0E0,0E0],"parents":[2147483647,0,0,1,1,2,2,3,3,4,4,7,7,8,8,9,9,10,10,13,13,15,15,16,16,17,17,18,18],"right_children":[2,4,6,8,10,-1,-1,12,14,16,18,-1,-1,20,-1,22,24,26,28,-1,-1,-1,-1,-1,-1,-1,-1,-1,-1],"split_conditions":[5.2671754E-1,-5.342666E-1,8.3206105E-1,-2.3664123E-1,6.870229E-2,2.9843614E-2,-4.5682066E-3,-6.1339694E-1,3.740458E-1,-2.6148537E-1,1.0658837E-1,2.1207435E-3,-6.204107E-4,-8.370421E-1,2.7205092E-3,-5.22366E-1,2.3338974E-1,-1.4474809E-1,1.7897291E-1,-8.024196E-3,-5.8241896E-3,7.468692E-3,-6.0022605E-4,8.249455E-3,1.3944872E-2,7.061604E-4,-4.7244336E-3,6.1221584E-3,2.6522584E-3],"split_indices":[2,1,2,2,2,0,0,1,2,1,1,0,0,1,0,1,1,1,1,0,0,0,0,0,0,0,0,0,0],"split_type":[0,0,0,0,0,0,0,0,0,0,0,0,0,0,0,0,0,0,0,0,0,0,0,0,0,0,0,0,0],"sum_hessian":[1.3801387E3,1.308E3,7.2138695E1,6.18E2,6.9E2,5.6138695E1,1.6E1,2E1,5.98E2,2.49E2,4.41E2,1.2E1,8E0,5.93E2,5E0,7.7E1,1.72E2,3.43E2,9.8E1,2.18E2,3.75E2,2.8E1,4.9E1,1.18E2,5.4E1,2.82E2,6.1E1,6.2E1,3.6E1],"tree_param":{"num_deleted":"0","num_feature":"3","num_nodes":"29","size_leaf_vector":"1"}},{"base_weights":[2.990443E-3,-8.028302E-2,2.222014E-1,-1.22015834E-1,5.85823E-3,1.5252824E-1,2.6437264E-2,-1.4586331E-1,-5.0684465E-3,-1.9777378E-2,3.9265454E-2,1.0750306E-1,1.28754545E-2,-1.1608209E-2,-8.052236E-3,-3.067336E-2,9.3913847E-4,4.7287446E-2,3.6651965E-3,8.789622E-3,5.8853917E-2,1.9383075E-4,-2.3256298E-3,1.0238054E-3,-5.020735E-4,-2.510185E-4,3.4242459E-3,-1.122502E-3,1.0916521E-3,7.734376E-4,5.196547E-3],"categories":[],"categories_nodes":[],"categories_segments":[],"categories_sizes":[],"default_left":[0,0,0,0,0,0,0,0,0,0,0,0,0,0,0,0,0,0,0,0,0,0,0,0,0,0,0,0,0,0,0],"id":14,"left_children":[1,3,5,7,9,11,-1,13,-1,15,17,19,-1,-1,-1,21,23,25,27,-1,29,-1,-1,-1,-1,-1,-1,-1,-1,-1,-1],"loss_changes":[2.565058E1,3.676354E0,4.1852837E0,6.0760593E-1,3.0120337E-1,3.3802176E-1,0E0,7.547951E-2,0E0,4.7627874E-2,3.730242E-2,1.1662245E-1,0E0,0E0,0E0,2.470737E-2,1.1235715E-2,3.568977E-2,1.3626797E-2,0E0,5.5281818E-2,0E0,0E0,0E0,0E0,0E0,0E0,0E0,0E0,0E0,0E0],"parents":[2147483647,0,0,1,1,2,2,3,3,4,4,5,5,7,7,9,9,10,10,11,11,15,15,16,16,17,17,18,18,20,20],"right_children":[2,4,6,8,10,12,-1,14,-1,16,18,20,-1,-1,-1,22,24,26,28,-1,30,-1,-1,-1,-1,-1,-1,-1,-1,-1,-1],"split_conditions":[-1.874591E-1,-4.778104E-1,2.7621904E-1,-6.2906635E-1,-3.1098282E-1,1.0753988E-2,2.6437264E-2,-7.7733094E-1,-5.0684465E-3,-3.7451157E-1,8.208087E-3,-1.4474809E-1,1.28754545E-2,-1.1608209E-2,-8.052236E-3,-9.0839493E-1,-5.0284654E-1,-8.446503E-1,1.1985688E-1,8.789622E-3,-1.076575E-1,1.9383075E-4,-2.3256298E-3,1.0238054E-3,-5.020735E-4,-2.510185E-4,3.4242459E-3,-1.122502E-3,1.0916521E-3,7.734376E-4,5.196547E-3],"split_indices":[0,0,0,0,0,0,0,0,0,0,1,1,0,0,0,1,1,1,1,0,0,0,0,0,0,0,0,0,0,0,0],"split_type":[0,0,0,0,0,0,0,0,0,0,0,0,0,0,0,0,0,0,0,0,0,0,0,0,0,0,0,0,0,0,0],"sum_hessian":[1.3851387E3,1.008E3,3.771387E2,6.77E2,3.31E2,2.85E2,9.2138695E1,4.27E2,2.5E2,1.88E2,1.43E2,1.57E2,1.28E2,1.57E2,2.7E2,1.23E2,6.5E1,1.12E2,3.1E1,9E1,6.7E1,1.3E1,1.1E2,2.5E1,4E1,8E0,1.04E2,8E0,2.3E1,2.6E1,4.1E1],"tree_param":{"num_deleted":"0","num_feature":"3","num_nodes":"31","size_leaf_vector":"1"}},{"base_weights":[4.626953E-3,-7.5497404E-2,2.084179E-1,-1.1820224E-1,2.3433064E-5,1.5599541E-1,2.814809E-2,-1.04946485E-2,-9.581477E-2,-3.2724094E-2,2.6117455E-2,1.989081E-2,1.3090223E-1,-7.1671936E-3,-4.495305E-3,-0E0,-3.5924546E-2,2.6591062E-3,3.6799952E-2,2.6548909E-2,1.455094E-1,-2.7691156E-3,-1.007334E-3,1.0269766E-3,-3.1212313E-4,2.9021201E-3,2.5184744E-4,-2.6531026E-3,3.0803941E-3,6.426747E-3,1.2349734E-2],"categories":[],"categories_nodes":[],"categories_segments":[],"categories_sizes":[],"default_left":[0,0,0,0,0,0,0,0,0,0,0,0,0,0,0,0,0,0,0,0,0,0,0,0,0,0,0,0,0,0,0],"id":15,"left_children":[1,3,5,7,9,11,-1,-1,13,15,17,-1,19,-1,-1,-1,21,23,25,27,29,-1,-1,-1,-1,-1,-1,-1,-1,-1,-1],"loss_changes":[2.2730556E1,3.2319188E0,3.8079872E0,4.1658688E-1,3.2372722E-1,7.9419804E-1,0E0,0E0,6.920099E-2,1.8572986E-2,4.8774987E-2,0E0,4.0659666E-1,0E0,0E0,0E0,7.820174E-3,9.347303E-3,2.825743E-2,8.633788E-2,3.22515E-1,0E0,0E0,0E0,0E0,0E0,0E0,0E0,0E0,0E0,0E0],"parents":[2147483647,0,0,1,1,2,2,3,3,4,4,5,5,8,8,9,9,10,10,12,12,16,16,17,17,18,18,19,19,20,20],"right_children":[2,4,6,8,10,12,-1,-1,14,16,18,-1,20,-1,-1,-1,22,24,26,28,30,-1,-1,-1,-1,-1,-1,-1,-1,-1,-1],"split_conditions":[-1.874591E-1,-5.0750804E-1,3.9977047E-1,-7.5260454E-1,-3.7451157E-1,-8.993087E-1,2.814809E-2,-1.04946485E-2,-6.0710573E-1,-9.0839493E-1,-3.0514926E-1,1.989081E-2,-6.5226054E-1,-7.1671936E-3,-4.495305E-3,-0E0,-2.3680179E-1,-5.0284654E-1,8.208087E-3,-8.446503E-1,1.0753988E-2,-2.7691156E-3,-1.007334E-3,1.0269766E-3,-3.1212313E-4,2.9021201E-3,2.5184744E-4,-2.6531026E-3,3.0803941E-3,6.426747E-3,1.2349734E-2],"split_indices":[0,0,0,0,0,1,0,0,0,1,0,0,1,0,0,0,1,1,1,1,0,0,0,0,0,0,0,0,0,0,0],"split_type":[0,0,0,0,0,0,0,0,0,0,0,0,0,0,0,0,0,0,0,0,0,0,0,0,0,0,0,0,0,0,0],"sum_hessian":[1.3721387E3,9.89E2,3.831387E2,6.29E2,3.6E2,3.23E2,6.0138695E1,1.99E2,4.3E2,1.57E2,2.03E2,3.1E1,2.92E2,2.7E2,1.6E2,1.4E1,1.43E2,7E1,1.33E2,4E1,2.52E2,9.9E1,4.4E1,2.6E1,4.4E1,1.04E2,2.9E1,6E0,3.4E1,1.34E2,1.18E2],"tree_param":{"num_deleted":"0","num_feature":"3","num_nodes":"31","size_leaf_vector":"1"}},{"base_weights":[4.0369495E-3,-1.3784343E-2,2.9180694E-1,-8.036392E-2,4.7476485E-2,2.5628652E-2,-4.2473227E-3,1.7911507E-3,-8.306619E-2,2.5055831E-2,9.480602E-3,8.185831E-4,-4.2895135E-4,-8.472061E-2,2.2620622E-3,7.127368E-3,1.45830205E-2,-4.2697736E-3,-6.1280075E-3,-1.1568809E-3,3.088382E-3],"categories":[],"categories_nodes":[],"categories_segments":[],"categories_sizes":[],"default_left":[0,0,0,0,0,0,0,0,0,0,0,0,0,0,0,0,0,0,0,0,0],"id":16,"left_children":[1,3,5,7,9,-1,-1,11,13,15,-1,-1,-1,17,-1,-1,19,-1,-1,-1,-1],"loss_changes":[7.202912E0,5.4232583E0,3.118806E0,1.5021133E-1,1.4484739E0,0E0,0E0,3.8727908E-3,1.5303612E-1,4.7419044E-1,0E0,0E0,0E0,2.8348923E-2,0E0,0E0,5.54044E-1,0E0,0E0,0E0,0E0],"parents":[2147483647,0,0,1,1,2,2,3,3,4,4,7,7,8,8,9,9,13,13,16,16],"right_children":[2,4,6,8,10,-1,-1,12,14,16,-1,-1,-1,18,-1,-1,20,-1,-1,-1,-1],"split_conditions":[5.2671754E-1,-5.342666E-1,8.3206105E-1,-2.3664123E-1,2.2414276E-1,2.5628652E-2,-4.2473227E-3,-6.1339694E-1,3.740458E-1,-5.0284654E-1,9.480602E-3,8.185831E-4,-4.2895135E-4,6.870229E-2,2.2620622E-3,7.127368E-3,-2.3146592E-1,-4.2697736E-3,-6.1280075E-3,-1.1568809E-3,3.088382E-3],"split_indices":[2,1,2,2,1,0,0,1,2,1,0,0,0,2,0,0,1,0,0,0,0],"split_type":[0,0,0,0,0,0,0,0,0,0,0,0,0,0,0,0,0,0,0,0,0],"sum_hessian":[1.3821387E3,1.31E3,7.2138695E1,6.27E2,6.83E2,5.6138695E1,1.6E1,1.9E1,6.08E2,5.65E2,1.18E2,1.1E1,8E0,6.03E2,5E0,5.2E1,5.13E2,2.07E2,3.96E2,2.58E2,2.55E2],"tree_param":{"num_deleted":"0","num_feature":"3","num_nodes":"21","size_leaf_vector":"1"}},{"base_weights":[2.987652E-3,-6.820578E-2,1.8770182E-1,-1.0299558E-1,4.139527E-3,1.3138889E-1,2.3236433E-2,-1.2355679E-1,-6.46642E-2,-1.4249283E-2,3.6416546E-2,6.0117817E-3,1.1018488E-2,-1.0403712E-2,-6.986184E-3,-2.307762E-3,-4.698148E-3,-1.6364317E-3,2.4955133E-3,-1.22687835E-2,4.751057E-2,-1.0486178E-3,6.409755E-4,-1.6719664E-3,3.5816274E-4,3.8942734E-3,-8.95631E-4],"categories":[],"categories_nodes":[],"categories_segments":[],"categories_sizes":[],"default_left":[0,0,0,0,0,0,0,0,0,0,0,0,0,0,0,0,0,0,0,0,0,0,0,0,0,0,0],"id":17,"left_children":[1,3,5,7,9,11,-1,13,15,17,19,-1,-1,-1,-1,-1,-1,-1,21,23,25,-1,-1,-1,-1,-1,-1],"loss_changes":[1.8427061E1,2.5571475E0,3.1303968E0,4.4371414E-1,2.0697321E-1,2.6931953E-1,0E0,7.2350025E-2,1.7555594E-2,4.1665282E-2,7.7372715E-2,0E0,0E0,0E0,0E0,0E0,0E0,0E0,1.3058186E-2,1.008421E-2,8.792789E-2,0E0,0E0,0E0,0E0,0E0,0E0],"parents":[2147483647,0,0,1,1,2,2,3,3,4,4,5,5,7,7,8,8,9,9,10,10,18,18,19,19,20,20],"right_children":[2,4,6,8,10,12,-1,14,16,18,20,-1,-1,-1,-1,-1,-1,-1,22,24,26,-1,-1,-1,-1,-1,-1],"split_conditions":[-1.874591E-1,-4.778104E-1,3.092234E-1,-6.2906635E-1,-2.931205E-1,1.0753988E-2,2.3236433E-2,-8.1034636E-1,-8.396947E-2,-3.6811393E-1,-3.8931298E-1,6.0117817E-3,1.1018488E-2,-1.0403712E-2,-6.986184E-3,-2.307762E-3,-4.698148E-3,-1.6364317E-3,-2.3664123E-1,-2.1496683E-1,2.977099E-1,-1.0486178E-3,6.409755E-4,-1.6719664E-3,3.5816274E-4,3.8942734E-3,-8.95631E-4],"split_indices":[0,0,0,0,0,0,0,0,2,0,2,0,0,0,0,0,0,0,2,0,2,0,0,0,0,0,0],"split_type":[0,0,0,0,0,0,0,0,0,0,0,0,0,0,0,0,0,0,0,0,0,0,0,0,0,0,0],"sum_hessian":[1.3811387E3,1.001E3,3.801387E2,6.74E2,3.27E2,2.97E2,8.3138695E1,4.23E2,2.51E2,2.1E2,1.17E2,1.58E2,1.39E2,1.14E2,3.09E2,6E1,1.91E2,1.29E2,8.1E1,2E1,9.7E1,1.6E1,6.5E1,1.2E1,8E0,8.3E1,1.4E1],"tree_param":{"num_deleted":"0","num_feature":"3","num_nodes":"27","size_leaf_vector":"1"}},{"base_weights":[2.3917765E-3,-7.1420975E-2,1.6025804E-1,-1.1066643E-1,-2.5680229E-2,1.1721085E-1,2.4630865E-2,-9.30074E-3,-6.112064E-3,-4.376023E-2,9.035626E-3,5.9458174E-2,1.5149374E-1,-0E0,-4.7738727E-2,4.1862745E-2,-6.7558005E-3,8.0606304E-2,9.0233665E-3,1.6666127E-2,1.2470764E-1,-5.253949E-4,6.2388467E-4,-3.6368011E-3,-1.936509E-3,8.9086447E-4,3.891882E-3,-1.8367419E-3,8.777407E-4,6.357528E-4,6.264131E-3,-4.4454818E-4,1.1375147E-3,1.1618102E-3,9.315414E-3],"categories":[],"categories_nodes":[],"categories_segments":[],"categories_sizes":[],"default_left":[0,0,0,0,0,0,0,0,0,0,0,0,0,0,0,0,0,0,0,0,0,0,0,0,0,0,0,0,0,0,0,0,0,0,0],"id":18,"left_children":[1,3,5,7,9,11,-1,-1,-1,13,15,17,19,21,23,25,27,29,31,-1,33,-1,-1,-1,-1,-1,-1,-1,-1,-1,-1,-1,-1,-1,-1],"loss_changes":[1.6304276E1,1.670166E0,3.6314316E0,1.2819195E-1,2.918375E-1,6.565943E-1,0E0,0E0,0E0,5.2879095E-2,8.981687E-2,1.5622193E-1,2.9628277E-1,3.3787675E-3,1.4454305E-2,1.2831867E-2,5.4121196E-2,9.5713794E-2,9.879018E-3,0E0,3.3068204E-1,0E0,0E0,0E0,0E0,0E0,0E0,0E0,0E0,0E0,0E0,0E0,0E0,0E0,0E0],"parents":[2147483647,0,0,1,1,2,2,3,3,4,4,5,5,9,9,10,10,11,11,12,12,13,13,14,14,15,15,16,16,17,17,18,18,20,20],"right_children":[2,4,6,8,10,12,-1,-1,-1,14,16,18,20,22,24,26,28,30,32,-1,34,-1,-1,-1,-1,-1,-1,-1,-1,-1,-1,-1,-1,-1,-1],"split_conditions":[-2.392897E-1,-5.98282E-1,3.9977047E-1,-7.7733094E-1,-3.8809186E-1,-8.7794855E-2,2.4630865E-2,-9.30074E-3,-6.112064E-3,-9.0839493E-1,-5.0284654E-1,-1.4474809E-1,-8.993087E-1,-4.67904E-1,-4.759414E-1,-2.9901344E-1,-2.3680179E-1,-6.5226054E-1,1.1985688E-1,1.6666127E-2,-6.5226054E-1,-5.253949E-4,6.2388467E-4,-3.6368011E-3,-1.936509E-3,8.9086447E-4,3.891882E-3,-1.8367419E-3,8.777407E-4,6.357528E-4,6.264131E-3,-4.4454818E-4,1.1375147E-3,1.1618102E-3,9.315414E-3],"split_indices":[0,0,0,0,0,0,0,0,0,1,1,1,1,0,0,0,1,1,1,0,1,0,0,0,0,0,0,0,0,0,0,0,0,0,0],"split_type":[0,0,0,0,0,0,0,0,0,0,0,0,0,0,0,0,0,0,0,0,0,0,0,0,0,0,0,0,0,0,0,0,0,0,0],"sum_hessian":[1.3791387E3,9.43E2,4.361387E2,4.99E2,4.44E2,3.76E2,6.0138695E1,1.57E2,3.42E2,2.92E2,1.52E2,1.51E2,2.25E2,2.5E1,2.67E2,4.6E1,1.06E2,1.01E2,5E1,2.9E1,1.96E2,1.4E1,1.1E1,1.72E2,9.5E1,2.6E1,2E1,5.2E1,5.4E1,2.1E1,8E1,1.4E1,3.6E1,3E1,1.66E2],"tree_param":{"num_deleted":"0","num_feature":"3","num_nodes":"35","size_leaf_vector":"1"}},{"base_weights":[4.48729E-3,-1.0568567E-2,2.4635944E-1,-6.421036E-2,3.895752E-2,2.1768458E-2,-3.885542E-3,2.3415994E-2,-6.728611E-2,2.1071773E-2,7.573354E-3,2.4314944E-3,-1.01516205E-4,-6.8684444E-2,1.9080666E-3,9.375166E-2,1.1668908E-2,-5.540612E-3,-3.7835175E-3,3.132747E-3,8.686023E-3,-1.1410966E-3,2.693769E-3],"categories":[],"categories_nodes":[],"categories_segments":[],"categories_sizes":[],"default_left":[0,0,0,0,0,0,0,0,0,0,0,0,0,0,0,0,0,0,0,0,0,0,0],"id":19,"left_children":[1,3,5,7,9,-1,-1,11,13,15,-1,-1,-1,17,-1,19,21,-1,-1,-1,-1,-1,-1],"loss_changes":[5.090166E0,3.5143416E0,2.3229709E0,1.9046807E-1,8.9965427E-1,0E0,0E0,1.3141018E-2,1.0608673E-1,3.6910492E-1,0E0,0E0,0E0,4.6033144E-2,0E0,3.2969058E-2,4.4733244E-1,0E0,0E0,0E0,0E0,0E0,0E0],"parents":[2147483647,0,0,1,1,2,2,3,3,4,4,7,7,8,8,9,9,13,13,15,15,16,16],"right_children":[2,4,6,8,10,-1,-1,12,14,16,-1,-1,-1,18,-1,20,22,-1,-1,-1,-1,-1,-1],"split_conditions":[5.2671754E-1,-5.342666E-1,8.3206105E-1,-2.3664123E-1,2.2414276E-1,2.1768458E-2,-3.885542E-3,-6.1339694E-1,3.740458E-1,-5.0284654E-1,7.573354E-3,2.4314944E-3,-1.01516205E-4,-8.370421E-1,1.9080666E-3,-5.161212E-1,-2.3146592E-1,-5.540612E-3,-3.7835175E-3,3.132747E-3,8.686023E-3,-1.1410966E-3,2.693769E-3],"split_indices":[2,1,2,2,1,0,0,1,2,1,0,0,0,1,0,1,1,0,0,0,0,0,0],"split_type":[0,0,0,0,0,0,0,0,0,0,0,0,0,0,0,0,0,0,0,0,0,0,0],"sum_hessian":[1.3751387E3,1.303E3,7.2138695E1,6.25E2,6.78E2,5.6138695E1,1.6E1,1.8E1,6.07E2,5.6E2,1.18E2,1.1E1,7E0,6.02E2,5E0,5.3E1,5.07E2,2.23E2,3.79E2,3.5E1,1.8E1,2.55E2,2.52E2],"tree_param":{"num_deleted":"0","num_feature":"3","num_nodes":"23","size_leaf_vector":"1"}},{"base_weights":[2.7036397E-3,-6.5046385E-2,1.4508533E-1,-1.02694824E-1,-2.5961965E-2,1.06107086E-1,2.2294482E-2,-8.968194E-3,-5.789161E-3,-4.60536E-2,2.7739324E-3,6.720789E-2,1.5335451E-1,-4.9521686E-3,-4.913263E-2,2.7143082E-2,-1.0072153E-2,8.579625E-2,2.3792295E-2,1.4867308E-2,1.2597425E-1,-6.6300033E-4,1.7448957E-4,-3.604321E-3,-1.6279634E-3,-5.2681746E-4,2.757701E-3,-1.4662909E-3,1.3581547E-4,2.9185845E-3,6.495921E-3,3.4822984E-5,3.064287E-3,-5.8434412E-5,9.764523E-3],"categories":[],"categories_nodes":[],"categories_segments":[],"categories_sizes":[],"default_left":[0,0,0,0,0,0,0,0,0,0,0,0,0,0,0,0,0,0,0,0,0,0,0,0,0,0,0,0,0,0,0,0,0,0,0],"id":20,"left_children":[1,3,5,7,9,11,-1,-1,-1,13,15,17,19,21,23,25,27,29,31,-1,33,-1,-1,-1,-1,-1,-1,-1,-1,-1,-1,-1,-1,-1,-1],"loss_changes":[1.3516734E1,1.3583341E0,3.017291E0,9.956312E-2,2.8218108E-1,5.9741926E-1,0E0,0E0,0E0,2.874279E-2,6.8327576E-2,1.5793955E-1,2.2840977E-2,2.210454E-3,1.5387356E-2,4.561025E-2,2.2827432E-2,2.842176E-2,4.0340398E-2,0E0,4.247861E-1,0E0,0E0,0E0,0E0,0E0,0E0,0E0,0E0,0E0,0E0,0E0,0E0,0E0,0E0],"parents":[2147483647,0,0,1,1,2,2,3,3,4,4,5,5,9,9,10,10,11,11,12,12,13,13,14,14,15,15,16,16,17,17,18,18,20,20],"right_children":[2,4,6,8,10,12,-1,-1,-1,14,16,18,20,22,24,26,28,30,32,-1,34,-1,-1,-1,-1,-1,-1,-1,-1,-1,-1,-1,-1,-1,-1],"split_conditions":[-2.4729152E-1,-6.0710573E-1,3.9977047E-1,-8.1034636E-1,-4.3114096E-1,1.0753988E-2,2.2294482E-2,-8.968194E-3,-5.789161E-3,-9.0839493E-1,-5.0284654E-1,8.208087E-3,-8.993087E-1,-4.67904E-1,-4.759414E-1,-3.7451157E-1,-2.3680179E-1,-1.9155213E-1,-9.422425E-2,1.4867308E-2,-6.5226054E-1,-6.6300033E-4,1.7448957E-4,-3.604321E-3,-1.6279634E-3,-5.2681746E-4,2.757701E-3,-1.4662909E-3,1.3581547E-4,2.9185845E-3,6.495921E-3,3.4822984E-5,3.064287E-3,-5.8434412E-5,9.764523E-3],"split_indices":[0,0,0,0,0,0,0,0,0,1,1,1,1,0,0,0,1,0,0,0,1,0,0,0,0,0,0,0,0,0,0,0,0,0,0],"split_type":[0,0,0,0,0,0,0,0,0,0,0,0,0,0,0,0,0,0,0,0,0,0,0,0,0,0,0,0,0,0,0,0,0,0,0],"sum_hessian":[1.3811387E3,9.39E2,4.421387E2,4.69E2,4.7E2,3.81E2,6.1138695E1,1.17E2,3.52E2,2.75E2,1.95E2,2.23E2,1.58E2,2.3E1,2.52E2,6.6E1,1.29E2,1.48E2,7.5E1,2.3E1,1.35E2,1.9E1,4E0,1.92E2,6E1,1.9E1,4.7E1,6.4E1,6.5E1,4.7E1,1.01E2,4.4E1,3.1E1,2.1E1,1.14E2],"tree_param":{"num_deleted":"0","num_feature":"3","num_nodes":"35","size_leaf_vector":"1"}},{"base_weights":[3.4710406E-3,-5.9816964E-2,1.3646829E-1,-9.614757E-2,-2.3068087E-2,1.0129448E-1,2.0621676E-2,-8.718413E-3,-5.514084E-3,-3.921904E-2,9.287254E-3,7.158501E-2,1.0217581E-2,-4.636229E-2,-2.100146E-2,-1.6233545E-2,1.8416423E-2,7.326821E-2,-7.562882E-4,-1.5339403E-3,-3.3794304E-3,4.6256315E-5,-1.5220771E-3,-1.7391107E-3,-0E0,1.5045406E-3,-1.2915924E-3,3.5651028E-3,6.0703713E-3],"categories":[],"categories_nodes":[],"categories_segments":[],"categories_sizes":[],"default_left":[0,0,0,0,0,0,0,0,0,0,0,0,0,0,0,0,0,0,0,0,0,0,0,0,0,0,0,0,0],"id":21,"left_children":[1,3,5,7,9,11,-1,-1,-1,13,15,17,-1,19,21,23,25,27,-1,-1,-1,-1,-1,-1,-1,-1,-1,-1,-1],"loss_changes":[1.1794222E1,1.234199E0,2.4615211E0,8.458471E-2,2.6013112E-1,4.9806118E-1,0E0,0E0,0E0,2.7013183E-2,4.2208284E-2,5.1843166E-2,0E0,7.151097E-3,7.4215047E-3,6.352571E-3,2.673027E-2,3.5187125E-2,0E0,0E0,0E0,0E0,0E0,0E0,0E0,0E0,0E0,0E0,0E0],"parents":[2147483647,0,0,1,1,2,2,3,3,4,4,5,5,9,9,10,10,11,11,13,13,14,14,15,15,16,16,17,17],"right_children":[2,4,6,8,10,12,-1,-1,-1,14,16,18,-1,20,22,24,26,28,-1,-1,-1,-1,-1,-1,-1,-1,-1,-1,-1],"split_conditions":[-2.392897E-1,-6.115121E-1,3.9977047E-1,-8.2508314E-1,-3.8809186E-1,9.069487E-2,2.0621676E-2,-8.718413E-3,-5.514084E-3,-4.759414E-1,-2.3664123E-1,8.3206105E-1,1.0217581E-2,-8.396947E-2,-4.7105163E-1,-3.8931298E-1,2.977099E-1,-8.7794855E-2,-7.562882E-4,-1.5339403E-3,-3.3794304E-3,4.6256315E-5,-1.5220771E-3,-1.7391107E-3,-0E0,1.5045406E-3,-1.2915924E-3,3.5651028E-3,6.0703713E-3],"split_indices":[0,0,0,0,0,0,0,0,0,0,2,2,0,2,0,2,2,0,0,0,0,0,0,0,0,0,0,0,0],"split_type":[0,0,0,0,0,0,0,0,0,0,0,0,0,0,0,0,0,0,0,0,0,0,0,0,0,0,0,0,0],"sum_hessian":[1.3811387E3,9.39E2,4.421387E2,4.63E2,4.76E2,3.82E2,6.0138695E1,9.2E1,3.71E2,3.18E2,1.58E2,2.62E2,1.2E2,2.14E2,1.04E2,3.7E1,1.21E2,2.59E2,3E0,5.1E1,1.63E2,6E0,9.8E1,1.7E1,2E1,1.14E2,7E0,1.5E2,1.09E2],"tree_param":{"num_deleted":"0","num_feature":"3","num_nodes":"29","size_leaf_vector":"1"}},{"base_weights":[3.772284E-3,-5.0609555E-2,1.4485556E-1,-7.718255E-2,4.639645E-3,1.0717219E-1,1.9899528E-2,-7.058172E-3,-5.978997E-2,-1.1429825E-2,2.7017953E-2,8.9753695E-2,2.0604008E-1,-4.677437E-3,-4.38673E-2,-7.3314263E-3,-2.654097E-3,-2.6664568E-2,3.95006E-2,1.0270731E-1,-1.689926E-2,-0E0,1.42272115E-2,-1.4064212E-3,-3.2034873E-3,-8.400712E-4,1.4451625E-4,1.2397245E-3,-2.6971095E-3,3.2765197E-3,-1.1232945E-3,3.5001154E-3,7.920896E-3,-2.136652E-3,1.6284144E-3],"categories":[],"categories_nodes":[],"categories_segments":[],"categories_sizes":[],"default_left":[0,0,0,0,0,0,0,0,0,0,0,0,0,0,0,0,0,0,0,0,0,0,0,0,0,0,0,0,0,0,0,0,0,0,0],"id":22,"left_children":[1,3,5,7,9,11,-1,-1,13,15,17,19,21,-1,23,25,-1,27,29,31,33,-1,-1,-1,-1,-1,-1,-1,-1,-1,-1,-1,-1,-1,-1],"loss_changes":[1.06673975E1,1.4823034E0,1.9408188E0,2.7654457E-1,1.2446233E-1,3.5685086E-1,0E0,0E0,4.0386677E-2,1.6307162E-2,1.0847206E-1,4.3476772E-1,7.9452634E-2,0E0,6.8324804E-3,1.0994689E-2,0E0,3.0218445E-2,8.2538515E-2,1.542995E-1,3.4296114E-2,0E0,0E0,0E0,0E0,0E0,0E0,0E0,0E0,0E0,0E0,0E0,0E0,0E0,0E0],"parents":[2147483647,0,0,1,1,2,2,3,3,4,4,5,5,8,8,9,9,10,10,11,11,12,12,14,14,15,15,17,17,18,18,19,19,20,20],"right_children":[2,4,6,8,10,12,-1,-1,14,16,18,20,22,-1,24,26,-1,28,30,32,34,-1,-1,-1,-1,-1,-1,-1,-1,-1,-1,-1,-1,-1,-1],"split_conditions":[-1.874591E-1,-4.778104E-1,3.9977047E-1,-7.408891E-1,-3.0514926E-1,5.2671754E-1,1.9899528E-2,-7.058172E-3,-6.0710573E-1,2.977099E-1,-3.8931298E-1,2.977099E-1,-9.422425E-2,-4.677437E-3,-8.396947E-2,-3.6811393E-1,-2.654097E-3,-2.8772533E-1,2.977099E-1,-9.422425E-2,3.740458E-1,-0E0,1.42272115E-2,-1.4064212E-3,-3.2034873E-3,-8.400712E-4,1.4451625E-4,1.2397245E-3,-2.6971095E-3,3.2765197E-3,-1.1232945E-3,3.5001154E-3,7.920896E-3,-2.136652E-3,1.6284144E-3],"split_indices":[0,0,0,0,0,2,0,0,0,2,2,2,0,0,2,0,0,0,2,0,2,0,0,0,0,0,0,0,0,0,0,0,0,0,0],"split_type":[0,0,0,0,0,0,0,0,0,0,0,0,0,0,0,0,0,0,0,0,0,0,0,0,0,0,0,0,0,0,0,0,0,0,0],"sum_hessian":[1.3701387E3,9.93E2,3.771387E2,6.69E2,3.24E2,3.18E2,5.9138695E1,2.25E2,4.44E2,1.89E2,1.35E2,2.87E2,3.1E1,2.37E2,2.07E2,1.79E2,1E1,2.2E1,1.13E2,2.57E2,3E1,2E0,2.9E1,4.9E1,1.58E2,1.18E2,6.1E1,3E0,1.9E1,9.8E1,1.5E1,7.9E1,1.78E2,2.5E1,5E0],"tree_param":{"num_deleted":"0","num_feature":"3","num_nodes":"35","size_leaf_vector":"1"}},{"base_weights":[2.9769763E-3,-9.762466E-3,2.0497197E-1,-4.90993E-2,2.6598094E-2,1.8146308E-2,-3.4633838E-3,1.8764425E-2,-5.1642872E-2,5.8232095E-2,7.973304E-3,2.0952162E-3,-1.11839385E-4,-5.280127E-2,1.5921241E-3,8.938821E-3,7.904839E-2,7.77447E-2,1.6100933E-3,-4.2508207E-3,-2.9175456E-3,4.25209E-3,-1.5640405E-3,7.566178E-3,4.0833177E-3,-2.1659625E-3,8.194997E-3,-6.578788E-4,2.4544655E-3],"categories":[],"categories_nodes":[],"categories_segments":[],"categories_sizes":[],"default_left":[0,0,0,0,0,0,0,0,0,0,0,0,0,0,0,0,0,0,0,0,0,0,0,0,0,0,0,0,0],"id":23,"left_children":[1,3,5,7,9,-1,-1,11,13,15,17,-1,-1,19,-1,21,23,25,27,-1,-1,-1,-1,-1,-1,-1,-1,-1,-1],"loss_changes":[3.5959558E0,1.8881879E0,1.670377E0,1.21858954E-1,3.934834E-1,0E0,0E0,1.09554E-2,6.907797E-2,2.4241221E-1,1.8902633E-1,0E0,0E0,2.3022056E-2,0E0,1.7655317E-1,2.0414472E-2,2.3325442E-1,1.7941774E-1,0E0,0E0,0E0,0E0,0E0,0E0,0E0,0E0,0E0,0E0],"parents":[2147483647,0,0,1,1,2,2,3,3,4,4,7,7,8,8,9,9,10,10,13,13,15,15,16,16,17,17,18,18],"right_children":[2,4,6,8,10,-1,-1,12,14,16,18,-1,-1,20,-1,22,24,26,28,-1,-1,-1,-1,-1,-1,-1,-1,-1,-1],"split_conditions":[5.2671754E-1,-5.342666E-1,8.3206105E-1,-2.3664123E-1,6.870229E-2,1.8146308E-2,-3.4633838E-3,-6.1339694E-1,3.740458E-1,-2.6148537E-1,-5.0284654E-1,2.0952162E-3,-1.11839385E-4,-8.370421E-1,1.5921241E-3,-5.22366E-1,-1.7872657E-1,-5.161212E-1,1.0658837E-1,-4.2508207E-3,-2.9175456E-3,4.25209E-3,-1.5640405E-3,7.566178E-3,4.0833177E-3,-2.1659625E-3,8.194997E-3,-6.578788E-4,2.4544655E-3],"split_indices":[2,1,2,2,2,0,0,1,2,1,1,0,0,1,0,1,1,1,1,0,0,0,0,0,0,0,0,0,0],"split_type":[0,0,0,0,0,0,0,0,0,0,0,0,0,0,0,0,0,0,0,0,0,0,0,0,0,0,0,0,0],"sum_hessian":[1.3731387E3,1.3E3,7.3138695E1,6.24E2,6.76E2,5.7138695E1,1.6E1,1.9E1,6.05E2,2.41E2,4.35E2,1.1E1,8E0,6E2,5E0,7.7E1,1.64E2,2.6E1,4.09E2,2.2E2,3.8E2,2.6E1,5.1E1,3.3E1,1.31E2,8E0,1.8E1,3.12E2,9.7E1],"tree_param":{"num_deleted":"0","num_feature":"3","num_nodes":"29","size_leaf_vector":"1"}},{"base_weights":[4.218715E-3,-7.31514E-3,1.9154093E-1,-4.5624066E-2,2.784631E-2,1.7131094E-2,-3.3218148E-3,1.803934E-2,-4.8142143E-2,5.9882753E-2,8.592496E-3,1.9877409E-3,-1.0852533E-4,-4.92643E-2,1.5566428E-3,1.0074177E-2,5.3192945E-3,7.4105516E-2,2.549735E-3,-4.047724E-3,-2.6541078E-3,4.1880715E-3,-1.4776216E-3,-2.1017676E-3,7.845286E-3,-5.531553E-4,2.39563E-3],"categories":[],"categories_nodes":[],"categories_segments":[],"categories_sizes":[],"default_left":[0,0,0,0,0,0,0,0,0,0,0,0,0,0,0,0,0,0,0,0,0,0,0,0,0,0,0],"id":24,"left_children":[1,3,5,7,9,-1,-1,11,13,15,17,-1,-1,19,-1,21,-1,23,25,-1,-1,-1,-1,-1,-1,-1,-1],"loss_changes":[3.0139682E0,1.7782918E0,1.4914191E0,1.1250317E-1,4.1297936E-1,0E0,0E0,1.02035655E-2,6.2992334E-2,2.4908394E-1,1.6646747E-1,0E0,0E0,3.2875657E-2,0E0,1.7048104E-1,0E0,2.1596321E-1,1.5995777E-1,0E0,0E0,0E0,0E0,0E0,0E0,0E0,0E0],"parents":[2147483647,0,0,1,1,2,2,3,3,4,4,7,7,8,8,9,9,10,10,13,13,15,15,17,17,18,18],"right_children":[2,4,6,8,10,-1,-1,12,14,16,18,-1,-1,20,-1,22,-1,24,26,-1,-1,-1,-1,-1,-1,-1,-1],"split_conditions":[5.2671754E-1,-5.342666E-1,8.3206105E-1,-2.3664123E-1,6.870229E-2,1.7131094E-2,-3.3218148E-3,-6.1339694E-1,3.740458E-1,-2.6148537E-1,-5.0284654E-1,1.9877409E-3,-1.0852533E-4,-8.370421E-1,1.5566428E-3,-5.22366E-1,5.3192945E-3,-5.161212E-1,1.0658837E-1,-4.047724E-3,-2.6541078E-3,4.1880715E-3,-1.4776216E-3,-2.1017676E-3,7.845286E-3,-5.531553E-4,2.39563E-3],"split_indices":[2,1,2,2,2,0,0,1,2,1,1,0,0,1,0,1,0,1,1,0,0,0,0,0,0,0,0],"split_type":[0,0,0,0,0,0,0,0,0,0,0,0,0,0,0,0,0,0,0,0,0,0,0,0,0,0,0],"sum_hessian":[1.3711387E3,1.3E3,7.1138695E1,6.22E2,6.78E2,5.5138695E1,1.6E1,2E1,6.02E2,2.45E2,4.33E2,1.2E1,8E0,5.97E2,5E0,7.8E1,1.67E2,2.6E1,4.07E2,2.24E2,3.73E2,2.7E1,5.1E1,8E0,1.8E1,3.11E2,9.6E1],"tree_param":{"num_deleted":"0","num_feature":"3","num_nodes":"27","size_leaf_vector":"1"}},{"base_weights":[3.1259663E-3,-4.975483E-2,1.1577673E-1,-7.5354904E-2,-1.5379661E-2,6.896643E-2,2.14773E-1,-6.6050673E-3,-6.033264E-2,-2.8052868E-2,5.8861664E-3,9.167777E-2,2.7969414E-2,9.866293E-3,1.9825727E-2,-5.1076014E-2,-5.2722264E-3,7.932294E-4,-2.1285457E-3,3.8384344E-2,-9.897996E-3,4.318864E-2,1.0214822E-1,-5.5489675E-3,3.3169496E-3,-3.4572356E-3,-0E0,1.0165848E-3,3.4440737E-3,-1.3527675E-3,6.689067E-5,3.959087E-3,-1.10942914E-4,6.8464666E-3,6.4574106E-4,-1.1684536E-3,3.393557E-5],"categories":[],"categories_nodes":[],"categories_segments":[],"categories_sizes":[],"default_left":[0,0,0,0,0,0,0,0,0,0,0,0,0,0,0,0,0,0,0,0,0,0,0,0,0,0,0,0,0,0,0,0,0,0,0,0,0],"id":25,"left_children":[1,3,5,7,9,11,13,-1,15,17,19,21,23,-1,-1,25,-1,-1,-1,27,29,31,33,35,-1,-1,-1,-1,-1,-1,-1,-1,-1,-1,-1,-1,-1],"loss_changes":[8.312298E0,8.153498E-1,1.8958211E0,1.286571E-1,1.1649109E-1,2.5993907E-1,2.9111385E-1,0E0,1.4582753E-2,5.138713E-2,8.928533E-2,4.458928E-2,1.0352775E-1,0E0,0E0,2.1912634E-2,0E0,0E0,0E0,4.084632E-3,1.5317494E-2,4.7184713E-2,5.921006E-3,6.0036555E-3,0E0,0E0,0E0,0E0,0E0,0E0,0E0,0E0,0E0,0E0,0E0,0E0,0E0],"parents":[2147483647,0,0,1,1,2,2,3,3,4,4,5,5,6,6,8,8,9,9,10,10,11,11,12,12,15,15,19,19,20,20,21,21,22,22,23,23],"right_children":[2,4,6,8,10,12,14,-1,16,18,20,22,24,-1,-1,26,-1,-1,-1,28,30,32,34,36,-1,-1,-1,-1,-1,-1,-1,-1,-1,-1,-1,-1,-1],"split_conditions":[-2.4729152E-1,-5.737023E-1,1.9289437E-1,-7.6308054E-1,-3.8809186E-1,-1.4474809E-1,5.174014E-1,-6.6050673E-3,-5.342666E-1,-9.0839493E-1,-5.0284654E-1,-1.874591E-1,-9.422425E-2,9.866293E-3,1.9825727E-2,-5.4992145E-1,-5.2722264E-3,7.932294E-4,-2.1285457E-3,-2.9901344E-1,-2.3680179E-1,-2.0573518E-1,1.6759583E-1,1.1985688E-1,3.3169496E-3,-3.4572356E-3,-0E0,1.0165848E-3,3.4440737E-3,-1.3527675E-3,6.689067E-5,3.959087E-3,-1.10942914E-4,6.8464666E-3,6.4574106E-4,-1.1684536E-3,3.393557E-5],"split_indices":[0,0,0,0,0,1,0,0,1,1,1,0,0,0,0,1,0,0,0,0,1,0,0,1,0,0,0,0,0,0,0,0,0,0,0,0,0],"split_type":[0,0,0,0,0,0,0,0,0,0,0,0,0,0,0,0,0,0,0,0,0,0,0,0,0,0,0,0,0,0,0,0,0,0,0,0,0],"sum_hessian":[1.3751387E3,9.39E2,4.361387E2,5.3E2,4.09E2,3.08E2,1.2813869E2,1.76E2,3.54E2,2.57E2,1.52E2,1.89E2,1.19E2,8.9E1,3.9138695E1,2.68E2,8.6E1,2.1E1,2.36E2,4.7E1,1.05E2,4.4E1,1.45E2,4.9E1,7E1,2.61E2,7E0,2.8E1,1.9E1,5.3E1,5.2E1,3.1E1,1.3E1,1.4E2,5E0,1.5E1,3.4E1],"tree_param":{"num_deleted":"0","num_feature":"3","num_nodes":"37","size_leaf_vector":"1"}},{"base_weights":[4.027071E-3,-4.6454445E-2,1.07187085E-1,-6.7685015E-2,-7.990875E-3,6.49679E-2,1.9825996E-1,-6.129233E-3,-5.4712426E-2,-2.0359293E-2,1.0568326E-2,4.109626E-2,8.442367E-2,1.4267845E-1,1.8416524E-2,-3.9405082E-3,-3.8526807E-2,-1.5713843E-2,-2.9470385E-3,-1.7795421E-2,2.124931E-2,4.9110994E-2,-1.1421492E-2,1.9766139E-2,6.0337815E-3,9.878185E-2,1.27689745E-2,-1.1385345E-3,-2.9700957E-3,-1.658038E-3,-4.826222E-4,3.834197E-4,-1.5430637E-3,1.6336305E-3,-6.313047E-4,1.9110524E-3,3.8427233E-3,-1.2139388E-3,-0E0,-4.800897E-4,2.0614143E-3,8.680971E-3,-2.1207538E-3],"categories":[],"categories_nodes":[],"categories_segments":[],"categories_sizes":[],"default_left":[0,0,0,0,0,0,0,0,0,0,0,0,0,0,0,0,0,0,0,0,0,0,0,0,0,0,0,0,0,0,0,0,0,0,0,0,0,0,0,0,0,0,0],"id":26,"left_children":[1,3,5,7,9,11,13,-1,15,17,19,21,23,25,-1,-1,27,29,-1,31,33,35,37,39,-1,41,-1,-1,-1,-1,-1,-1,-1,-1,-1,-1,-1,-1,-1,-1,-1,-1,-1],"loss_changes":[7.271555E0,7.528043E-1,1.6147137E0,1.3478708E-1,8.2364306E-2,1.07376575E-1,2.0498133E-1,0E0,3.7486553E-3,1.1858717E-2,4.6959694E-2,7.994771E-2,5.1390886E-2,1.9656658E-2,0E0,0E0,5.4023415E-3,1.0939039E-2,0E0,8.500323E-3,1.5767582E-2,3.3327043E-3,2.9678883E-3,1.402554E-2,0E0,3.830744E-1,0E0,0E0,0E0,0E0,0E0,0E0,0E0,0E0,0E0,0E0,0E0,0E0,0E0,0E0,0E0,0E0,0E0],"parents":[2147483647,0,0,1,1,2,2,3,3,4,4,5,5,6,6,8,8,9,9,10,10,11,11,12,12,13,13,16,16,17,17,19,19,20,20,21,21,22,22,23,23,25,25],"right_children":[2,4,6,8,10,12,14,-1,16,18,20,22,24,26,-1,-1,28,30,-1,32,34,36,38,40,-1,42,-1,-1,-1,-1,-1,-1,-1,-1,-1,-1,-1,-1,-1,-1,-1,-1,-1],"split_conditions":[-2.4729152E-1,-5.4185194E-1,1.9289437E-1,-7.6308054E-1,-3.6811393E-1,-8.7794855E-2,5.174014E-1,-6.129233E-3,-6.0710573E-1,2.977099E-1,-2.3664123E-1,2.977099E-1,-3.8931298E-1,5.2671754E-1,1.8416524E-2,-3.9405082E-3,6.870229E-2,-4.759414E-1,-2.9470385E-3,-3.4443274E-1,2.977099E-1,-2.3664123E-1,-1.9155213E-1,-2.811411E-2,6.0337815E-3,2.977099E-1,1.27689745E-2,-1.1385345E-3,-2.9700957E-3,-1.658038E-3,-4.826222E-4,3.834197E-4,-1.5430637E-3,1.6336305E-3,-6.313047E-4,1.9110524E-3,3.8427233E-3,-1.2139388E-3,-0E0,-4.800897E-4,2.0614143E-3,8.680971E-3,-2.1207538E-3],"split_indices":[0,0,0,0,0,0,0,0,0,2,2,2,2,2,0,0,2,0,0,0,2,2,0,0,0,2,0,0,0,0,0,0,0,0,0,0,0,0,0,0,0,0,0],"split_type":[0,0,0,0,0,0,0,0,0,0,0,0,0,0,0,0,0,0,0,0,0,0,0,0,0,0,0,0,0,0,0,0,0,0,0,0,0,0,0,0,0,0,0],"sum_hessian":[1.3761387E3,9.27E2,4.491387E2,5.91E2,3.36E2,3.19E2,1.3013869E2,1.77E2,4.14E2,2.04E2,1.32E2,1.59E2,1.6E2,9.4E1,3.6138695E1,2.9E2,1.24E2,1.88E2,1.6E1,3.2E1,1E2,1.4E2,1.9E1,2.1E1,1.39E2,6.7E1,2.7E1,4.1E1,8.3E1,7.4E1,1.14E2,3E0,2.9E1,9.4E1,6E0,6E1,8E1,1E1,9E0,5E0,1.6E1,5.4E1,1.3E1],"tree_param":{"num_deleted":"0","num_feature":"3","num_nodes":"43","size_leaf_vector":"1"}},{"base_weights":[3.317189E-3,-4.3507006E-2,1.03526495E-1,-6.0154185E-2,-1.0623722E-3,6.262923E-2,1.9009727E-1,-5.75784E-3,-4.8431363E-2,-1.3237387E-2,9.990802E-3,4.0186103E-2,7.9678416E-2,9.185158E-3,1.6866175E-2,-3.6674116E-3,-3.5640698E-2,-9.204058E-3,-2.039378E-3,-1.8202502E-2,2.0778898E-2,3.0843543E-3,-4.4328906E-3,4.4995073E-2,6.841116E-3,-8.568313E-4,-2.6606447E-3,-1.2179253E-3,-2.6261684E-4,3.7749E-4,-1.5517636E-3,1.6860224E-3,-1.0958235E-3,7.111769E-4,-9.355796E-4,-2.3049E-4,3.1727445E-3],"categories":[],"categories_nodes":[],"categories_segments":[],"categories_sizes":[],"default_left":[0,0,0,0,0,0,0,0,0,0,0,0,0,0,0,0,0,0,0,0,0,0,0,0,0,0,0,0,0,0,0,0,0,0,0,0,0],"id":27,"left_children":[1,3,5,7,9,11,13,-1,15,17,19,21,23,-1,-1,-1,25,27,-1,29,31,-1,33,35,-1,-1,-1,-1,-1,-1,-1,-1,-1,-1,-1,-1,-1],"loss_changes":[6.538397E0,6.6419554E-1,1.432342E0,1.6376996E-1,3.910274E-2,7.901859E-2,7.242346E-2,0E0,1.8761396E-2,3.6310107E-3,4.8875708E-2,5.3059727E-2,8.173168E-2,0E0,0E0,0E0,1.2963384E-2,3.6698263E-3,0E0,8.563955E-3,2.55372E-2,0E0,5.946198E-3,1.9300923E-2,0E0,0E0,0E0,0E0,0E0,0E0,0E0,0E0,0E0,0E0,0E0,0E0,0E0],"parents":[2147483647,0,0,1,1,2,2,3,3,4,4,5,5,6,6,8,8,9,9,10,10,11,11,12,12,16,16,17,17,19,19,20,20,22,22,23,23],"right_children":[2,4,6,8,10,12,14,-1,16,18,20,22,24,-1,-1,-1,26,28,-1,30,32,-1,34,36,-1,-1,-1,-1,-1,-1,-1,-1,-1,-1,-1,-1,-1],"split_conditions":[-2.392897E-1,-4.778104E-1,1.9289437E-1,-7.604942E-1,-3.6811393E-1,-8.7794855E-2,5.174014E-1,-5.75784E-3,-6.0710573E-1,2.977099E-1,-2.3664123E-1,2.977099E-1,-2.3664123E-1,9.185158E-3,1.6866175E-2,-3.6674116E-3,-8.396947E-2,6.870229E-2,-2.039378E-3,-3.4443274E-1,2.977099E-1,3.0843543E-3,-2.1496683E-1,-7.809249E-2,6.841116E-3,-8.568313E-4,-2.6606447E-3,-1.2179253E-3,-2.6261684E-4,3.7749E-4,-1.5517636E-3,1.6860224E-3,-1.0958235E-3,7.111769E-4,-9.355796E-4,-2.3049E-4,3.1727445E-3],"split_indices":[0,0,0,0,0,0,0,0,0,2,2,2,2,0,0,0,2,2,0,0,2,0,0,0,0,0,0,0,0,0,0,0,0,0,0,0,0],"split_type":[0,0,0,0,0,0,0,0,0,0,0,0,0,0,0,0,0,0,0,0,0,0,0,0,0,0,0,0,0,0,0,0,0,0,0,0,0],"sum_hessian":[1.3731387E3,9.39E2,4.341387E2,6.7E2,2.69E2,3.07E2,1.27138695E2,1.8E2,4.9E2,1.31E2,1.38E2,1.49E2,1.58E2,9E1,3.7138695E1,2.87E2,2.03E2,1.23E2,8E0,3.4E1,1.04E2,1.31E2,1.8E1,7.8E1,8E1,4.5E1,1.58E2,2.9E1,9.4E1,3E0,3.1E1,9.7E1,7E0,3E0,1.5E1,3E0,7.5E1],"tree_param":{"num_deleted":"0","num_feature":"3","num_nodes":"37","size_leaf_vector":"1"}},{"base_weights":[3.2165698E-3,-4.1218277E-2,9.601302E-2,-6.5220796E-2,-1.6238729E-2,6.968102E-2,1.5167221E-2,-6.296904E-3,-3.6381208E-3,-2.6819207E-2,5.4832925E-3,4.922517E-2,1.0765294E-1,-3.182384E-2,-1.1756432E-2,-2.0106725E-2,1.44719E-2,5.4884795E-2,3.596639E-3,8.012343E-2,1.0990671E-2,-9.776584E-4,-2.3197187E-3,1.4373455E-4,-1.1041954E-3,1.7255555E-4,-1.7147459E-3,3.1800187E-4,1.8077089E-3,2.2281487E-3,4.6169376E-3,-1.0734906E-3,2.2574477E-3,6.8232454E-3,-2.0040728E-3],"categories":[],"categories_nodes":[],"categories_segments":[],"categories_sizes":[],"default_left":[0,0,0,0,0,0,0,0,0,0,0,0,0,0,0,0,0,0,0,0,0,0,0,0,0,0,0,0,0,0,0,0,0,0,0],"id":28,"left_children":[1,3,5,7,9,11,-1,-1,-1,13,15,17,19,21,23,25,27,29,31,33,-1,-1,-1,-1,-1,-1,-1,-1,-1,-1,-1,-1,-1,-1,-1],"loss_changes":[5.8036737E0,5.5229914E-1,1.4286861E0,8.005786E-2,1.1387284E-1,2.4136388E-1,0E0,0E0,0E0,1.708959E-2,3.977185E-2,6.4226806E-2,5.695808E-2,3.9732754E-3,8.797441E-3,8.703021E-3,1.1889124E-2,4.552102E-2,3.3220798E-2,3.1758577E-1,0E0,0E0,0E0,0E0,0E0,0E0,0E0,0E0,0E0,0E0,0E0,0E0,0E0,0E0,0E0],"parents":[2147483647,0,0,1,1,2,2,3,3,4,4,5,5,9,9,10,10,11,11,12,12,13,13,14,14,15,15,16,16,17,17,18,18,19,19],"right_children":[2,4,6,8,10,12,-1,-1,-1,14,16,18,20,22,24,26,28,30,32,34,-1,-1,-1,-1,-1,-1,-1,-1,-1,-1,-1,-1,-1,-1,-1],"split_conditions":[-2.4729152E-1,-6.0710573E-1,3.9977047E-1,-8.2508314E-1,-3.8809186E-1,9.069487E-2,1.5167221E-2,-6.296904E-3,-3.6381208E-3,-4.67904E-1,-2.3664123E-1,2.977099E-1,5.2671754E-1,-8.396947E-2,-4.5081776E-1,-3.4443274E-1,-2.931205E-1,-2.3664123E-1,3.740458E-1,2.977099E-1,1.0990671E-2,-9.776584E-4,-2.3197187E-3,1.4373455E-4,-1.1041954E-3,1.7255555E-4,-1.7147459E-3,3.1800187E-4,1.8077089E-3,2.2281487E-3,4.6169376E-3,-1.0734906E-3,2.2574477E-3,6.8232454E-3,-2.0040728E-3],"split_indices":[0,0,0,0,0,0,0,0,0,0,2,2,2,2,0,0,0,2,2,2,0,0,0,0,0,0,0,0,0,0,0,0,0,0,0],"split_type":[0,0,0,0,0,0,0,0,0,0,0,0,0,0,0,0,0,0,0,0,0,0,0,0,0,0,0,0,0,0,0,0,0,0,0],"sum_hessian":[1.3871387E3,9.41E2,4.461387E2,4.7E2,4.71E2,3.86E2,6.0138695E1,9.3E1,3.77E2,3.18E2,1.53E2,2.67E2,1.19E2,2.26E2,9.2E1,3.4E1,1.19E2,2.34E2,3.3E1,9.8E1,2.1E1,5.1E1,1.75E2,2.1E1,7.1E1,5E0,2.9E1,8E1,3.9E1,1.14E2,1.2E2,2.1E1,1.2E1,8.2E1,1.6E1],"tree_param":{"num_deleted":"0","num_feature":"3","num_nodes":"35","size_leaf_vector":"1"}},{"base_weights":[2.545706E-3,-3.5051197E-2,1.004493E-1,-5.269205E-2,1.8998422E-3,7.391005E-2,1.3900336E-2,-5.0136247E-3,-4.1461196E-2,-9.280231E-3,1.6948048E-2,5.036204E-2,1.0620589E-1,-3.2463085E-3,-3.2561388E-2,-5.816442E-3,-2.2187692E-3,-1.4599868E-2,2.4574611E-2,5.4153115E-2,1.2851527E-3,7.8814216E-2,1.0835259E-2,-6.9756375E-4,-2.519555E-3,-1.5393839E-3,-1.8091993E-4,1.2914893E-3,-1.8132913E-3,2.08467E-3,-8.651925E-4,2.3202251E-3,4.178313E-3,-6.21348E-4,8.690751E-4,6.715644E-3,-1.9221541E-3],"categories":[],"categories_nodes":[],"categories_segments":[],"categories_sizes":[],"default_left":[0,0,0,0,0,0,0,0,0,0,0,0,0,0,0,0,0,0,0,0,0,0,0,0,0,0,0,0,0,0,0,0,0,0,0,0,0],"id":29,"left_children":[1,3,5,7,9,11,-1,-1,13,15,17,19,21,-1,23,25,-1,27,29,31,33,35,-1,-1,-1,-1,-1,-1,-1,-1,-1,-1,-1,-1,-1,-1,-1],"loss_changes":[5.130672E0,6.6120744E-1,9.579766E-1,1.3830614E-1,5.8219902E-2,1.82765E-1,0E0,0E0,1.0776937E-2,1.088058E-2,4.0208157E-2,3.330767E-2,5.5373073E-2,0E0,2.4403393E-2,6.95486E-3,0E0,2.0509738E-2,3.9368637E-2,3.104329E-3,4.9795033E-3,3.0306768E-1,0E0,0E0,0E0,0E0,0E0,0E0,0E0,0E0,0E0,0E0,0E0,0E0,0E0,0E0,0E0],"parents":[2147483647,0,0,1,1,2,2,3,3,4,4,5,5,8,8,9,9,10,10,11,11,12,12,14,14,15,15,17,17,18,18,19,19,20,20,21,21],"right_children":[2,4,6,8,10,12,-1,-1,14,16,18,20,22,-1,24,26,-1,28,30,32,34,36,-1,-1,-1,-1,-1,-1,-1,-1,-1,-1,-1,-1,-1,-1,-1],"split_conditions":[-1.874591E-1,-4.778104E-1,3.9977047E-1,-7.5260454E-1,-3.1098282E-1,9.069487E-2,1.3900336E-2,-5.0136247E-3,-6.2906635E-1,2.977099E-1,-3.8931298E-1,5.4412514E-2,5.2671754E-1,-3.2463085E-3,-8.396947E-2,-3.8931298E-1,-2.2187692E-3,-2.8772533E-1,2.977099E-1,-2.3664123E-1,-3.8931298E-1,2.977099E-1,1.0835259E-2,-6.9756375E-4,-2.519555E-3,-1.5393839E-3,-1.8091993E-4,1.2914893E-3,-1.8132913E-3,2.08467E-3,-8.651925E-4,2.3202251E-3,4.178313E-3,-6.21348E-4,8.690751E-4,6.715644E-3,-1.9221541E-3],"split_indices":[0,0,0,0,0,0,0,0,0,2,2,0,2,0,2,2,0,0,2,2,2,2,0,0,0,0,0,0,0,0,0,0,0,0,0,0,0],"split_type":[0,0,0,0,0,0,0,0,0,0,0,0,0,0,0,0,0,0,0,0,0,0,0,0,0,0,0,0,0,0,0,0,0,0,0,0,0],"sum_hessian":[1.3731387E3,9.96E2,3.771387E2,6.73E2,3.23E2,3.18E2,5.9138695E1,1.97E2,4.76E2,1.84E2,1.39E2,2E2,1.18E2,2.24E2,2.52E2,1.75E2,9E0,2.3E1,1.16E2,1.83E2,1.7E1,9.7E1,2.1E1,6.1E1,1.91E2,1.2E1,1.63E2,3E0,2E1,1.01E2,1.5E1,7.9E1,1.04E2,6E0,1.1E1,8.1E1,1.6E1],"tree_param":{"num_deleted":"0","num_feature":"3","num_nodes":"37","size_leaf_vector":"1"}},{"base_weights":[3.4247888E-3,-3.6046628E-2,8.543972E-2,-5.2404832E-2,-6.802974E-3,6.531424E-2,2.3758823E-1,-5.6525622E-3,-4.4706017E-2,1.0147587E-2,-1.904428E-2,1.4159065E-1,5.2320357E-2,1.6510442E-2,1.2805886E-3,-3.651298E-2,-4.2202864E-3,-3.2007878E-3,2.7840456E-2,-1.15844775E-2,-4.284118E-2,2.5193347E-4,1.0284928E-2,-3.5239633E-3,5.663862E-2,-2.8424514E-3,-1.2033253E-3,-8.597244E-4,2.627305E-3,2.3812698E-3,-1.4418043E-4,-1.8546609E-3,1.0441892E-3,-3.3768315E-3,-1.7394873E-4,2.251663E-3,4.661897E-3],"categories":[],"categories_nodes":[],"categories_segments":[],"categories_sizes":[],"default_left":[0,0,0,0,0,0,0,0,0,0,0,0,0,0,0,0,0,0,0,0,0,0,0,0,0,0,0,0,0,0,0,0,0,0,0,0,0],"id":30,"left_children":[1,3,5,7,9,11,13,-1,15,17,19,21,23,-1,-1,25,-1,27,29,31,33,-1,-1,-1,35,-1,-1,-1,-1,-1,-1,-1,-1,-1,-1,-1,-1],"loss_changes":[4.5308347E0,4.4260788E-1,1.2137752E0,1.0557473E-1,7.568925E-2,3.2205582E-1,6.830168E-2,0E0,4.9288034E-2,3.871946E-2,2.7617276E-2,8.788359E-2,1.9982743E-1,0E0,0E0,3.3543468E-2,0E0,4.1641284E-2,2.1059237E-2,8.5938476E-2,8.633621E-3,0E0,0E0,0E0,8.211219E-2,0E0,0E0,0E0,0E0,0E0,0E0,0E0,0E0,0E0,0E0,0E0,0E0],"parents":[2147483647,0,0,1,1,2,2,3,3,4,4,5,5,6,6,8,8,9,9,10,10,11,11,12,12,15,15,17,17,18,18,19,19,20,20,24,24],"right_children":[2,4,6,8,10,12,14,-1,16,18,20,22,24,-1,-1,26,-1,28,30,32,34,-1,-1,-1,36,-1,-1,-1,-1,-1,-1,-1,-1,-1,-1,-1,-1],"split_conditions":[-2.4729152E-1,-5.4185194E-1,5.174014E-1,-8.2508314E-1,-4.617807E-1,-8.993087E-1,6.124252E-1,-5.6525622E-3,-5.342666E-1,-3.7451157E-1,8.208087E-3,-2.1665888E-2,-8.446503E-1,1.6510442E-2,1.2805886E-3,-6.44884E-1,-4.2202864E-3,-5.161212E-1,-5.0284654E-1,-2.3680179E-1,-2.7382588E-1,2.5193347E-4,1.0284928E-2,-3.5239633E-3,-8.7794855E-2,-2.8424514E-3,-1.2033253E-3,-8.597244E-4,2.627305E-3,2.3812698E-3,-1.4418043E-4,-1.8546609E-3,1.0441892E-3,-3.3768315E-3,-1.7394873E-4,2.251663E-3,4.661897E-3],"split_indices":[0,0,0,0,1,1,1,0,1,0,1,0,1,0,0,0,0,1,1,1,0,0,0,0,0,0,0,0,0,0,0,0,0,0,0,0,0],"split_type":[0,0,0,0,0,0,0,0,0,0,0,0,0,0,0,0,0,0,0,0,0,0,0,0,0,0,0,0,0,0,0,0,0,0,0,0,0],"sum_hessian":[1.3791387E3,9.34E2,4.451387E2,5.92E2,3.42E2,4.06E2,3.9138695E1,9E1,5.02E2,1.41E2,2.01E2,4.4E1,3.62E2,3.5138695E1,4E0,3.76E2,1.26E2,8.2E1,5.9E1,1.67E2,3.4E1,6E0,3.8E1,9E0,3.53E2,2.62E2,1.14E2,7.4E1,8E0,4.7E1,1.2E1,1.06E2,6.1E1,2.4E1,1E1,1.52E2,2.01E2],"tree_param":{"num_deleted":"0","num_feature":"3","num_nodes":"37","size_leaf_vector":"1"}},{"base_weights":[3.1695212E-3,-4.8741517E-3,1.2972586E-1,-2.960411E-2,1.6610451E-2,1.7769681E-1,-2.7877567E-3,2.0144416E-2,-3.175722E-2,3.8022947E-2,3.576793E-3,1.2282739E-2,1.0723878E-3,1.9681428E-3,-0E0,-3.5155087E-3,-2.878766E-2,4.8135603E-3,5.3312354E-2,5.1324256E-2,-1.1550334E-3,-3.066536E-4,-2.225159E-3,1.5987796E-3,-4.775183E-3,6.6040764E-3,2.347199E-3,-2.0608862E-3,7.2582876E-3,-1.3335545E-3,3.4975947E-4],"categories":[],"categories_nodes":[],"categories_segments":[],"categories_sizes":[],"default_left":[0,0,0,0,0,0,0,0,0,0,0,0,0,0,0,0,0,0,0,0,0,0,0,0,0,0,0,0,0,0,0],"id":31,"left_children":[1,3,5,7,9,11,-1,13,15,17,19,-1,-1,-1,-1,-1,21,23,25,27,29,-1,-1,-1,-1,-1,-1,-1,-1,-1,-1],"loss_changes":[1.429377E0,7.034805E-1,7.784494E-1,7.326549E-2,1.9213639E-1,4.8904657E-2,0E0,7.3728254E-3,1.5784502E-2,1.261375E-1,1.0743747E-1,0E0,0E0,0E0,0E0,0E0,6.128058E-2,1.5702553E-1,1.0024464E-1,2.4910462E-1,5.425874E-2,0E0,0E0,0E0,0E0,0E0,0E0,0E0,0E0,0E0,0E0],"parents":[2147483647,0,0,1,1,2,2,3,3,4,4,5,5,7,7,8,8,9,9,10,10,16,16,17,17,18,18,19,19,20,20],"right_children":[2,4,6,8,10,12,-1,14,16,18,20,-1,-1,-1,-1,-1,22,24,26,28,30,-1,-1,-1,-1,-1,-1,-1,-1,-1,-1],"split_conditions":[3.740458E-1,-5.4992145E-1,8.3206105E-1,-2.3664123E-1,6.870229E-2,-8.993087E-1,-2.7877567E-3,-6.1339694E-1,-9.405195E-1,-2.6148537E-1,-5.0284654E-1,1.2282739E-2,1.0723878E-3,1.9681428E-3,-0E0,-3.5155087E-3,-9.0839493E-1,-4.617807E-1,-1.7872657E-1,-5.161212E-1,-3.562169E-1,-3.066536E-4,-2.225159E-3,1.5987796E-3,-4.775183E-3,6.6040764E-3,2.347199E-3,-2.0608862E-3,7.2582876E-3,-1.3335545E-3,3.4975947E-4],"split_indices":[2,1,2,2,2,1,0,1,1,1,1,0,0,0,0,0,1,1,1,1,1,0,0,0,0,0,0,0,0,0,0],"split_type":[0,0,0,0,0,0,0,0,0,0,0,0,0,0,0,0,0,0,0,0,0,0,0,0,0,0,0,0,0,0,0],"sum_hessian":[1.3771387E3,1.303E3,7.4138695E1,6.06E2,6.97E2,5.8138695E1,1.6E1,2E1,5.86E2,2.54E2,4.43E2,5.3138695E1,5E0,1.2E1,8E0,4.7E1,5.39E2,8.6E1,1.68E2,3.3E1,4.1E2,9.9E1,4.4E2,7.5E1,1.1E1,3.2E1,1.36E2,1.5E1,1.8E1,1.02E2,3.08E2],"tree_param":{"num_deleted":"0","num_feature":"3","num_nodes":"31","size_leaf_vector":"1"}},{"base_weights":[3.1506459E-3,-2.4631476E-2,1.0488887E-1,-4.440666E-2,9.373061E-3,7.9617135E-2,2.1456861E-1,-5.263473E-3,-3.7511528E-2,2.0511216E-2,-2.740371E-2,1.31907E-1,6.419918E-2,1.4864664E-2,1.2112147E-3,-2.9698825E-2,-3.4812759E-3,-2.190925E-3,4.2420592E-2,-0E0,-3.0316874E-2,1.7492207E-3,9.479747E-3,-1.6422357E-3,7.505698E-2,-2.58747E-3,-7.6782523E-4,1.338072E-3,-4.4177476E-4,-6.370428E-5,2.9978962E-3,-2.1729174E-3,-0E0,1.5273041E-3,-3.309286E-3,2.2314743E-3,5.8285883E-3],"categories":[],"categories_nodes":[],"categories_segments":[],"categories_sizes":[],"default_left":[0,0,0,0,0,0,0,0,0,0,0,0,0,0,0,0,0,0,0,0,0,0,0,0,0,0,0,0,0,0,0,0,0,0,0,0,0],"id":32,"left_children":[1,3,5,7,9,11,13,-1,15,17,19,21,23,-1,-1,25,-1,27,29,-1,31,-1,-1,33,35,-1,-1,-1,-1,-1,-1,-1,-1,-1,-1,-1,-1],"loss_changes":[3.9639611E0,7.467907E-1,6.403687E-1,1.3122594E-1,1.7312884E-1,1.0964763E-1,4.6827078E-2,0E0,4.9849927E-2,1.6511013E-1,6.330125E-3,9.12869E-3,1.6642386E-1,0E0,0E0,6.495562E-2,0E0,1.695909E-2,2.6996344E-2,0E0,4.951693E-3,0E0,0E0,6.188533E-2,6.5865874E-2,0E0,0E0,0E0,0E0,0E0,0E0,0E0,0E0,0E0,0E0,0E0,0E0],"parents":[2147483647,0,0,1,1,2,2,3,3,4,4,5,5,6,6,8,8,9,9,10,10,11,11,12,12,15,15,17,17,18,18,20,20,23,23,24,24],"right_children":[2,4,6,8,10,12,14,-1,16,18,20,22,24,-1,-1,26,-1,28,30,-1,32,-1,-1,34,36,-1,-1,-1,-1,-1,-1,-1,-1,-1,-1,-1,-1],"split_conditions":[-9.422425E-2,-4.6942422E-1,5.174014E-1,-8.2508314E-1,-1.226147E-1,-8.993087E-1,6.124252E-1,-5.263473E-3,-5.0284654E-1,-3.1098282E-1,8.208087E-3,7.3381506E-2,-6.5226054E-1,1.4864664E-2,1.2112147E-3,-6.44884E-1,-3.4812759E-3,-9.0839493E-1,-8.446503E-1,-0E0,-1.20463036E-1,1.7492207E-3,9.479747E-3,2.1667522E-1,1.0753988E-2,-2.58747E-3,-7.6782523E-4,1.338072E-3,-4.4177476E-4,-6.370428E-5,2.9978962E-3,-2.1729174E-3,-0E0,1.5273041E-3,-3.309286E-3,2.2314743E-3,5.8285883E-3],"split_indices":[0,0,0,0,1,1,1,0,1,0,1,0,1,0,0,0,0,1,1,0,0,0,0,0,0,0,0,0,0,0,0,0,0,0,0,0,0],"split_type":[0,0,0,0,0,0,0,0,0,0,0,0,0,0,0,0,0,0,0,0,0,0,0,0,0,0,0,0,0,0,0,0,0,0,0,0,0],"sum_hessian":[1.3811387E3,1.09E3,2.911387E2,6.89E2,4.01E2,2.51E2,4.0138695E1,9.3E1,5.96E2,3.13E2,8.8E1,3.9E1,2.12E2,3.6138695E1,4E0,4.18E2,1.78E2,1.56E2,1.57E2,1.1E1,7.7E1,8E0,3.1E1,3E1,1.82E2,2.62E2,1.56E2,1.7E1,1.39E2,9E0,1.48E2,6.8E1,9E0,2.2E1,8E0,5.5E1,1.27E2],"tree_param":{"num_deleted":"0","num_feature":"3","num_nodes":"37","size_leaf_vector":"1"}},{"base_weights":[3.3955073E-3,-4.0030256E-3,1.1555787E-1,-2.6502509E-2,1.537149E-2,1.575405E-1,-2.6497042E-3,1.9332666E-2,-2.8443772E-2,9.531811E-3,3.6240981E-3,1.0831731E-2,1.0575668E-3,1.8971037E-3,-0E0,-3.5929903E-2,-2.2515953E-2,4.423495E-2,4.4089123E-3,-1.3069079E-3,-3.8572145E-3,1.5337898E-3,-1.877767E-3,1.0087084E-3,5.947306E-3,-7.944973E-4,1.2537186E-3],"categories":[],"categories_nodes":[],"categories_segments":[],"categories_sizes":[],"default_left":[0,0,0,0,0,0,0,0,0,0,0,0,0,0,0,0,0,0,0,0,0,0,0,0,0,0,0],"id":33,"left_children":[1,3,5,7,9,11,-1,13,15,17,-1,-1,-1,-1,-1,19,21,23,25,-1,-1,-1,-1,-1,-1,-1,-1],"loss_changes":[1.1655746E0,5.759447E-1,6.4110374E-1,6.063664E-2,1.5296832E-1,2.769649E-2,0E0,6.491402E-3,1.308465E-2,1.058099E-1,0E0,0E0,0E0,0E0,0E0,6.848416E-2,1.0701455E-1,8.052097E-2,1.3855334E-1,0E0,0E0,0E0,0E0,0E0,0E0,0E0,0E0],"parents":[2147483647,0,0,1,1,2,2,3,3,4,4,5,5,7,7,8,8,9,9,15,15,16,16,17,17,18,18],"right_children":[2,4,6,8,10,12,-1,14,16,18,-1,-1,-1,-1,-1,20,22,24,26,-1,-1,-1,-1,-1,-1,-1,-1],"split_conditions":[3.740458E-1,-5.4992145E-1,8.3206105E-1,-2.3664123E-1,2.549196E-1,-8.993087E-1,-2.6497042E-3,-6.1339694E-1,-8.370421E-1,-5.0284654E-1,3.6240981E-3,1.0831731E-2,1.0575668E-3,1.8971037E-3,-0E0,-9.0839493E-1,-8.3061904E-1,-5.161212E-1,-2.3146592E-1,-1.3069079E-3,-3.8572145E-3,1.5337898E-3,-1.877767E-3,1.0087084E-3,5.947306E-3,-7.944973E-4,1.2537186E-3],"split_indices":[2,1,2,2,1,1,0,1,1,1,0,0,0,0,0,1,1,1,1,0,0,0,0,0,0,0,0],"split_type":[0,0,0,0,0,0,0,0,0,0,0,0,0,0,0,0,0,0,0,0,0,0,0,0,0,0,0],"sum_hessian":[1.3771387E3,1.3E3,7.7138695E1,6.02E2,6.98E2,6.1138695E1,1.6E1,1.9E1,5.83E2,6.21E2,7.7E1,5.6138695E1,5E0,1.1E1,8E0,2.29E2,3.54E2,6.8E1,5.53E2,1.47E2,8.2E1,3.6E1,3.18E2,5.1E1,1.7E1,2.58E2,2.95E2],"tree_param":{"num_deleted":"0","num_feature":"3","num_nodes":"27","size_leaf_vector":"1"}},{"base_weights":[3.8427126E-3,-3.357019E-3,1.117176E-1,-2.4054492E-2,1.4614892E-2,1.516724E-1,-2.5413944E-3,2.0119822E-2,-2.5945924E-2,9.233335E-3,3.446514E-3,1.0414838E-2,1.0339986E-3,1.9688914E-3,-0E0,-3.0108558E-3,-2.3271585E-2,4.7209505E-2,3.429925E-3,-6.476536E-5,-1.8405279E-3,9.619897E-4,6.650331E-3,-7.0935814E-4,1.05648E-3],"categories":[],"categories_nodes":[],"categories_segments":[],"categories_sizes":[],"default_left":[0,0,0,0,0,0,0,0,0,0,0,0,0,0,0,0,0,0,0,0,0,0,0,0,0],"id":34,"left_children":[1,3,5,7,9,11,-1,13,15,17,-1,-1,-1,-1,-1,-1,19,21,23,-1,-1,-1,-1,-1,-1],"loss_changes":[1.0914679E0,4.9149397E-1,5.954735E-1,5.699715E-2,1.327809E-1,2.3542643E-2,0E0,6.927699E-3,1.48459375E-2,1.3282952E-1,0E0,0E0,0E0,0E0,0E0,0E0,5.4368824E-2,1.1671311E-1,1.02474846E-1,0E0,0E0,0E0,0E0,0E0,0E0],"parents":[2147483647,0,0,1,1,2,2,3,3,4,4,5,5,7,7,8,8,9,9,16,16,17,17,18,18],"right_children":[2,4,6,8,10,12,-1,14,16,18,-1,-1,-1,-1,-1,-1,20,22,24,-1,-1,-1,-1,-1,-1],"split_conditions":[3.740458E-1,-5.4992145E-1,8.3206105E-1,-2.3664123E-1,2.549196E-1,-8.993087E-1,-2.5413944E-3,-6.1339694E-1,-9.405195E-1,-5.0284654E-1,3.446514E-3,1.0414838E-2,1.0339986E-3,1.9688914E-3,-0E0,-3.0108558E-3,-9.0839493E-1,-5.161212E-1,-2.3146592E-1,-6.476536E-5,-1.8405279E-3,9.619897E-4,6.650331E-3,-7.0935814E-4,1.05648E-3],"split_indices":[2,1,2,2,1,1,0,1,1,1,0,0,0,0,0,0,1,1,1,0,0,0,0,0,0],"split_type":[0,0,0,0,0,0,0,0,0,0,0,0,0,0,0,0,0,0,0,0,0,0,0,0,0],"sum_hessian":[1.3781387E3,1.3E3,7.8138695E1,6.05E2,6.95E2,6.2138695E1,1.6E1,1.9E1,5.86E2,6.21E2,7.4E1,5.7138695E1,5E0,1.1E1,8E0,4.7E1,5.39E2,7.1E1,5.5E2,9.9E1,4.4E2,5.3E1,1.8E1,2.56E2,2.94E2],"tree_param":{"num_deleted":"0","num_feature":"3","num_nodes":"25","size_leaf_vector":"1"}},{"base_weights":[2.8459418E-3,-3.960026E-3,1.05352096E-1,-2.3242557E-2,1.2718692E-2,1.4332514E-1,-2.4375117E-3,1.7908368E-2,-2.5070367E-2,7.7585694E-3,3.0815192E-3,9.829259E-3,1.0109555E-3,1.7401981E-3,-0E0,-2.9299716E-3,-2.2407873E-2,4.437362E-2,2.2721218E-3,-2.1031756E-5,-1.770705E-3,8.137072E-4,6.3665365E-3,-7.8165677E-4,1.0061123E-3],"categories":[],"categories_nodes":[],"categories_segments":[],"categories_sizes":[],"default_left":[0,0,0,0,0,0,0,0,0,0,0,0,0,0,0,0,0,0,0,0,0,0,0,0,0],"id":35,"left_children":[1,3,5,7,9,11,-1,13,15,17,-1,-1,-1,-1,-1,-1,19,21,23,-1,-1,-1,-1,-1,-1],"loss_changes":[9.850663E-1,4.2668703E-1,5.367951E-1,5.1354706E-2,1.11313276E-1,1.748681E-2,0E0,5.6607407E-3,1.499179E-2,1.2188853E-1,0E0,0E0,0E0,0E0,0E0,0E0,5.1713765E-2,1.12029046E-1,1.0562911E-1,0E0,0E0,0E0,0E0,0E0,0E0],"parents":[2147483647,0,0,1,1,2,2,3,3,4,4,5,5,7,7,8,8,9,9,16,16,17,17,18,18],"right_children":[2,4,6,8,10,12,-1,14,16,18,-1,-1,-1,-1,-1,-1,20,22,24,-1,-1,-1,-1,-1,-1],"split_conditions":[3.740458E-1,-5.4992145E-1,8.3206105E-1,-2.3664123E-1,2.549196E-1,-8.993087E-1,-2.4375117E-3,-6.1339694E-1,-9.405195E-1,-5.0284654E-1,3.0815192E-3,9.829259E-3,1.0109555E-3,1.7401981E-3,-0E0,-2.9299716E-3,-9.0839493E-1,-5.161212E-1,-2.3146592E-1,-2.1031756E-5,-1.770705E-3,8.137072E-4,6.3665365E-3,-7.8165677E-4,1.0061123E-3],"split_indices":[2,1,2,2,1,1,0,1,1,1,0,0,0,0,0,0,1,1,1,0,0,0,0,0,0],"split_type":[0,0,0,0,0,0,0,0,0,0,0,0,0,0,0,0,0,0,0,0,0,0,0,0,0],"sum_hessian":[1.3831387E3,1.305E3,7.8138695E1,6.06E2,6.99E2,6.2138695E1,1.6E1,2E1,5.86E2,6.23E2,7.6E1,5.7138695E1,5E0,1.2E1,8E0,4.8E1,5.38E2,7E1,5.53E2,9.6E1,4.42E2,5.2E1,1.8E1,2.62E2,2.91E2],"tree_param":{"num_deleted":"0","num_feature":"3","num_nodes":"25","size_leaf_vector":"1"}},{"base_weights":[2.8273317E-3,-2.8746888E-2,6.920085E-2,-4.5886308E-2,-1.0900901E-2,5.2553E-2,1.254346E-2,-4.6461746E-3,-2.4921652E-3,-2.0212328E-2,2.3642567E-3,3.3814445E-2,5.39557E-3,-8.196242E-3,-1.4996937E-3,-2.1903759E-2,9.286058E-3,3.935209E-2,-2.3101927E-3,-1.1725071E-3,-0E0,-0E0,-1.753749E-3,-8.203704E-5,1.1093008E-3,1.2810122E-3,3.6654167E-3,7.675032E-5,-1.0419638E-3],"categories":[],"categories_nodes":[],"categories_segments":[],"categories_sizes":[],"default_left":[0,0,0,0,0,0,0,0,0,0,0,0,0,0,0,0,0,0,0,0,0,0,0,0,0,0,0,0,0],"id":36,"left_children":[1,3,5,7,9,11,-1,-1,-1,13,15,17,-1,19,-1,21,23,25,27,-1,-1,-1,-1,-1,-1,-1,-1,-1,-1],"loss_changes":[2.9233704E0,2.7861947E-1,7.8866696E-1,5.839038E-2,6.110324E-2,1.8810248E-1,0E0,0E0,0E0,4.166819E-3,3.47337E-2,5.8023423E-2,0E0,5.571359E-3,0E0,6.0271565E-3,1.4906109E-2,5.9131473E-2,3.5226345E-3,0E0,0E0,0E0,0E0,0E0,0E0,0E0,0E0,0E0,0E0],"parents":[2147483647,0,0,1,1,2,2,3,3,4,4,5,5,9,9,10,10,11,11,13,13,15,15,16,16,17,17,18,18],"right_children":[2,4,6,8,10,12,-1,-1,-1,14,16,18,-1,20,-1,22,24,26,28,-1,-1,-1,-1,-1,-1,-1,-1,-1,-1],"split_conditions":[-2.4729152E-1,-6.115121E-1,5.174014E-1,-8.2508314E-1,-4.3114096E-1,9.069487E-2,1.254346E-2,-4.6461746E-3,-2.4921652E-3,-8.396947E-2,-2.3664123E-1,2.977099E-1,5.39557E-3,-2.3664123E-1,-1.4996937E-3,-3.4443274E-1,-3.575545E-1,-2.3664123E-1,2.8303849E-2,-1.1725071E-3,-0E0,-0E0,-1.753749E-3,-8.203704E-5,1.1093008E-3,1.2810122E-3,3.6654167E-3,7.675032E-5,-1.0419638E-3],"split_indices":[0,0,0,0,0,0,0,0,0,2,2,2,0,2,0,0,0,2,0,0,0,0,0,0,0,0,0,0,0],"split_type":[0,0,0,0,0,0,0,0,0,0,0,0,0,0,0,0,0,0,0,0,0,0,0,0,0,0,0,0,0],"sum_hessian":[1.3741387E3,9.34E2,4.401387E2,4.66E2,4.68E2,4E2,4.0138695E1,9.3E1,3.73E2,2.76E2,1.92E2,2.59E2,1.41E2,6.2E1,2.14E2,3.5E1,1.57E2,2.26E2,3.3E1,2.3E1,3.9E1,6E0,2.9E1,6.4E1,9.3E1,1.14E2,1.12E2,2.8E1,5E0],"tree_param":{"num_deleted":"0","num_feature":"3","num_nodes":"29","size_leaf_vector":"1"}},{"base_weights":[2.4829733E-3,-2.0482412E-2,8.5249014E-2,-3.660734E-2,5.9532104E-3,6.3457705E-2,1.8387567E-1,-4.3384624E-3,-3.0773314E-2,1.6523516E-2,-3.590704E-2,4.0164772E-2,7.770875E-2,1.2557658E-2,7.53789E-4,-2.229849E-2,-4.8730366E-2,2.7637144E-3,4.052712E-2,-2.4796382E-3,-0E0,5.520578E-2,4.417913E-3,7.2159665E-3,5.975437E-2,-1.9294214E-3,-5.505639E-4,-3.8177876E-3,-1.9711552E-3,1.3449803E-3,-3.5832424E-4,-5.809176E-4,2.9993698E-3,4.376133E-3,-6.246811E-4,9.2436257E-4,-4.4580508E-4,-1.1074041E-3,5.113447E-3],"categories":[],"categories_nodes":[],"categories_segments":[],"categories_sizes":[],"default_left":[0,0,0,0,0,0,0,0,0,0,0,0,0,0,0,0,0,0,0,0,0,0,0,0,0,0,0,0,0,0,0,0,0,0,0,0,0,0,0],"id":37,"left_children":[1,3,5,7,9,11,13,-1,15,17,19,21,23,-1,-1,25,27,29,31,-1,-1,33,35,-1,37,-1,-1,-1,-1,-1,-1,-1,-1,-1,-1,-1,-1,-1,-1],"loss_changes":[2.649626E0,4.6903092E-1,5.1450014E-1,8.7533236E-2,1.8933195E-1,4.6339393E-2,1.8043518E-2,0E0,7.2371185E-2,1.0818135E-1,2.5554225E-3,5.820565E-2,6.922066E-3,0E0,0E0,3.526126E-2,5.782753E-3,3.589901E-2,3.7478626E-2,0E0,0E0,7.2360456E-2,6.840222E-3,0E0,1.8254316E-1,0E0,0E0,0E0,0E0,0E0,0E0,0E0,0E0,0E0,0E0,0E0,0E0,0E0,0E0],"parents":[2147483647,0,0,1,1,2,2,3,3,4,4,5,5,6,6,8,8,9,9,10,10,11,11,12,12,15,15,16,16,17,17,18,18,21,21,22,22,24,24],"right_children":[2,4,6,8,10,12,14,-1,16,18,20,22,24,-1,-1,26,28,30,32,-1,-1,34,36,-1,38,-1,-1,-1,-1,-1,-1,-1,-1,-1,-1,-1,-1,-1,-1],"split_conditions":[-9.422425E-2,-4.759414E-1,5.174014E-1,-8.2508314E-1,8.208087E-3,9.069487E-2,6.124252E-1,-4.3384624E-3,-5.0284654E-1,-2.573204E-1,-1.076575E-1,8.208087E-3,-8.993087E-1,1.2557658E-2,7.53789E-4,-6.44884E-1,-5.7198596E-1,-5.5525535E-1,-8.446503E-1,-2.4796382E-3,-0E0,6.43722E-2,-4.336458E-3,7.2159665E-3,-6.5226054E-1,-1.9294214E-3,-5.505639E-4,-3.8177876E-3,-1.9711552E-3,1.3449803E-3,-3.5832424E-4,-5.809176E-4,2.9993698E-3,4.376133E-3,-6.246811E-4,9.2436257E-4,-4.4580508E-4,-1.1074041E-3,5.113447E-3],"split_indices":[0,0,0,0,1,0,1,0,1,0,0,1,1,0,0,0,0,1,1,0,0,0,0,0,1,0,0,0,0,0,0,0,0,0,0,0,0,0,0],"split_type":[0,0,0,0,0,0,0,0,0,0,0,0,0,0,0,0,0,0,0,0,0,0,0,0,0,0,0,0,0,0,0,0,0,0,0,0,0,0,0],"sum_hessian":[1.3721387E3,1.079E3,2.931387E2,6.7E2,4.09E2,2.54E2,3.9138695E1,9.2E1,5.78E2,3.33E2,7.6E1,1.13E2,1.41E2,3.6138695E1,3E0,4.11E2,1.67E2,2.21E2,1.12E2,7E1,6E0,7.4E1,3.9E1,3.1E1,1.1E2,2.62E2,1.49E2,9.5E1,7.2E1,6.9E1,1.52E2,8E0,1.04E2,6.4E1,1E1,2.4E1,1.5E1,2E1,9E1],"tree_param":{"num_deleted":"0","num_feature":"3","num_nodes":"39","size_leaf_vector":"1"}},{"base_weights":[2.1019124E-3,-2.5665354E-2,6.1132997E-2,-3.6082532E-2,-3.761562E-3,3.5794787E-2,1.1325018E-1,-4.1226316E-3,-3.0326467E-2,2.4302525E-3,-4.4630907E-2,5.7361066E-2,-1.0329401E-3,7.816021E-2,1.6263527E-1,-2.1717533E-2,-3.2475896E-3,2.0610295E-2,-6.174167E-3,-3.4520933E-3,-2.8029783E-4,2.4765437E-3,6.340361E-2,-1.5288572E-3,1.3465782E-2,5.3291917E-3,1.2535889E-4,1.13036055E-2,7.3963334E-4,-1.8008391E-3,-5.8854563E-4,5.458323E-4,2.829496E-3,-9.792419E-4,7.037184E-4,1.8988012E-3,-2.3946066E-3,4.327658E-3,-0E0,2.1813724E-4,1.5567071E-3],"categories":[],"categories_nodes":[],"categories_segments":[],"categories_sizes":[],"default_left":[0,0,0,0,0,0,0,0,0,0,0,0,0,0,0,0,0,0,0,0,0,0,0,0,0,0,0,0,0,0,0,0,0,0,0,0,0,0,0,0,0],"id":38,"left_children":[1,3,5,7,9,11,13,-1,15,17,19,21,23,25,27,29,-1,31,33,-1,-1,35,37,-1,39,-1,-1,-1,-1,-1,-1,-1,-1,-1,-1,-1,-1,-1,-1,-1,-1],"loss_changes":[2.308052E0,2.1313441E-1,5.421022E-1,7.1308374E-2,8.6323634E-2,2.588819E-1,9.956181E-2,0E0,7.315099E-2,4.7415704E-2,6.762296E-3,5.9722602E-2,4.440195E-2,1.27424E-2,3.129947E-2,2.3090214E-2,0E0,1.8795963E-2,3.1089116E-2,0E0,0E0,4.2101867E-2,2.8345048E-2,0E0,5.0260434E-3,0E0,0E0,0E0,0E0,0E0,0E0,0E0,0E0,0E0,0E0,0E0,0E0,0E0,0E0,0E0,0E0],"parents":[2147483647,0,0,1,1,2,2,3,3,4,4,5,5,6,6,8,8,9,9,10,10,11,11,12,12,13,13,14,14,15,15,17,17,18,18,21,21,22,22,24,24],"right_children":[2,4,6,8,10,12,14,-1,16,18,20,22,24,26,28,30,-1,32,34,-1,-1,36,38,-1,40,-1,-1,-1,-1,-1,-1,-1,-1,-1,-1,-1,-1,-1,-1,-1,-1],"split_conditions":[-2.392897E-1,-5.0750804E-1,1.9289437E-1,-8.2508314E-1,8.208087E-3,-1.4474809E-1,5.174014E-1,-4.1226316E-3,-5.342666E-1,-5.5525535E-1,-2.7382588E-1,-8.446503E-1,-9.422425E-2,4.795578E-1,6.124252E-1,-6.44884E-1,-3.2475896E-3,-3.1098282E-1,-2.3680179E-1,-3.4520933E-3,-2.8029783E-4,-8.993087E-1,1.5447164E-1,-1.5288572E-3,6.43722E-2,5.3291917E-3,1.2535889E-4,1.13036055E-2,7.3963334E-4,-1.8008391E-3,-5.8854563E-4,5.458323E-4,2.829496E-3,-9.792419E-4,7.037184E-4,1.8988012E-3,-2.3946066E-3,4.327658E-3,-0E0,2.1813724E-4,1.5567071E-3],"split_indices":[0,0,0,0,1,1,0,0,1,1,0,1,0,0,1,0,0,0,1,0,0,1,0,0,0,0,0,0,0,0,0,0,0,0,0,0,0,0,0,0,0],"split_type":[0,0,0,0,0,0,0,0,0,0,0,0,0,0,0,0,0,0,0,0,0,0,0,0,0,0,0,0,0,0,0,0,0,0,0,0,0,0,0,0,0],"sum_hessian":[1.387E3,9.46E2,4.41E2,6.34E2,3.12E2,3.09E2,1.32E2,9.3E1,5.41E2,2.77E2,3.5E1,1.93E2,1.16E2,9.3E1,3.9E1,3.9E2,1.51E2,8.8E1,1.89E2,2.5E1,1E1,2.2E1,1.71E2,4.6E1,7E1,8.8E1,5E0,3.5E1,4E0,2.58E2,1.32E2,6.8E1,2E1,1.29E2,6E1,1.6E1,6E0,1.65E2,6E0,4.6E1,2.4E1],"tree_param":{"num_deleted":"0","num_feature":"3","num_nodes":"41","size_leaf_vector":"1"}},{"base_weights":[2.2406064E-3,-2.1847589E-2,6.4812146E-2,-3.3964038E-2,-4.4077623E-4,4.82905E-2,1.1213497E-2,-3.8275397E-3,-2.8529724E-2,5.6927213E-3,-3.673873E-2,6.572087E-2,2.5727028E-2,-2.0677464E-2,-4.5883667E-2,2.2118034E-2,-2.068283E-3,-3.0215045E-3,8.687831E-5,5.3517908E-2,8.409002E-3,1.4357301E-3,5.5510778E-2,-1.4446322E-3,5.318522E-4,-3.3923623E-3,-1.3468172E-3,-0E0,2.1326656E-3,-8.2999066E-4,1.2292865E-3,4.1973954E-3,-2.5409148E-3,1.7461103E-3,-5.826138E-4,-6.4105185E-4,4.353107E-3],"categories":[],"categories_nodes":[],"categories_segments":[],"categories_sizes":[],"default_left":[0,0,0,0,0,0,0,0,0,0,0,0,0,0,0,0,0,0,0,0,0,0,0,0,0,0,0,0,0,0,0,0,0,0,0,0,0],"id":39,"left_children":[1,3,5,7,9,11,-1,-1,13,15,17,19,21,23,25,27,29,-1,-1,31,-1,33,35,-1,-1,-1,-1,-1,-1,-1,-1,-1,-1,-1,-1,-1,-1],"loss_changes":[2.102117E0,2.573375E-1,5.758798E-1,5.9807777E-2,8.852642E-2,1.1272317E-1,0E0,0E0,5.877441E-2,4.4053655E-2,2.476684E-2,5.9535086E-2,1.1759418E-1,1.7372504E-2,5.7799816E-3,2.3697998E-2,5.152475E-2,0E0,0E0,1.9198757E-1,0E0,3.1186894E-2,6.315093E-2,0E0,0E0,0E0,0E0,0E0,0E0,0E0,0E0,0E0,0E0,0E0,0E0,0E0,0E0],"parents":[2147483647,0,0,1,1,2,2,3,3,4,4,5,5,8,8,9,9,10,10,11,11,12,12,13,13,14,14,15,15,16,16,19,19,21,21,22,22],"right_children":[2,4,6,8,10,12,-1,-1,14,16,18,20,22,24,26,28,30,-1,-1,32,-1,34,36,-1,-1,-1,-1,-1,-1,-1,-1,-1,-1,-1,-1,-1,-1],"split_conditions":[-1.874591E-1,-5.0750804E-1,5.174014E-1,-8.2508314E-1,8.208087E-3,-1.7872657E-1,1.1213497E-2,-3.8275397E-3,-5.342666E-1,-5.5525535E-1,-2.1147706E-1,-2.3146592E-1,6.43722E-2,-5.4992145E-1,-5.5583435E-1,-8.446503E-1,-2.3146592E-1,-3.0215045E-3,8.687831E-5,-2.794389E-1,8.409002E-3,8.208087E-3,-1.4868294E-1,-1.4446322E-3,5.318522E-4,-3.3923623E-3,-1.3468172E-3,-0E0,2.1326656E-3,-8.2999066E-4,1.2292865E-3,4.1973954E-3,-2.5409148E-3,1.7461103E-3,-5.826138E-4,-6.4105185E-4,4.353107E-3],"split_indices":[0,0,0,0,1,1,0,0,1,1,0,1,0,1,0,1,1,0,0,1,0,1,1,0,0,0,0,0,0,0,0,0,0,0,0,0,0],"split_type":[0,0,0,0,0,0,0,0,0,0,0,0,0,0,0,0,0,0,0,0,0,0,0,0,0,0,0,0,0,0,0,0,0,0,0,0,0],"sum_hessian":[1.3731387E3,9.95E2,3.781387E2,6.29E2,3.66E2,3.4E2,3.8138695E1,9.5E1,5.34E2,3.18E2,4.8E1,1.79E2,1.61E2,3.86E2,1.48E2,1E2,2.18E2,3.9E1,9E0,1.66E2,1.3E1,9.6E1,6.5E1,3.75E2,1.1E1,1.1E2,3.8E1,3.6E1,6.4E1,1.5E2,6.8E1,1.53E2,1.3E1,2.6E1,7E1,8E0,5.7E1],"tree_param":{"num_deleted":"0","num_feature":"3","num_nodes":"37","size_leaf_vector":"1"}},{"base_weights":[3.5729788E-3,-1.9506486E-2,6.353371E-2,-2.9987844E-2,3.2012856E-3,4.845915E-2,1.5400738E-1,-3.2126242E-3,-2.3522815E-2,9.741395E-3,-2.8877169E-2,4.052782E-3,2.4640724E-2,1.0739839E-2,5.1105506E-4,-1.4497602E-2,-3.7653994E-2,-0E0,2.2587927E-2,-2.4404784E-3,8.4136016E-5,-1.3304898E-4,7.0859745E-2,-1.3640586E-3,-3.2172122E-4,-3.2389723E-3,-1.6370583E-3,1.1469338E-3,-1.94551E-4,2.4155031E-3,6.0542196E-4,-1.3136402E-3,6.691787E-4,4.8564984E-3,-0E0],"categories":[],"categories_nodes":[],"categories_segments":[],"categories_sizes":[],"default_left":[0,0,0,0,0,0,0,0,0,0,0,0,0,0,0,0,0,0,0,0,0,0,0,0,0,0,0,0,0,0,0,0,0,0,0],"id":40,"left_children":[1,3,5,7,9,11,13,-1,15,17,19,-1,21,-1,-1,23,25,27,29,-1,-1,31,33,-1,-1,-1,-1,-1,-1,-1,-1,-1,-1,-1,-1],"loss_changes":[1.9257203E0,2.42042E-1,4.3634617E-1,6.606841E-2,6.8725444E-2,8.54938E-2,3.8576603E-2,0E0,5.8253765E-2,3.475043E-2,1.7242182E-2,0E0,1.6885567E-1,0E0,0E0,1.7412275E-2,1.0650486E-2,9.145534E-3,1.5146673E-2,0E0,0E0,2.3435362E-2,1.0416716E-2,0E0,0E0,0E0,0E0,0E0,0E0,0E0,0E0,0E0,0E0,0E0,0E0],"parents":[2147483647,0,0,1,1,2,2,3,3,4,4,5,5,6,6,8,8,9,9,10,10,12,12,15,15,16,16,17,17,18,18,21,21,22,22],"right_children":[2,4,6,8,10,12,14,-1,16,18,20,-1,22,-1,-1,24,26,28,30,-1,-1,32,34,-1,-1,-1,-1,-1,-1,-1,-1,-1,-1,-1,-1],"split_conditions":[-1.874591E-1,-4.6942422E-1,5.174014E-1,-7.7733094E-1,8.208087E-3,-1.4474809E-1,6.124252E-1,-3.2126242E-3,-5.3444785E-1,-3.1098282E-1,-2.1147706E-1,4.052782E-3,1.5447164E-1,1.0739839E-2,5.1105506E-4,-6.44884E-1,-5.98282E-1,-9.0839493E-1,-5.0284654E-1,-2.4404784E-3,8.4136016E-5,-9.422425E-2,4.795578E-1,-1.3640586E-3,-3.2172122E-4,-3.2389723E-3,-1.6370583E-3,1.1469338E-3,-1.94551E-4,2.4155031E-3,6.0542196E-4,-1.3136402E-3,6.691787E-4,4.8564984E-3,-0E0],"split_indices":[0,0,0,0,1,1,1,0,1,0,0,0,0,0,0,0,0,1,1,0,0,0,0,0,0,0,0,0,0,0,0,0,0,0,0],"split_type":[0,0,0,0,0,0,0,0,0,0,0,0,0,0,0,0,0,0,0,0,0,0,0,0,0,0,0,0,0,0,0,0,0,0,0],"sum_hessian":[1.3701387E3,9.93E2,3.771387E2,6.8E2,3.13E2,3.37E2,4.0138695E1,1.54E2,5.26E2,2.68E2,4.5E1,2.05E2,1.32E2,3.6138695E1,4E0,3.37E2,1.89E2,1.58E2,1.1E2,3.6E1,9E0,9.1E1,4.1E1,1.92E2,1.45E2,8.1E1,1.08E2,1.6E1,1.42E2,4.2E1,6.8E1,3.1E1,6E1,3.9E1,2E0],"tree_param":{"num_deleted":"0","num_feature":"3","num_nodes":"35","size_leaf_vector":"1"}},{"base_weights":[2.3793646E-3,-2.3686236E-3,7.471157E-2,-1.6075715E-2,9.383506E-3,1.0520476E-1,-2.2379146E-3,1.8558266E-2,-1.7645182E-2,4.01696E-2,5.1915892E-3,7.2220373E-3,6.2218605E-4,1.6109872E-3,-0E0,-1.4311271E-2,-3.67545E-2,1.0059783E-2,5.9794993E-3,-9.365067E-3,1.55228125E-2,-2.1194064E-3,-7.677686E-4,-3.2577075E-3,-6.0182065E-4,1.8838017E-3,-1.7127562E-3,1.530209E-4,-2.1912968E-3,5.5805547E-3,4.2857148E-4],"categories":[],"categories_nodes":[],"categories_segments":[],"categories_sizes":[],"default_left":[0,0,0,0,0,0,0,0,0,0,0,0,0,0,0,0,0,0,0,0,0,0,0,0,0,0,0,0,0,0,0],"id":41,"left_children":[1,3,5,7,9,11,-1,13,15,17,19,-1,-1,-1,-1,21,23,25,-1,27,29,-1,-1,-1,-1,-1,-1,-1,-1,-1,-1],"loss_changes":[4.84618E-1,2.1307063E-1,3.294987E-1,3.6371112E-2,8.517715E-2,9.478807E-3,0E0,3.1248499E-3,2.7980909E-2,1.0507406E-1,9.7743526E-2,0E0,0E0,0E0,0E0,1.7210722E-2,1.7575063E-2,4.9516883E-2,0E0,7.814995E-2,2.2330919E-1,0E0,0E0,0E0,0E0,0E0,0E0,0E0,0E0,0E0,0E0],"parents":[2147483647,0,0,1,1,2,2,3,3,4,4,5,5,7,7,8,8,9,9,10,10,15,15,16,16,17,17,19,19,20,20],"right_children":[2,4,6,8,10,12,-1,14,16,18,20,-1,-1,-1,-1,22,24,26,-1,28,30,-1,-1,-1,-1,-1,-1,-1,-1,-1,-1],"split_conditions":[3.740458E-1,-5.4992145E-1,8.3206105E-1,-2.3664123E-1,-5.0284654E-1,-8.993087E-1,-2.2379146E-3,-6.1339694E-1,2.977099E-1,-5.161212E-1,-2.3146592E-1,7.2220373E-3,6.2218605E-4,1.6109872E-3,-0E0,-9.405195E-1,-8.446503E-1,-8.396947E-2,5.9794993E-3,-2.794389E-1,-1.7872657E-1,-2.1194064E-3,-7.677686E-4,-3.2577075E-3,-6.0182065E-4,1.8838017E-3,-1.7127562E-3,1.530209E-4,-2.1912968E-3,5.5805547E-3,4.2857148E-4],"split_indices":[2,1,2,2,1,1,0,1,2,1,1,0,0,0,0,1,1,2,0,1,1,0,0,0,0,0,0,0,0,0,0],"split_type":[0,0,0,0,0,0,0,0,0,0,0,0,0,0,0,0,0,0,0,0,0,0,0,0,0,0,0,0,0,0,0],"sum_hessian":[1.3771387E3,1.3E3,7.7138695E1,6.02E2,6.98E2,6.1138695E1,1.6E1,1.9E1,5.83E2,7.1E1,6.27E2,5.6138695E1,5E0,1.2E1,7E0,5.15E2,6.8E1,5.3E1,1.8E1,2.57E2,3.7E2,4.8E1,4.67E2,3.9E1,2.9E1,3.8E1,1.5E1,1.76E2,8.1E1,3.2E1,3.38E2],"tree_param":{"num_deleted":"0","num_feature":"3","num_nodes":"31","size_leaf_vector":"1"}},{"base_weights":[2.8322535E-3,-1.4801377E-2,6.7826584E-2,-2.5133023E-2,1.139242E-2,5.0914124E-2,9.444328E-3,-2.8534248E-3,-1.8935172E-2,-3.930899E-3,1.8163666E-2,-0E0,5.5329986E-2,-1.5368459E-3,-1.2132336E-2,-1.6459338E-2,4.9078967E-3,2.3339517E-2,-1.0553473E-3,-1.8297024E-2,1.2880704E-2,4.6047512E-2,7.933725E-2,-6.0504634E-4,-1.9044399E-3,2.5908015E-4,-1.439851E-3,1.3279581E-3,-1.1586798E-3,4.876467E-4,2.0939955E-3,-0E0,-1.8293146E-3,2.1362414E-3,-1.3157887E-4,3.9663473E-3,-2.8527244E-3,1.5636065E-4,6.0142516E-3],"categories":[],"categories_nodes":[],"categories_segments":[],"categories_sizes":[],"default_left":[0,0,0,0,0,0,0,0,0,0,0,0,0,0,0,0,0,0,0,0,0,0,0,0,0,0,0,0,0,0,0,0,0,0,0,0,0,0,0],"id":42,"left_children":[1,3,5,7,9,11,-1,-1,13,15,17,19,21,-1,23,25,27,29,-1,31,33,35,37,-1,-1,-1,-1,-1,-1,-1,-1,-1,-1,-1,-1,-1,-1,-1,-1],"loss_changes":[1.593837E0,2.9923785E-1,2.9065084E-1,7.5202286E-2,3.4444604E-2,5.405456E-2,0E0,0E0,1.2255296E-2,1.2888252E-2,4.3745525E-2,9.38736E-3,5.6611896E-3,0E0,7.169474E-3,7.7416087E-3,2.4918878E-2,2.1073587E-2,0E0,4.913795E-3,1.119573E-2,2.7665246E-1,3.5351753E-2,0E0,0E0,0E0,0E0,0E0,0E0,0E0,0E0,0E0,0E0,0E0,0E0,0E0,0E0,0E0,0E0],"parents":[2147483647,0,0,1,1,2,2,3,3,4,4,5,5,8,8,9,9,10,10,11,11,12,12,14,14,15,15,16,16,17,17,19,19,20,20,21,21,22,22],"right_children":[2,4,6,8,10,12,-1,-1,14,16,18,20,22,-1,24,26,28,30,-1,32,34,36,38,-1,-1,-1,-1,-1,-1,-1,-1,-1,-1,-1,-1,-1,-1,-1,-1],"split_conditions":[-8.7794855E-2,-3.8809186E-1,5.174014E-1,-7.604942E-1,-2.3664123E-1,-3.8931298E-1,9.444328E-3,-2.8534248E-3,-5.737023E-1,-2.2695424E-1,2.977099E-1,-2.811411E-2,5.2671754E-1,-1.5368459E-3,2.977099E-1,-3.4443274E-1,-1.4606407E-1,-2.931205E-1,-1.0553473E-3,-4.33854E-2,2.8303849E-2,2.977099E-1,7.3381506E-2,-6.0504634E-4,-1.9044399E-3,2.5908015E-4,-1.439851E-3,1.3279581E-3,-1.1586798E-3,4.876467E-4,2.0939955E-3,-0E0,-1.8293146E-3,2.1362414E-3,-1.3157887E-4,3.9663473E-3,-2.8527244E-3,1.5636065E-4,6.0142516E-3],"split_indices":[0,0,0,0,2,2,0,0,0,0,2,0,2,0,2,0,0,0,0,0,0,2,0,0,0,0,0,0,0,0,0,0,0,0,0,0,0,0,0],"split_type":[0,0,0,0,0,0,0,0,0,0,0,0,0,0,0,0,0,0,0,0,0,0,0,0,0,0,0,0,0,0,0,0,0,0,0,0,0,0,0],"sum_hessian":[1.3681387E3,1.081E3,2.871387E2,7.78E2,3.03E2,2.49E2,3.8138695E1,1.79E2,5.99E2,9E1,2.13E2,2.2E1,2.27E2,3.41E2,2.58E2,3.8E1,5.2E1,1.9E2,2.3E1,5E0,1.7E1,1.87E2,4E1,2.37E2,2.1E1,5E0,3.3E1,3.4E1,1.8E1,7.6E1,1.14E2,2E0,3E0,5E0,1.2E1,1.65E2,2.2E1,8E0,3.2E1],"tree_param":{"num_deleted":"0","num_feature":"3","num_nodes":"39","size_leaf_vector":"1"}},{"base_weights":[1.7724211E-3,-1.4794003E-2,6.382862E-2,-2.4969678E-2,9.527658E-3,4.77936E-2,8.718319E-3,-2.735078E-3,-1.9352673E-2,-7.147086E-3,1.7056072E-2,2.7318332E-2,5.9621755E-2,-2.1346979E-2,-1.0916172E-2,-2.0232568E-2,2.9402091E-3,2.146587E-2,-1.1344894E-2,1.0797302E-2,5.20799E-2,7.312148E-2,3.426899E-2,-7.657483E-4,-1.5579296E-3,5.205029E-4,-8.530848E-4,-0E0,-1.6126604E-3,1.0735485E-3,-1.1092344E-3,-0E0,1.7223682E-3,-0E0,-1.397053E-3,1.1412693E-3,-2.287047E-4,3.868396E-3,-2.5189562E-5,5.377384E-3,-3.1118208E-4,-3.347532E-3,4.8045083E-3],"categories":[],"categories_nodes":[],"categories_segments":[],"categories_sizes":[],"default_left":[0,0,0,0,0,0,0,0,0,0,0,0,0,0,0,0,0,0,0,0,0,0,0,0,0,0,0,0,0,0,0,0,0,0,0,0,0,0,0,0,0,0,0],"id":43,"left_children":[1,3,5,7,9,11,-1,-1,13,15,17,19,21,23,25,27,29,31,33,35,37,39,41,-1,-1,-1,-1,-1,-1,-1,-1,-1,-1,-1,-1,-1,-1,-1,-1,-1,-1,-1,-1],"loss_changes":[1.428191E0,2.7417856E-1,2.439003E-1,5.8813244E-2,4.311348E-2,3.7637115E-2,0E0,0E0,4.913777E-3,1.5983442E-2,3.2327913E-2,3.5329886E-2,1.700753E-2,4.622847E-3,6.981762E-3,6.075278E-3,1.9499816E-2,2.1583378E-2,3.075805E-3,9.569553E-3,1.9801453E-2,6.85246E-2,2.779755E-1,0E0,0E0,0E0,0E0,0E0,0E0,0E0,0E0,0E0,0E0,0E0,0E0,0E0,0E0,0E0,0E0,0E0,0E0,0E0,0E0],"parents":[2147483647,0,0,1,1,2,2,3,3,4,4,5,5,8,8,9,9,10,10,11,11,12,12,13,13,14,14,15,15,16,16,17,17,18,18,19,19,20,20,21,21,22,22],"right_children":[2,4,6,8,10,12,-1,-1,14,16,18,20,22,24,26,28,30,32,34,36,38,40,42,-1,-1,-1,-1,-1,-1,-1,-1,-1,-1,-1,-1,-1,-1,-1,-1,-1,-1,-1,-1],"split_conditions":[-8.7794855E-2,-4.0479052E-1,5.174014E-1,-7.6308054E-1,-2.3664123E-1,-2.3664123E-1,8.718319E-3,-2.735078E-3,-5.0750804E-1,-2.2695424E-1,2.977099E-1,1.9289437E-1,2.977099E-1,-8.396947E-2,-5.0299966E-1,-3.4443274E-1,-1.4606407E-1,-3.575545E-1,3.740458E-1,9.924636E-2,4.795578E-1,3.291774E-1,3.740458E-1,-7.657483E-4,-1.5579296E-3,5.205029E-4,-8.530848E-4,-0E0,-1.6126604E-3,1.0735485E-3,-1.1092344E-3,-0E0,1.7223682E-3,-0E0,-1.397053E-3,1.1412693E-3,-2.287047E-4,3.868396E-3,-2.5189562E-5,5.377384E-3,-3.1118208E-4,-3.347532E-3,4.8045083E-3],"split_indices":[0,0,0,0,2,2,0,0,0,0,2,0,2,2,0,0,0,0,2,0,0,0,2,0,0,0,0,0,0,0,0,0,0,0,0,0,0,0,0,0,0,0,0],"split_type":[0,0,0,0,0,0,0,0,0,0,0,0,0,0,0,0,0,0,0,0,0,0,0,0,0,0,0,0,0,0,0,0,0,0,0,0,0,0,0,0,0,0,0],"sum_hessian":[1.3661387E3,1.083E3,2.831387E2,7.66E2,3.17E2,2.44E2,3.9138695E1,1.74E2,5.92E2,9.5E1,2.22E2,1.04E2,1.4E2,4.58E2,1.34E2,4.1E1,5.4E1,1.97E2,2.5E1,7.3E1,3.1E1,7.7E1,6.3E1,1.07E2,3.51E2,6E0,1.28E2,6E0,3.5E1,3.6E1,1.8E1,3.6E1,1.61E2,1.8E1,7E0,5.3E1,2E1,2.8E1,3E0,7E1,7E0,1.8E1,4.5E1],"tree_param":{"num_deleted":"0","num_feature":"3","num_nodes":"43","size_leaf_vector":"1"}},{"base_weights":[2.3615812E-3,-1.9053754E-3,6.734832E-2,4.8552567E-4,-2.562678E-3,9.5032655E-2,-2.0300432E-3,-4.9255164E-3,1.2768556E-2,6.5143383E-3,5.64824E-4,-1.2831633E-3,-2.2809305E-3,5.1987963E-3,2.8370277E-3,-2.496404E-4,5.494824E-3,-3.154821E-4,1.7722585E-3],"categories":[],"categories_nodes":[],"categories_segments":[],"categories_sizes":[],"default_left":[0,0,0,0,0,0,0,0,0,0,0,0,0,0,0,0,0,0,0],"id":44,"left_children":[1,3,5,7,-1,9,-1,11,13,-1,-1,15,-1,-1,17,-1,-1,-1,-1],"loss_changes":[3.9123467E-1,1.1942126E-1,2.707012E-1,8.346216E-2,0E0,5.879879E-3,0E0,8.9360826E-2,2.4396932E-1,0E0,0E0,1.6137975E-1,0E0,0E0,6.6972785E-2,0E0,0E0,0E0,0E0],"parents":[2147483647,0,0,1,1,2,2,3,3,5,5,7,7,8,8,11,11,14,14],"right_children":[2,4,6,8,-1,10,-1,12,14,-1,-1,16,-1,-1,18,-1,-1,-1,-1],"split_conditions":[3.740458E-1,2.977099E-1,8.3206105E-1,-2.3146592E-1,-2.562678E-3,-8.993087E-1,-2.0300432E-3,-2.794389E-1,-1.5911777E-1,6.5143383E-3,5.64824E-4,-2.8044522E-1,-2.2809305E-3,5.1987963E-3,2.549196E-1,-2.496404E-4,5.494824E-3,-3.154821E-4,1.7722585E-3],"split_indices":[2,2,2,1,0,1,0,1,1,0,0,1,0,0,1,0,0,0,0],"split_type":[0,0,0,0,0,0,0,0,0,0,0,0,0,0,0,0,0,0,0],"sum_hessian":[1.3751387E3,1.298E3,7.7138695E1,1.226E3,7.2E1,6.1138695E1,1.6E1,8.5E2,3.76E2,5.6138695E1,5E0,7.69E2,8.1E1,3.9E1,3.37E2,7.57E2,1.2E1,2.59E2,7.8E1],"tree_param":{"num_deleted":"0","num_feature":"3","num_nodes":"19","size_leaf_vector":"1"}},{"base_weights":[1.99359E-3,-1.516071E-3,5.6683086E-2,-1.1570515E-2,7.0201666E-3,5.413715E-3,-1.9470645E-3,-8.05133E-3,-3.3005908E-2,4.1415926E-2,2.5756722E-3,2.064355E-2,-9.608122E-3,-2.8551798E-3,-8.135829E-3,1.2388119E-2,5.6652073E-3,-3.0800743E-2,5.956632E-3,1.7626091E-3,-0E0,-1.7663478E-3,-4.707309E-4,4.754326E-5,-9.779881E-4,2.0718994E-3,-1.5348981E-3,-6.006553E-4,-4.573255E-3,1.4582163E-4,1.7534682E-3],"categories":[],"categories_nodes":[],"categories_segments":[],"categories_sizes":[],"default_left":[0,0,0,0,0,0,0,0,0,0,0,0,0,0,0,0,0,0,0,0,0,0,0,0,0,0,0,0,0,0,0],"id":45,"left_children":[1,3,5,7,9,-1,-1,11,13,15,17,19,21,-1,23,25,-1,27,29,-1,-1,-1,-1,-1,-1,-1,-1,-1,-1,-1,-1],"loss_changes":[2.7033478E-1,1.1302075E-1,2.1560562E-1,3.9441533E-2,1.02849886E-1,0E0,0E0,2.4958141E-2,1.2162127E-2,8.138104E-2,7.150273E-2,3.0512698E-3,1.7041255E-2,0E0,3.6375227E-3,4.862439E-2,0E0,3.5076544E-2,4.242745E-2,0E0,0E0,0E0,0E0,0E0,0E0,0E0,0E0,0E0,0E0,0E0,0E0],"parents":[2147483647,0,0,1,1,2,2,3,3,4,4,7,7,8,8,9,9,10,10,11,11,12,12,14,14,15,15,17,17,18,18],"right_children":[2,4,6,8,10,-1,-1,12,14,16,18,20,22,-1,24,26,-1,28,30,-1,-1,-1,-1,-1,-1,-1,-1,-1,-1,-1,-1],"split_conditions":[3.740458E-1,-5.4992145E-1,8.3206105E-1,2.977099E-1,-5.0284654E-1,5.413715E-3,-1.9470645E-3,-2.3664123E-1,-8.446503E-1,-5.161212E-1,-3.8931298E-1,-6.1339694E-1,-9.405195E-1,-2.8551798E-3,-8.3169657E-1,-8.396947E-2,5.6652073E-3,-4.617807E-1,2.549196E-1,1.7626091E-3,-0E0,-1.7663478E-3,-4.707309E-4,4.754326E-5,-9.779881E-4,2.0718994E-3,-1.5348981E-3,-6.006553E-4,-4.573255E-3,1.4582163E-4,1.7534682E-3],"split_indices":[2,1,2,2,1,0,0,2,1,1,2,1,1,0,1,2,0,1,1,0,0,0,0,0,0,0,0,0,0,0,0],"split_type":[0,0,0,0,0,0,0,0,0,0,0,0,0,0,0,0,0,0,0,0,0,0,0,0,0,0,0,0,0,0,0],"sum_hessian":[1.3681387E3,1.293E3,7.5138695E1,5.97E2,6.96E2,5.9138695E1,1.6E1,5.28E2,6.9E1,6.8E1,6.28E2,1.8E1,5.1E2,4.1E1,2.8E1,5E1,1.8E1,4.8E1,5.8E2,1.1E1,7E0,4.7E1,4.63E2,1E1,1.8E1,3.5E1,1.5E1,4E1,8E0,5.04E2,7.6E1],"tree_param":{"num_deleted":"0","num_feature":"3","num_nodes":"31","size_leaf_vector":"1"}},{"base_weights":[2.3835679E-3,-1.1813333E-3,5.985927E-2,-1.1112517E-2,7.429098E-3,5.6924555E-3,-1.8674773E-3,-8.023023E-3,-2.8408794E-2,3.6750004E-2,3.4990744E-3,1.6358731E-2,-9.430169E-3,-2.6866235E-3,-4.4985972E-3,8.953211E-3,5.423452E-3,-9.865342E-3,1.3036356E-2,1.5335204E-3,-0E0,-3.5868352E-4,-1.2140509E-3,1.906466E-4,-8.059233E-4,1.687082E-3,-1.4737053E-3,7.272993E-5,-2.0535083E-3,4.6458207E-3,2.612083E-4],"categories":[],"categories_nodes":[],"categories_segments":[],"categories_sizes":[],"default_left":[0,0,0,0,0,0,0,0,0,0,0,0,0,0,0,0,0,0,0,0,0,0,0,0,0,0,0,0,0,0,0],"id":46,"left_children":[1,3,5,7,9,-1,-1,11,13,15,17,19,21,-1,23,25,-1,27,29,-1,-1,-1,-1,-1,-1,-1,-1,-1,-1,-1,-1],"loss_changes":[2.9101783E-1,1.1382676E-1,2.2379676E-1,2.7631812E-2,7.652605E-2,0E0,0E0,1.956793E-2,1.950778E-2,8.564961E-2,8.2708284E-2,3.8435794E-3,1.5673786E-2,0E0,3.6445437E-3,3.8167372E-2,0E0,6.547446E-2,1.8861252E-1,0E0,0E0,0E0,0E0,0E0,0E0,0E0,0E0,0E0,0E0,0E0,0E0],"parents":[2147483647,0,0,1,1,2,2,3,3,4,4,7,7,8,8,9,9,10,10,11,11,12,12,14,14,15,15,17,17,18,18],"right_children":[2,4,6,8,10,-1,-1,12,14,16,18,20,22,-1,24,26,-1,28,30,-1,-1,-1,-1,-1,-1,-1,-1,-1,-1,-1,-1],"split_conditions":[5.2671754E-1,-5.4992145E-1,8.3206105E-1,2.977099E-1,-5.0284654E-1,5.6924555E-3,-1.8674773E-3,-2.3664123E-1,-8.446503E-1,-5.161212E-1,-2.3146592E-1,-6.1339694E-1,-7.3325324E-1,-2.6866235E-3,-6.845969E-1,-8.396947E-2,5.423452E-3,-2.794389E-1,-1.5911777E-1,1.5335204E-3,-0E0,-3.5868352E-4,-1.2140509E-3,1.906466E-4,-8.059233E-4,1.687082E-3,-1.4737053E-3,7.272993E-5,-2.0535083E-3,4.6458207E-3,2.612083E-4],"split_indices":[2,1,2,2,1,0,0,2,1,1,1,1,1,0,1,2,0,1,1,0,0,0,0,0,0,0,0,0,0,0,0],"split_type":[0,0,0,0,0,0,0,0,0,0,0,0,0,0,0,0,0,0,0,0,0,0,0,0,0,0,0,0,0,0,0],"sum_hessian":[1.3811387E3,1.308E3,7.3138695E1,6.11E2,6.97E2,5.7138695E1,1.6E1,5.35E2,7.6E1,7E1,6.27E2,2E1,5.15E2,4.3E1,3.3E1,5.2E1,1.8E1,2.57E2,3.7E2,1.2E1,8E0,3.75E2,1.4E2,1.4E1,1.9E1,3.7E1,1.5E1,1.73E2,8.4E1,4E1,3.3E2],"tree_param":{"num_deleted":"0","num_feature":"3","num_nodes":"31","size_leaf_vector":"1"}},{"base_weights":[1.9378198E-3,-1.40546E-3,5.433018E-2,-1.0404061E-2,6.3594957E-3,7.809356E-2,-1.7911426E-3,-7.116638E-3,-2.9912133E-2,3.5646114E-2,2.4806396E-3,5.3483816E-3,4.2734106E-4,-1.6580115E-3,-4.757555E-3,-2.5843035E-3,-8.6549865E-3,9.108007E-3,5.1920135E-3,-2.9812006E-2,5.73494E-3,-9.249614E-6,-1.0229995E-3,1.7452672E-4,-1.1032731E-3,1.6221377E-3,-1.4496715E-3,-5.727198E-4,-4.43987E-3,1.5030915E-4,1.6196902E-3],"categories":[],"categories_nodes":[],"categories_segments":[],"categories_sizes":[],"default_left":[0,0,0,0,0,0,0,0,0,0,0,0,0,0,0,0,0,0,0,0,0,0,0,0,0,0,0,0,0,0,0],"id":47,"left_children":[1,3,5,7,9,11,-1,13,15,17,19,-1,-1,-1,21,-1,23,25,-1,27,29,-1,-1,-1,-1,-1,-1,-1,-1,-1,-1],"loss_changes":[2.509457E-1,9.358116E-2,1.9184288E-1,3.4491748E-2,7.6525204E-2,2.5765598E-3,0E0,1.9536525E-2,8.754574E-3,7.6458186E-2,6.692519E-2,0E0,0E0,0E0,2.3576384E-2,0E0,5.451195E-3,3.539664E-2,0E0,3.323386E-2,3.5674546E-2,0E0,0E0,0E0,0E0,0E0,0E0,0E0,0E0,0E0,0E0],"parents":[2147483647,0,0,1,1,2,2,3,3,4,4,5,5,7,7,8,8,9,9,10,10,14,14,16,16,17,17,19,19,20,20],"right_children":[2,4,6,8,10,12,-1,14,16,18,20,-1,-1,-1,22,-1,24,26,-1,28,30,-1,-1,-1,-1,-1,-1,-1,-1,-1,-1],"split_conditions":[3.740458E-1,-5.4992145E-1,8.3206105E-1,2.977099E-1,-5.0284654E-1,-8.993087E-1,-1.7911426E-3,-9.405195E-1,-8.446503E-1,-5.161212E-1,-3.8931298E-1,5.3483816E-3,4.2734106E-4,-1.6580115E-3,-6.1339694E-1,-2.5843035E-3,-8.3169657E-1,-8.396947E-2,5.1920135E-3,-4.617807E-1,2.549196E-1,-9.249614E-6,-1.0229995E-3,1.7452672E-4,-1.1032731E-3,1.6221377E-3,-1.4496715E-3,-5.727198E-4,-4.43987E-3,1.5030915E-4,1.6196902E-3],"split_indices":[2,1,2,2,1,1,0,1,1,1,2,0,0,0,1,0,1,2,